layers 11
layer 0 Dense
5 234
[-0.04104266 -0.06129849 -0.06776673  0.00770471  0.01132622  0.01479083
  0.03667498  0.00967086  0.05892042 -0.02108281  0.06885472  0.03829517
  0.02974567  0.08723242 -0.00877099  0.01498962  0.03037253  0.11272426
 -0.03828213  0.02919856 -0.04835855  0.03424573 -0.02884508 -0.00227991
  0.0423087   0.04299001 -0.06643587 -0.01822218  0.01322741  0.04836132
 -0.01859976 -0.04791693 -0.06671248 -0.02316437 -0.07914735  0.00924308
 -0.02184636 -0.02992103 -0.00387272  0.00540366 -0.01330816 -0.02912184
  0.03749492 -0.03434989  0.03891    -0.0018793  -0.1334329   0.01007637
  0.01326263 -0.0210905   0.04634342  0.04587956  0.04041185 -0.02079252
 -0.00359778 -0.01067403 -0.04817479  0.00157477  0.03616364  0.00250989
  0.08860144 -0.06350321  0.09910209  0.0345153  -0.01602127 -0.07814181
  0.00834247  0.00367187 -0.03158999 -0.06740641 -0.05415688  0.03018316
  0.11633468 -0.06184592 -0.07914861 -0.03729274 -0.0396354   0.11688729
 -0.01608196  0.00691249 -0.01765177 -0.07208085 -0.09549121 -0.02350727
 -0.0220598   0.03875469  0.07653338 -0.0133713  -0.00082451 -0.03734355
  0.00155693  0.08357993 -0.02495876 -0.07480652  0.03160731 -0.00682892
 -0.00660032  0.0515292  -0.0795125  -0.00123017  0.05935397  0.00452252
 -0.022276   -0.06538565 -0.0310093   0.10099589  0.02925884 -0.06007906
 -0.01316287  0.01138979 -0.00526512  0.05718927  0.02698705 -0.00731638
 -0.00602328 -0.00588094  0.07353594  0.02837412  0.04006442 -0.00780827
 -0.01084064  0.02483661 -0.02304055  0.01629181  0.0007962   0.00465202
  0.03264568  0.07708813  0.07342405  0.04766554 -0.11376312 -0.06946292
  0.0764287   0.02744197 -0.02613458 -0.01686453  0.00611935 -0.00610447
 -0.01822349 -0.01856055  0.09825654 -0.02237643  0.03551279  0.0288555
 -0.03160068  0.1005292   0.02552192  0.04424881 -0.22961275  0.04485159
 -0.09081177  0.03273083 -0.06859867 -0.07200816 -0.01222365 -0.01678059
  0.07533086  0.01838709  0.08774468 -0.05310374 -0.11552963  0.03373471
  0.00585652 -0.11867423 -0.04666296 -0.05084436 -0.06354614  0.04551259
 -0.04310097 -0.08056077  0.02879032  0.04636009  0.01893558  0.02783865
 -0.04298614 -0.00135605  0.04015623 -0.00872587 -0.02713143 -0.00225521
 -0.00066316  0.04755399 -0.04060093 -0.00960604  0.05862317  0.00981132
  0.00357969  0.02276296  0.10860608  0.09338409 -0.03785127 -0.09459122
  0.12197477  0.03091109 -0.08099525  0.1276458   0.01201334  0.01074853
 -0.03575299  0.00599311  0.01379799  0.00329549  0.10322687 -0.02214276
 -0.03229544  0.02324853 -0.06623167 -0.06552885  0.00765327 -0.03810916
  0.03956874 -0.06606412  0.09766655 -0.01914945  0.08643108  0.00770599
  0.04151552 -0.0104426  -0.02395193  0.02448259 -0.00253718 -0.05749458
 -0.03181594 -0.05574189 -0.04552948 -0.09188159  0.01448555  0.03410377
  0.07689489  0.07175151 -0.02244104  0.03214549  0.00054689 -0.02703754]
[-0.10768653  0.01872936 -0.01899343 -0.00468039 -0.03069399  0.02099125
  0.02441119  0.02522888 -0.07095121 -0.01781337 -0.02702655 -0.03807312
 -0.02225728  0.0802286   0.01019634  0.0436058   0.00174813  0.08339761
  0.04631665 -0.02085085 -0.09051754  0.01213465 -0.0372035  -0.04047236
 -0.02048681  0.10141733  0.01478603 -0.06276514 -0.0191643   0.00487089
 -0.01610395 -0.06739321 -0.01292463 -0.01602245  0.10265204  0.01561589
  0.00280882  0.03857173 -0.07627024  0.15267332 -0.0359925  -0.01482113
 -0.02614328 -0.09247918 -0.03219597  0.04446067 -0.00642005  0.05516773
 -0.06206432  0.06929854  0.05319365  0.03569504 -0.00602312 -0.0235675
  0.10177258  0.08848465 -0.03739195  0.01025728  0.04347753  0.01836733
  0.0680972  -0.0343377   0.0181411   0.02250679 -0.00477082 -0.04404772
 -0.0819491  -0.02233204  0.00463663 -0.06854785 -0.07602384  0.02230241
  0.05163059 -0.05475416 -0.03538107  0.05585199 -0.03147378  0.05242954
 -0.00067712 -0.07508702  0.0762961   0.00407164 -0.03379352 -0.00906513
  0.03331337  0.09186515  0.00101755  0.01742781  0.03641283  0.00249443
  0.00943148 -0.04820132 -0.02947113 -0.0067891  -0.00017244 -0.04508948
 -0.08993942 -0.02541415  0.00316147  0.01528474 -0.02598687  0.03998205
 -0.00821416  0.07805295  0.02330778 -0.00173339  0.0420841  -0.04533252
  0.0489725  -0.00323279 -0.05052523  0.01727951  0.02360059 -0.00190247
 -0.03732902 -0.07278363  0.05669408  0.08100069  0.01914385  0.02026416
 -0.03900181 -0.04739834 -0.02618088  0.02109142 -0.00806427 -0.00724957
 -0.00073313 -0.05039236  0.03349077  0.03078927  0.1485032   0.00647632
  0.03508083 -0.04629642 -0.00418902  0.01733255  0.00182219  0.01036359
  0.06404372  0.00610008  0.04888552 -0.08533911 -0.10344764 -0.00747428
 -0.04190088 -0.02072979 -0.02639277  0.03783179 -0.05808463 -0.03927241
  0.02327297 -0.05540698  0.01887266 -0.01935765 -0.08040098 -0.02675403
 -0.0325827   0.11723893 -0.0439487   0.01751531 -0.03734211 -0.04062539
 -0.04671649 -0.03712827 -0.01921951 -0.05045267 -0.04982921  0.02295351
  0.04319438  0.01901809 -0.03788985  0.02111114  0.0567624   0.10738154
 -0.04351732  0.08144662 -0.00992666 -0.05507368  0.04366276 -0.01312034
  0.04704796 -0.02620849 -0.05250785  0.02544624 -0.02064341 -0.01693461
 -0.1171833  -0.03257718  0.00369876  0.02538169  0.00589063 -0.00441572
 -0.01275562  0.03243548  0.02104921  0.01735379  0.03921625 -0.00248581
 -0.00666007 -0.01752686  0.00328007  0.07676762 -0.07455086  0.06097217
  0.00658722 -0.00793295 -0.02717952  0.06439647 -0.12261076  0.01737446
  0.04001784 -0.02163836  0.07559451 -0.02397153 -0.03182405 -0.06309593
  0.00088337 -0.04579874 -0.00183475 -0.0273738  -0.05919738  0.05202486
 -0.01417469 -0.04254315 -0.03458825 -0.09355199 -0.02510003  0.04401705
 -0.05417766  0.0140337  -0.01413374 -0.00963006  0.03821823  0.10530289]
[-0.06991147 -0.03003795 -0.0722217  -0.01922967  0.06731912  0.04163782
 -0.02067768  0.04450324  0.03580102 -0.05392258 -0.05458133 -0.05512422
 -0.04235779 -0.08041556  0.13964714  0.00641239 -0.05782842 -0.12663296
  0.00991091 -0.079279    0.00587917 -0.01634963  0.04028356  0.01349273
 -0.03674013  0.02822752 -0.01423643  0.04726806  0.07020837  0.07812394
 -0.04404428  0.01393045 -0.11319324 -0.03416328  0.04606218 -0.06060898
  0.03299514 -0.06277792  0.03043701  0.06687216 -0.03766909  0.08902059
 -0.07496628  0.02612249  0.06263269 -0.02624251  0.02511106  0.06131812
 -0.0712143   0.11136799 -0.05076889 -0.06220853  0.08967801  0.05245744
 -0.00198178  0.00397711  0.01417138 -0.00180025  0.04684004  0.09896269
  0.07396425 -0.02563173 -0.0418083   0.0056175  -0.06183971  0.01159605
  0.06951218 -0.03990732 -0.04456979  0.03004239 -0.00175282  0.08160896
 -0.03981763 -0.07231336  0.06515313 -0.08491317  0.01583425 -0.04128987
  0.01622447  0.01294058  0.06862615 -0.03673157 -0.0101695   0.04600002
  0.00446563  0.01401477  0.03536495  0.0907018   0.02100154 -0.04006981
  0.08873881  0.00398157  0.01106621 -0.01114441 -0.04085209 -0.00252355
  0.02581283 -0.05862375  0.07547359  0.03001826  0.05400642  0.07414652
 -0.09710682  0.02373246  0.07440329 -0.01643425  0.03438251  0.04742182
 -0.08744834 -0.01033005 -0.09996502  0.04935601 -0.01473237 -0.00612776
 -0.08462308 -0.00712012  0.01040518 -0.02333812 -0.0470803   0.00789209
 -0.03686227  0.04958525  0.04858687 -0.06324995 -0.08930796 -0.04224494
 -0.0166191  -0.03521446 -0.05263073 -0.02885837 -0.03176865 -0.09565578
  0.01189724  0.03164753 -0.07571501  0.11959516 -0.03332421 -0.02014326
  0.02810284  0.11738461 -0.05479831 -0.02158815 -0.06805302  0.00038474
  0.04485243  0.02951425 -0.0895777  -0.0318216   0.01961565 -0.02875503
  0.0449315  -0.02636898  0.07327532  0.02566032 -0.02044557 -0.00398083
 -0.03391982  0.05374014  0.03402046 -0.0060292   0.03429738  0.00461975
  0.05404264 -0.0509671   0.01464112  0.02689505 -0.0413475   0.06225779
 -0.06790167 -0.04361925 -0.04689977 -0.04419645  0.03973643 -0.02175771
  0.01027407  0.10163683  0.0134396   0.08085623  0.11854764  0.04575229
 -0.04685239 -0.00538504  0.01704328 -0.02047103 -0.04517731 -0.02548384
 -0.0416293   0.04962923  0.02164936 -0.07282364 -0.02580667  0.05965533
  0.02505823 -0.00390845 -0.0216286   0.10400531 -0.01069982 -0.09537149
 -0.10120808  0.02874043 -0.07536893 -0.0006389  -0.09830212  0.0562762
  0.05680235  0.01357925 -0.07350886  0.00674622 -0.05778624  0.03461388
 -0.02835693  0.05996086  0.06054034 -0.10398764  0.08585837 -0.02697812
 -0.0734466  -0.02911446 -0.0578539   0.02385086 -0.05097291 -0.0285128
 -0.01773413 -0.03857861 -0.03203558  0.00283791 -0.00505426  0.0844825
  0.03796172 -0.00543309 -0.00482223 -0.00302128 -0.09407672  0.0347987 ]
[ 0.02782756 -0.06180284  0.02975653 -0.01121913 -0.00250176  0.03583213
 -0.08450919  0.04156979  0.01893694  0.01264466 -0.03125803 -0.07100274
  0.06484147  0.10269804 -0.00763384  0.06271469  0.01967083 -0.00472429
  0.00202012  0.02195528 -0.0212424   0.10295834 -0.03451005 -0.07746358
 -0.00792392 -0.00443364 -0.02441831  0.05172751 -0.0010018  -0.07481149
 -0.03871385  0.00505242  0.00424388 -0.01331121 -0.07482032 -0.05513243
  0.06510271 -0.01350426 -0.08634882 -0.0320938  -0.03578655  0.03429352
 -0.03376864  0.07510151  0.10418848 -0.04293603  0.08743522  0.03910293
  0.09633766 -0.03997755 -0.04128688  0.00855766 -0.09192773 -0.11556207
  0.03247944  0.03551809  0.05599373 -0.02848791 -0.00210519 -0.04083061
 -0.00629019 -0.08875553  0.00402739  0.02634642  0.04683838 -0.07679402
  0.07767033 -0.02466122 -0.04005942  0.05606399 -0.03489749  0.00426741
 -0.0031682  -0.08159836 -0.04816233 -0.01330431  0.00679088  0.00515485
  0.08592404 -0.01939229 -0.0506565   0.04339826 -0.06257345  0.02097405
  0.02651663  0.08922119  0.08856247  0.14729744 -0.00601274 -0.05614451
  0.03462112 -0.04101666 -0.00764447 -0.02717668 -0.04491494  0.06222837
 -0.09724078  0.04269726  0.05465875 -0.02089582  0.05631534  0.00203992
  0.01136594  0.02285807  0.02790523  0.04484298  0.0357108  -0.07501036
 -0.0369159  -0.02045971 -0.01142354 -0.01182295  0.02439702  0.06944972
  0.00775444  0.04112871  0.01817197 -0.1328506   0.09473135 -0.07514321
  0.0422426   0.01625453 -0.01273748 -0.0684095  -0.02741982 -0.02377441
  0.04071744  0.01696061  0.06916934  0.00906745  0.0004942  -0.08721742
  0.1409445  -0.03711868  0.07103294 -0.05278104  0.09296322 -0.15353413
  0.01838453 -0.01325137  0.04446844  0.07533034 -0.02729355  0.03933889
  0.10032505 -0.00375886 -0.02937981 -0.04277946  0.02955038 -0.08386966
 -0.04616604  0.02514527 -0.0041317   0.04214287 -0.01006101 -0.03946875
  0.02663537  0.00482143 -0.042763    0.05348721 -0.00603805 -0.08000772
  0.03601249 -0.052455    0.04976575 -0.040841   -0.01869817  0.10308683
 -0.03649217 -0.08562542 -0.03102695 -0.00413026  0.03657438 -0.03585414
 -0.03637619 -0.0038518   0.06274449 -0.04105792 -0.01677578 -0.02973688
 -0.00906135  0.12873523 -0.03801601 -0.06803948  0.01922523  0.04888971
  0.05583789  0.09976815  0.00238803 -0.08493615 -0.04738229 -0.06592114
 -0.08052664 -0.02427808 -0.00171399  0.03582437  0.08455873 -0.02351708
  0.09006127 -0.02546965 -0.13118716 -0.00066121 -0.02632576  0.02585967
 -0.09550384  0.04644101 -0.01612278 -0.05605036 -0.04999725  0.03317149
  0.03355221  0.04631972 -0.05810025  0.04286429 -0.05117845 -0.03630468
 -0.04447161  0.03500623  0.04548997  0.06785929 -0.08169433 -0.03560631
  0.03278008  0.0214772  -0.03764956  0.04149137 -0.05908861 -0.01654708
  0.08655596  0.09690518  0.08142243  0.02374708 -0.10750045 -0.03431407]
[-0.00846399  0.02324133  0.00074471 -0.07534391  0.0123323   0.06555568
 -0.04774287 -0.01592305  0.01697997  0.0017213  -0.05668603  0.07437317
 -0.00315603 -0.06752102  0.03636855 -0.02597698  0.04194711 -0.11721632
  0.0421127   0.01567641 -0.08534086 -0.1008395   0.0224956   0.04596023
  0.05662697  0.0114984  -0.05962332  0.02166018  0.01502382  0.03627763
 -0.07261121  0.04090993  0.00824042  0.04747782  0.02716046 -0.01871117
  0.0189549   0.04527236 -0.01024476 -0.00162683 -0.00114624 -0.02079159
  0.01445635 -0.01871826  0.06053441 -0.0645365   0.00977112  0.02915871
 -0.03661872  0.04484598 -0.03000377  0.02035813 -0.01778694 -0.00838727
  0.05128298 -0.07655137 -0.05037821  0.02298488  0.03827172 -0.0266073
 -0.05691212 -0.00093298  0.02483575 -0.09796371 -0.00766382 -0.00842031
 -0.02480919 -0.00803231 -0.0008989  -0.09369237  0.04535027 -0.03418912
  0.00663052 -0.0953002  -0.00234694 -0.00810284 -0.01740578  0.01821393
 -0.00248782  0.07553517 -0.01535532 -0.05667782 -0.01918386  0.04461474
 -0.09947534 -0.00976939  0.0191164  -0.00888709  0.06578973 -0.01823684
 -0.06813806  0.03330977  0.02305127 -0.00731163 -0.08512674 -0.0262996
  0.04601221  0.01275945  0.00585215 -0.01678065  0.00795293  0.0793735
 -0.02939474 -0.03171042 -0.04666872 -0.00049404  0.02791541 -0.0764716
  0.00827789  0.04165458 -0.10430248 -0.04638771  0.03072203 -0.00909979
  0.07123875  0.1080099   0.04439059 -0.09974473 -0.01568239 -0.08235727
  0.0422467  -0.0589107   0.05715255  0.06340298  0.03303491  0.01561657
  0.04689482  0.0113011  -0.01901484  0.0156815   0.01086865 -0.01800784
  0.02750841  0.04465958  0.00795049  0.05467224  0.02663437  0.01043746
  0.03098304  0.08535901  0.05608068 -0.06186325  0.12588069 -0.06149266
  0.00066427 -0.17913365  0.12312821  0.03001487  0.04285266 -0.03445104
 -0.02777723 -0.03086406  0.0707963  -0.00780297 -0.01250865  0.00685484
  0.00306619  0.08556553 -0.04973804  0.08606005 -0.02035104  0.04542196
 -0.00116484 -0.00888931 -0.01598091  0.1034966  -0.04334347  0.02773955
 -0.03034326  0.02351563 -0.04910872 -0.04703278  0.01748473 -0.17075263
  0.00945676  0.04059335  0.01663314 -0.06541607  0.03723213  0.13043724
  0.05395266 -0.03147325 -0.05654423 -0.03108021  0.07610172  0.04897014
  0.02035245  0.01594352 -0.04177739 -0.07746211  0.09345303 -0.07961015
 -0.00580646  0.05241084  0.03569472 -0.0417054   0.08173613 -0.15224092
  0.02786928  0.02049552  0.06252653 -0.00051126 -0.05929543 -0.03768412
 -0.01871091  0.07910226  0.02211783 -0.07524908  0.04709585  0.03406973
 -0.08439628  0.03524632 -0.02463763 -0.05053797  0.02409864 -0.02852947
 -0.04425023 -0.05629957  0.01834703 -0.00675707  0.03032108  0.00816841
  0.03821297 -0.02604734 -0.00768988  0.07028109 -0.07809591 -0.00380062
  0.08928528  0.02621589  0.01123201 -0.03462616 -0.00085526 -0.06576473]
[ 0.00482637  0.00448804 -0.01253013  0.00940133  0.0094065  -0.00411067
  0.01336121 -0.01926152  0.02304463 -0.01417395  0.00822686 -0.02417831
  0.01699545 -0.00336577  0.0141619  -0.01723521 -0.00352249  0.015809
 -0.01299626  0.00398292  0.01356847 -0.00543605  0.00612443 -0.02446398
 -0.00701831 -0.02036719  0.0148597   0.01121895 -0.01580867 -0.00948258
  0.01143519  0.02324675  0.01205161  0.00170202  0.00947491  0.024208
  0.01256599 -0.04551303  0.0088348   0.00217251 -0.00882542 -0.01673755
 -0.00451944  0.00865329  0.01586935  0.00655932  0.01954421  0.02011197
 -0.0232977  -0.0097452   0.01796671 -0.00534424 -0.00490259 -0.00339314
 -0.03421857 -0.00327546  0.00599695 -0.01227823 -0.00810803 -0.01450508
 -0.01388239 -0.01804283 -0.00508411 -0.01263432  0.01186447 -0.01341125
 -0.01070148  0.01983134  0.0223592  -0.01097093 -0.01002267 -0.01062364
 -0.01330323  0.01628318 -0.00340299  0.01263456  0.00608794  0.02824351
 -0.03047381  0.00389359  0.01303545 -0.0184714  -0.00143624  0.01556497
 -0.01089241 -0.00111305  0.02827924 -0.00282184 -0.00588483  0.00407476
 -0.00829023 -0.01998233  0.00446674  0.01117576  0.0081377   0.003571
  0.00216741 -0.01480409  0.00537805  0.00581173 -0.00016837 -0.00215716
  0.00113043 -0.00576798 -0.02161894 -0.00128009 -0.0202185   0.00790893
  0.0035992  -0.0170875   0.00670937 -0.01839206  0.01837942 -0.00146209
 -0.02031871  0.00942265 -0.01706222 -0.01200612 -0.00295645  0.00954822
  0.02958114  0.0158011   0.00770928 -0.00015836 -0.02766069  0.01943489
 -0.03519438  0.01459533  0.00208991 -0.01815131 -0.02421014 -0.00374499
 -0.03088382  0.01024686  0.00920585 -0.00420181  0.00660765  0.04082886
  0.02239594  0.0240537  -0.0417731  -0.00682768  0.0008588  -0.00558499
  0.01360729  0.00308734 -0.01126113 -0.00594648 -0.01782864  0.02263908
 -0.00804621 -0.00292999  0.02090876  0.00720398  0.01731383  0.02668541
  0.02587914 -0.00289765  0.00282338  0.00161249 -0.00113615  0.02378176
 -0.00339729 -0.0252262  -0.00498463  0.00636364  0.0106062   0.01701117
 -0.01309561 -0.01672568  0.01538507  0.02672571  0.02395445 -0.00152414
  0.00378494 -0.00409014  0.01865907 -0.02165349 -0.0556162   0.00724452
 -0.02402039 -0.01239643  0.01552292  0.00297106 -0.03175445 -0.00837702
 -0.0015913   0.02027683  0.00301115  0.02040497 -0.03424068 -0.00962452
  0.0125512   0.00321975 -0.02593402 -0.01238412 -0.02293944  0.00239459
 -0.03257682  0.01567232 -0.00930351  0.01596759 -0.00011386 -0.01048849
 -0.01487631  0.0109818  -0.01728144  0.00831116 -0.00567691  0.01077965
 -0.0016547   0.02227591 -0.00898933 -0.00109925  0.00911836  0.02056235
  0.01671062  0.00976959 -0.01616486 -0.01393393  0.00023668  0.01244005
  0.00610703 -0.00206176  0.02061361  0.00450333  0.01319715 -0.02819459
  0.00766727 -0.03268641  0.00635249 -0.00332439  0.00633959  0.00094239]
layer 1 Activation
relu
layer 2 Dense
234 234
[-0.06805976 -0.02844572  0.00587552 -0.00038075  0.04264935  0.00584085
  0.01001757 -0.03342032  0.0703049  -0.02594198 -0.01326935 -0.00132623
 -0.03177714 -0.03543989 -0.04173244  0.03863681  0.00273595  0.03521305
  0.03725561 -0.07309668  0.05896743  0.0373519  -0.09001638  0.03852637
  0.06558722 -0.02784588  0.04940744 -0.03601428  0.02983463 -0.05715451
  0.05353311  0.04890842  0.02954588  0.01761809  0.05531776  0.05099057
 -0.01996762 -0.01454668  0.01389241  0.11260115  0.01635666 -0.05301381
 -0.05671405 -0.02188518  0.01126256 -0.05674592 -0.07857539 -0.07990164
  0.04637719  0.04694157  0.01164684  0.09682117  0.11172593  0.01062948
 -0.10601284  0.0765054   0.0324248   0.01554878  0.00295415  0.02225554
 -0.02807857  0.01441648  0.03008857 -0.02180212 -0.07127477 -0.00987005
 -0.01613002  0.00725726  0.01195849  0.06434917  0.02464001  0.00502028
  0.07588952 -0.05518166 -0.03132758  0.03060786  0.06834823  0.01101884
 -0.08493733  0.04197896  0.03163343 -0.01466876 -0.01772007  0.04569663
 -0.05520737  0.11720169  0.07994217  0.00180167 -0.09745406 -0.11033789
 -0.07861241  0.04535648 -0.0241611   0.01254593  0.09607186  0.02736321
  0.0864664   0.02569632 -0.04308807 -0.05637082 -0.15717244  0.09481093
  0.06500336 -0.01649559 -0.04714747  0.04245868 -0.05193203  0.04473378
  0.01215753 -0.10969063 -0.04611606  0.009597    0.06760134 -0.03103336
 -0.01094624  0.01005771 -0.0003933   0.02832317 -0.01812759 -0.00849828
 -0.00975377 -0.03153245  0.08922225 -0.03979906 -0.05598142 -0.07059427
  0.00433678  0.0616034  -0.00226717  0.12298731 -0.00973424 -0.00578725
 -0.01517949 -0.0132234   0.07653772  0.16664101 -0.01229615 -0.06445143
  0.02603596  0.08123369 -0.04777956 -0.01702149 -0.07644755 -0.01167675
  0.04467724 -0.03513821  0.03293944 -0.00795306 -0.00083363 -0.09268474
  0.00513105 -0.00877943  0.04834017 -0.0339664  -0.00075043  0.06213152
 -0.10661358 -0.02535047  0.01039953 -0.0153255   0.02908941 -0.00735058
 -0.02720962 -0.03285804  0.00394838 -0.06225421 -0.01388324  0.0416066
  0.0318932  -0.00803589 -0.05075471 -0.07961089 -0.06525487  0.01064274
 -0.11798524  0.04149102 -0.05686467  0.01092002  0.02817801  0.04962362
 -0.00476335 -0.01117872  0.0032749  -0.01469573  0.00833324  0.02794117
  0.11276038 -0.04347443 -0.02364138 -0.03998305 -0.01493549 -0.06624421
  0.07275384  0.02401589  0.02603503  0.07683655  0.05709825 -0.01741389
 -0.03634828 -0.13092431  0.01144833 -0.01742501  0.02973274 -0.08297195
 -0.0255635   0.1430832   0.03894409 -0.00282917 -0.03153712  0.0146119
  0.03392661 -0.01396199  0.05981944 -0.02712436  0.00101068 -0.13161623
  0.03007001  0.01136562 -0.05683471 -0.03027393 -0.00273768  0.03867173
 -0.03564179  0.06149772 -0.08930387  0.03778179 -0.09216732 -0.0390907
 -0.00070632 -0.03623106 -0.02592209 -0.01593649 -0.04288558 -0.03759884]
[ 0.01461071 -0.12479036  0.04077232 -0.04205394  0.0165488  -0.03528554
 -0.02501439 -0.02040599 -0.04663367  0.06136196  0.01421548 -0.01171567
 -0.04078173  0.00979316  0.05437928  0.00174978 -0.04743348 -0.0254045
  0.03655699  0.0365186   0.06286459 -0.04157101 -0.05348367  0.02029352
 -0.02999972  0.00741675  0.02345057 -0.02293134  0.06852189  0.00253128
  0.0536958   0.06828757  0.07192305 -0.07336033 -0.03864907 -0.01951192
  0.04806907 -0.03063025  0.11153427  0.02859562 -0.020679   -0.1173064
  0.05194905  0.01562813  0.0171364  -0.07510739 -0.00971885  0.02215344
  0.00048623  0.0037601  -0.00305716 -0.01549226 -0.01782298  0.03787028
  0.06939671 -0.02864975  0.03045345  0.03647634  0.06272853 -0.03608332
 -0.01835729 -0.01115749 -0.00353152  0.00250123  0.08060612 -0.10805514
  0.01752404 -0.08510474 -0.04624663  0.16770665  0.01213287  0.01568329
  0.02141554 -0.10154047  0.00222985 -0.00540524  0.07676374 -0.03694778
 -0.00386581  0.04702809  0.00150489  0.01788494 -0.02524616  0.01373819
  0.01650629  0.00521436 -0.02827035  0.03983524  0.05322551  0.04960635
 -0.04834345 -0.08628721  0.04864162 -0.08163262  0.05676303  0.04299228
 -0.03657022  0.05136677  0.0491263  -0.02711318  0.07248291 -0.03416342
  0.03035936  0.07236652  0.00987182 -0.03217086  0.00477122  0.03885715
  0.02773398  0.04131927  0.08883145  0.03322331 -0.04502729  0.01358921
 -0.01674312  0.05071994  0.01899876 -0.08293663  0.00264692 -0.0526766
 -0.03282547  0.04826027 -0.02476807  0.07280689  0.00871713  0.014885
  0.08581203 -0.07874242 -0.01439945  0.0515738   0.04441149  0.04011841
 -0.03115443 -0.01338754  0.08501978 -0.08070213  0.04750942 -0.01849152
  0.04608035  0.00496474 -0.00226854 -0.02251999  0.00946354 -0.00601115
  0.01433155  0.03894324 -0.03027298  0.02145832 -0.01904794  0.02105487
  0.14342096  0.08424675  0.08488904  0.11451113 -0.01816134 -0.00929748
 -0.01053687 -0.05709465 -0.03395089  0.03886316  0.02459471 -0.05214929
  0.00117379 -0.00808946 -0.09372133  0.00648458 -0.02204938 -0.05002613
  0.04470509 -0.00152408  0.0444927  -0.00021321  0.07837958  0.0627479
 -0.01456641 -0.04866548 -0.02962365 -0.08130384  0.06198948  0.10259488
 -0.07212285  0.04452778  0.01933658  0.00810247 -0.07023787 -0.04103303
 -0.01133959  0.01109393 -0.10028578  0.0924506  -0.00471674 -0.09529507
 -0.00717579 -0.0213677   0.00836173  0.07415278 -0.12203813  0.20141836
  0.04120708 -0.00836326 -0.03604262 -0.08344394 -0.02124881 -0.06390116
 -0.03736544  0.0265812   0.055447   -0.12798819  0.10069548  0.02928665
  0.0315926   0.00782185  0.08220574 -0.03639307  0.01890491  0.0184266
 -0.02766659  0.01586696 -0.01521713  0.00335177 -0.0545542  -0.06834491
  0.01056427 -0.00585235 -0.06013948  0.08965819 -0.03300712 -0.00349623
  0.00258292  0.04139    -0.06533362  0.06850613  0.00674045 -0.03892081]
[ 3.53534594e-02 -3.93353403e-02  7.41413012e-02  2.73509193e-02
 -6.13560788e-02 -1.10119786e-02  8.87992978e-03  1.27169723e-02
 -8.15232936e-03 -1.44196833e-02  4.72384766e-02  4.96807136e-02
 -1.49009265e-02 -2.23650336e-02  6.18049549e-03 -5.96261770e-02
  9.18807238e-02  8.07374939e-02 -1.70246642e-02  1.59521180e-03
 -9.94210541e-02  2.44356990e-02 -5.16448617e-02  9.98253077e-02
  3.07430103e-02 -1.42218284e-02 -5.52788749e-02  4.05817963e-02
  2.91997250e-02  5.17759807e-02  1.50259333e-02  7.61866989e-03
  8.39230493e-02 -8.72127712e-02 -6.02472574e-02  6.11466505e-02
 -2.59299334e-02 -1.02457369e-03 -4.12740633e-02  2.15846244e-02
  2.05142200e-02  3.02398428e-02 -3.55361626e-02 -4.67762016e-02
 -1.10184709e-02 -7.83208683e-02 -1.25110243e-02 -1.51435174e-02
 -4.13718633e-03  5.36840453e-05  6.00973144e-02  4.77920920e-02
  4.08671312e-02  6.91135880e-03 -1.17802247e-01 -2.28817053e-02
  5.04531153e-03  5.27905822e-02 -2.43031122e-02  3.78628448e-02
 -4.64527011e-02 -7.21090585e-02  2.39564516e-02  1.46198077e-02
  6.49840310e-02  1.19575355e-02  3.25416736e-02  3.41591313e-02
  1.58882737e-02 -2.33921837e-02  1.89605765e-02 -1.11503027e-01
 -4.27619182e-03  1.98125020e-02 -9.64985043e-03 -1.89501401e-02
  1.89927667e-02 -6.93803504e-02  2.13274360e-02  1.75761338e-02
  8.07864405e-03  3.31908055e-02 -7.28446990e-02 -3.41852121e-02
  5.56330197e-02 -2.25798320e-02 -1.88190807e-02  3.10897138e-02
  3.53230201e-02 -6.89234063e-02 -7.77366906e-02 -1.06913904e-02
 -4.65850020e-03  3.32138203e-02  7.61523098e-02 -1.49763357e-02
 -3.41102146e-02  2.74918638e-02 -9.47585106e-02 -8.30368102e-02
 -9.46793109e-02  3.62881944e-02 -1.05964079e-01  2.14977209e-02
  1.19026890e-02  1.05425455e-02 -2.48731654e-02 -4.63951305e-02
  9.87658277e-03 -7.98710808e-02 -1.09073825e-01 -6.05710670e-02
  3.54488529e-02  5.23016900e-02  4.31617089e-02  1.42086083e-02
  2.50391737e-02 -2.92759622e-03 -2.42990181e-02 -1.05961256e-01
 -1.03854178e-03 -2.75398344e-02 -4.39265594e-02 -2.16151029e-02
 -3.81992944e-02 -5.26133878e-03  8.51738639e-03  4.06827554e-02
 -1.00997172e-01 -1.69482101e-02 -1.52600631e-02  4.52818535e-02
  3.96097153e-02  5.54227605e-02 -2.09425599e-03  7.59174302e-02
 -5.16574420e-02  3.17774750e-02  4.28251624e-02  7.71591812e-02
 -2.05539679e-03  1.58626633e-03  7.91861936e-02  2.03644130e-02
 -3.13059241e-03  2.77502015e-02 -1.72955031e-03  7.34729990e-02
 -6.66447878e-02  5.15929051e-03  2.39605783e-03 -8.50795489e-03
 -4.97015417e-02  5.68767749e-02 -2.06207931e-02  9.85749736e-02
  7.11869150e-02 -4.39369641e-02 -4.97033745e-02 -1.27485339e-02
 -4.89223674e-02  4.40048128e-02  2.53478298e-03 -5.52389771e-02
  1.69862919e-02  8.85321349e-02 -1.63565222e-02 -3.13448682e-02
 -4.41185758e-02  2.87189987e-02  9.54998881e-02  2.90217865e-02
 -6.30892813e-04 -1.66282486e-02  4.10283804e-02 -4.30057850e-03
  1.99196078e-02 -4.20168100e-04 -2.96514407e-02 -4.17141169e-02
  1.80185866e-02  2.78723892e-02 -6.45851484e-03 -4.84958626e-02
 -4.35723215e-02 -3.87905240e-02 -3.76337534e-03 -5.41827269e-03
 -2.89041623e-02  2.13958211e-02 -8.94478858e-02  3.28110270e-02
  3.76107357e-02  2.52699479e-02  9.61955450e-03 -3.54275517e-02
 -5.08821867e-02 -1.27667904e-01  2.52142996e-02 -4.59565707e-02
  2.42845304e-02 -5.34439012e-02 -4.92137112e-02 -6.74610287e-02
 -1.28955245e-02  3.14124525e-02 -4.04691547e-02 -2.68126678e-05
 -6.33020774e-02  1.89047176e-02  1.08335927e-01  2.06575133e-02
 -1.17954826e-02  4.21980619e-02  5.16509451e-02 -4.02903967e-02
 -2.59228293e-02  5.41288070e-02 -1.93393677e-02 -1.90175753e-02
 -8.18688795e-02 -3.56076285e-02 -3.30573209e-02  7.31689706e-02
 -6.57396466e-02 -3.61809842e-02 -3.17721404e-02  3.44458148e-02
  1.51313525e-02  1.53076006e-02 -3.62567231e-02 -5.02258576e-02
 -2.51852302e-03  3.96880284e-02]
[ 0.01324478 -0.07301119 -0.03796248 -0.0306641   0.0280804   0.05342705
  0.00665331  0.00602837  0.09545863  0.0330825  -0.03742321 -0.03766092
 -0.03516193 -0.11556207  0.07507641  0.07051801  0.08070676 -0.04568341
 -0.00301851 -0.10957202  0.01649552 -0.03208382  0.02199472 -0.04720862
  0.10223666  0.05432124 -0.00531507  0.04366738 -0.01245381  0.08686664
 -0.03913978  0.05244536  0.01934721 -0.01604702  0.08632898 -0.06457669
  0.00478305  0.05397148 -0.05597661 -0.05560189 -0.0017467   0.02350685
  0.0397331  -0.00726122 -0.05049371 -0.11388218  0.02245062  0.07322477
 -0.05411306  0.06304789 -0.04404308 -0.08493201 -0.04890678 -0.11008348
 -0.08741832 -0.00422966 -0.03632677  0.06551062 -0.02402497  0.1029968
 -0.08887629 -0.0018825  -0.10584922 -0.0150342  -0.01023568  0.03166441
 -0.0423021  -0.02059638  0.01304991 -0.01444474  0.01533226  0.02447063
  0.02611615  0.02654701 -0.08200084 -0.02859562  0.0889729  -0.01225736
  0.07298306  0.05315395 -0.03013622  0.04939545 -0.05121212  0.00813576
  0.09009934 -0.08084919 -0.0556584  -0.0488005  -0.0240761  -0.05057435
  0.02290673 -0.08302213  0.06809236 -0.06294148  0.04318325 -0.07670578
  0.0655056   0.04096643 -0.0099694  -0.02095133 -0.06777231  0.03189142
  0.07076347 -0.01785186 -0.07812393 -0.01782227  0.11372629  0.01885292
  0.08044361 -0.01048212 -0.01330398  0.01897581 -0.04477788  0.00681829
 -0.04428714 -0.0781913  -0.10914915  0.01642482  0.11707661 -0.02415679
 -0.0059473   0.05438513  0.0408295   0.0180922  -0.01628546  0.05019309
 -0.00568042 -0.00367071 -0.00792495 -0.0287926   0.06764086 -0.0520385
  0.00229454  0.04298228 -0.03622218  0.00024703 -0.03189078  0.05215425
  0.02582206  0.01481791  0.01799774 -0.00116622 -0.02132078 -0.04147593
  0.03400829 -0.02735899  0.02474783 -0.01652721 -0.04549235 -0.00623341
  0.0530023   0.02244309  0.00939909  0.03611494  0.01111312  0.08627249
  0.05283542 -0.02543917  0.01309953  0.02364878  0.02353577  0.05996083
 -0.03430599 -0.06947838 -0.02510423 -0.00480976 -0.09246543 -0.00255191
 -0.01656409 -0.12169688  0.05625855  0.01020606  0.00958877  0.00304517
 -0.04418408  0.00467066  0.05530784  0.03741921  0.0278704  -0.08781924
  0.01904445 -0.07652938  0.1377249   0.01493076  0.031217   -0.00451098
  0.05584638  0.00560692 -0.08774979  0.05934479  0.01109549  0.01768968
  0.05415314 -0.01950579 -0.00261933  0.01313118 -0.10827082  0.00386778
 -0.01493373  0.08122408 -0.02489199  0.10042055 -0.00065177  0.00338974
  0.00268234 -0.03571804  0.01634435 -0.04702919  0.01858467  0.0041061
 -0.05736414  0.07068274 -0.06325089 -0.00709051  0.01273846  0.00983881
  0.04986261 -0.06792936  0.04339625 -0.0194053   0.00353788  0.03956786
 -0.02030751  0.00942347  0.04428943  0.05936202  0.01071609  0.03947897
 -0.07861999  0.05306613  0.0737934  -0.00068238  0.01118973 -0.05323343]
[ 0.04525381 -0.07420928  0.00872025  0.00347797  0.04471122 -0.03366467
 -0.05396792  0.01668423  0.12106906 -0.03988263 -0.03798341  0.00639687
  0.04529755 -0.02569285 -0.01760809  0.02677384  0.00725351  0.04297305
 -0.03007498  0.01155723 -0.00518027 -0.04136434  0.00602363  0.02664155
 -0.04035384 -0.0106171  -0.10131428  0.03537548  0.0362331  -0.08856297
 -0.07222412 -0.01616428 -0.07364271  0.09231189  0.07085536  0.0061916
  0.04395413 -0.00624443  0.05082908  0.01856469  0.06618553 -0.06686902
  0.0747789  -0.10885197 -0.05940807 -0.10593235 -0.05844538  0.06282006
 -0.01415712  0.05908748 -0.05699319  0.00161957 -0.02785421  0.03006838
  0.00829743 -0.0104085  -0.01791481  0.08715982  0.0241697   0.12361755
  0.07175712  0.13097152  0.00127799  0.01781913 -0.01020536  0.04716954
 -0.13442335  0.03360373  0.09511211  0.01954355  0.00389861 -0.03767318
 -0.0061122   0.05758326  0.00382611  0.01475831 -0.03832721 -0.03986234
 -0.05080991 -0.15025    -0.00453336 -0.01828895 -0.06287301  0.00559169
  0.02106766 -0.01907139 -0.01647484  0.00057723 -0.07862019  0.00958715
  0.00733982  0.00980614  0.06987976  0.01689322  0.08391362  0.05575689
 -0.00569197  0.04960357 -0.03157965 -0.03046699  0.02147234  0.00624222
 -0.01072958  0.07463448 -0.06977894  0.07361738 -0.02500905  0.04406759
  0.11822442  0.01682051 -0.01054375 -0.03873149 -0.01999158  0.0302361
 -0.08879301  0.012657    0.08699679  0.0260902  -0.08599768  0.07396389
  0.02785208 -0.041456    0.02299246 -0.06486858 -0.05100083 -0.01549141
  0.01955198 -0.03261807 -0.05014329  0.0220992   0.03029859 -0.05054819
  0.00714495  0.02019445 -0.04492688 -0.05355617  0.01531693  0.08589567
 -0.03382185  0.05484357 -0.01157074  0.04537364 -0.02689125 -0.13012166
  0.00463044  0.00092034 -0.04982409 -0.07243919  0.01520662  0.01954558
  0.03766006  0.03850371 -0.05749541  0.01874381  0.07762702  0.05955618
 -0.0871052   0.00520136  0.01172416 -0.03981537  0.01008952  0.03384031
  0.01829305  0.14974783  0.08003586  0.01940217 -0.08494359 -0.02244058
  0.03139599 -0.00927994 -0.0343231  -0.04480969 -0.02902713  0.03090794
  0.05347022 -0.01114047 -0.08724388 -0.0617741   0.03597657 -0.01364998
 -0.07415651 -0.01576852  0.05309078  0.08781178  0.0022532   0.03197224
  0.06994653  0.05336771  0.04054867  0.08923643 -0.01590568  0.09457398
  0.076643   -0.11130176 -0.02117307  0.05691561  0.02766568 -0.01502971
  0.04098478 -0.03949495 -0.10145455 -0.09695736  0.03010252 -0.07148782
  0.03212303  0.04149692 -0.08595122  0.03402103  0.04265619  0.0652797
 -0.10992414 -0.04566378 -0.02188138 -0.0112649  -0.00810312 -0.00206894
 -0.03901392 -0.04216704  0.07911974 -0.00254315  0.00550422  0.01900858
  0.03014641 -0.03834572 -0.06293616  0.00930271 -0.03631473  0.06300616
  0.01098181  0.07149827  0.08229513 -0.02816047 -0.01338074 -0.03315822]
[-2.63326541e-02  6.40938208e-02  2.58602668e-02  3.54286321e-02
 -4.32495847e-02 -6.90964758e-02  9.08371657e-02 -3.47830541e-02
 -3.93505208e-02 -6.68222234e-02 -1.15076627e-03 -5.08996062e-02
 -6.86111301e-03  7.16875121e-02  5.95897762e-03 -5.55452481e-02
 -9.53257363e-03 -2.98338737e-02 -1.23980893e-02  2.91373171e-02
 -1.85169186e-02 -2.99866796e-02  3.99097800e-02 -2.40281615e-02
  9.27609503e-02 -1.18063195e-02  3.09778918e-02  2.73109917e-02
  7.49663413e-02 -6.76095020e-03 -2.73259357e-02  5.15075885e-02
 -5.90453185e-02 -1.41176227e-02 -5.73747829e-02  3.73154879e-02
 -2.65479963e-02 -2.50201151e-02 -4.74789925e-02 -1.09868636e-02
  5.12074418e-02  9.39521566e-02  3.43768820e-02  6.17477782e-02
  4.80033122e-02 -3.19891721e-02  4.58878418e-03  7.15398341e-02
 -6.61577135e-02 -8.77040327e-02  5.15516661e-02  1.77988857e-02
  2.71817874e-02  1.56204933e-02  2.76151132e-02 -1.40658468e-02
  4.93483730e-02  5.52306399e-02  1.88533012e-02 -2.88886130e-02
  8.08883384e-02 -7.59669989e-02  1.40858376e-02  2.36423034e-02
  6.12652004e-02 -8.87780488e-02 -5.83111383e-02  8.98269750e-03
  4.84716799e-03  7.91459307e-02 -5.09349927e-02 -5.26185632e-02
 -8.11271593e-02 -1.20435311e-02 -1.88275166e-02 -2.66885012e-02
 -1.41586503e-02  4.89955507e-02  3.52093540e-02  6.80834576e-02
 -5.42459823e-02  2.03370750e-02 -6.42675981e-02 -7.39140064e-02
 -2.71616019e-02  5.89368083e-02  2.24176105e-02  1.30937425e-02
 -5.28636575e-03 -4.32511121e-02 -2.72889789e-02  3.30289565e-02
  5.08853346e-02  5.00765955e-03  7.36637264e-02  1.20834084e-02
  8.67107138e-03  4.86693718e-02 -5.68268728e-03 -3.58462371e-02
  5.03359698e-02  1.85661819e-02  1.76101364e-02 -1.10441837e-02
  5.51159680e-03 -1.47107495e-02 -2.18847357e-02  1.85849164e-02
  1.64718479e-02  1.15299094e-02  3.77197526e-02 -6.54825047e-02
 -2.17738580e-02 -8.22260752e-02 -1.95419155e-02 -4.12841933e-03
 -1.30943879e-02  4.01642881e-02  1.93457995e-02 -4.79521453e-02
  5.70790656e-02  2.11447310e-02 -5.87492883e-02  2.59553287e-02
  6.08619340e-02  8.99376348e-02 -6.05644397e-02 -2.26639640e-02
  5.07811680e-02 -3.47408019e-02  4.09874283e-02  5.16063534e-03
  3.82840782e-02  2.66643278e-02 -1.55539643e-02  3.44197288e-05
  3.88573334e-02  3.33238393e-02  1.75536647e-02  1.00104123e-01
  1.56305712e-02 -8.32898095e-02  5.98698482e-03  6.57307804e-02
 -3.35727222e-02  7.66914114e-02 -5.79756163e-02  1.66192856e-02
 -8.87758844e-03 -1.50884194e-02  3.53883840e-02  1.20553054e-01
 -4.53033543e-04 -5.46469055e-02  9.63782240e-03 -1.69051476e-02
 -4.14890870e-02 -3.50644998e-02 -4.96026501e-03  2.19918489e-02
  3.23756561e-02 -8.60796776e-03  1.07484110e-01  5.15500344e-02
  1.98068768e-02 -6.81197718e-02  1.02745378e-02  5.96504621e-02
  7.51638226e-03 -3.56366895e-02  7.69769400e-02 -3.01230773e-02
  2.82356534e-02  1.35897491e-02 -6.95179701e-02 -9.00906231e-03
 -4.74474952e-02 -9.05092806e-03  2.12785155e-02  3.94782750e-03
  5.19406088e-02  4.91831750e-02 -2.16238163e-02 -8.72050412e-03
  2.38652937e-02 -1.38173169e-02 -6.64581405e-03  5.16230240e-03
  3.72393541e-02 -8.57449770e-02  2.33547110e-02 -1.48720779e-02
  5.19837551e-02 -2.14342661e-02  3.15080844e-02 -4.15292270e-02
  1.00638479e-01  6.32310212e-02 -6.28851056e-02  5.80339171e-02
  2.14325953e-02 -2.42248364e-02  4.24436294e-02  6.47838265e-02
 -2.42384872e-03  1.24148905e-01 -3.72587815e-02  1.69389825e-02
 -2.64692213e-03  1.21269980e-02 -4.26582843e-02  1.27690621e-02
 -8.44419971e-02 -1.32651860e-02  2.64057908e-02  3.70898321e-02
  2.31252145e-02  1.15940124e-02 -1.64996199e-02  2.74169929e-02
  5.04608192e-02 -4.68361005e-02 -2.78886128e-02  3.39888521e-02
 -3.32834348e-02  9.83701348e-02  1.36934798e-02 -7.22897127e-02
  5.40587902e-02  6.36915956e-03 -5.34493588e-02  5.61191738e-02
  2.48913355e-02 -1.24863274e-02]
[ 0.0104874  -0.03343746  0.03472264  0.08597577  0.0297035   0.0268701
  0.0639104   0.00231827  0.00796771 -0.03279425 -0.02310272 -0.06473212
 -0.09908405 -0.04867266 -0.03892295  0.02309851  0.05007724 -0.02578691
  0.06791463  0.03344966 -0.11462894  0.04385364  0.04303331  0.00414509
 -0.05193172  0.06588635 -0.03486981  0.02461554 -0.01430997 -0.03842283
 -0.01533749 -0.06005783 -0.03135946  0.07468177 -0.02553168 -0.07644761
  0.04542917  0.02233052  0.06702356 -0.0419728  -0.04163436  0.05649095
 -0.06566022 -0.10497604 -0.00974822  0.03055611 -0.03805719 -0.02139893
  0.01009157  0.00883028  0.08392061  0.03330547  0.04515684  0.08964927
 -0.07352722  0.00134652  0.09582248  0.0202957  -0.02838689 -0.02649103
  0.10338712  0.09937384 -0.12125316  0.06287716  0.02539654  0.03874495
 -0.0461937   0.01088551  0.0440467   0.0040203   0.00129428  0.07540461
 -0.08398754 -0.04004244  0.04097495  0.00067885  0.01533035 -0.02609213
  0.03543362 -0.08314894  0.01860985  0.00704661  0.0439501   0.09028545
 -0.04140752  0.0499269  -0.04370964 -0.03145977  0.0274813   0.1024281
  0.04550426 -0.03667203 -0.05320913 -0.08441356 -0.05202984  0.02614975
 -0.08394817 -0.02412202  0.00320087 -0.07803892 -0.0310447  -0.00044709
  0.00035139 -0.03290715 -0.05177354 -0.01294054  0.00355356 -0.02558349
 -0.10456935 -0.00392436 -0.01522332 -0.0338025   0.0186695   0.01873716
  0.11660627 -0.03179896 -0.09544867 -0.08182497 -0.05593032 -0.08317143
  0.00991685 -0.04386995 -0.01428664 -0.0273552   0.0136983  -0.10054758
 -0.03838647  0.05207019 -0.01526559 -0.02956843  0.05044514 -0.01055902
 -0.09473355  0.04111293  0.02729597 -0.01542684 -0.06884735  0.09867506
  0.05163058 -0.11488822 -0.05851189 -0.02362847  0.0739895   0.04484978
  0.03730352  0.02571458 -0.03349205 -0.03239723 -0.03715306 -0.06907963
  0.03224594 -0.07543097  0.02802106 -0.0451747  -0.03171247  0.09908298
  0.01924095  0.127423   -0.03578241  0.08184275  0.07267213  0.01435993
 -0.02455184 -0.04906618 -0.09087328  0.04639069  0.02856436 -0.03871142
 -0.08313289  0.02315382  0.04512929 -0.083579    0.02738946  0.05600667
 -0.07379373  0.03412441  0.1010997   0.10474414 -0.04759066  0.0527955
 -0.02287306  0.06289241 -0.06865946 -0.07129444  0.04360671 -0.03670494
 -0.09841354  0.04970423 -0.06938881  0.00451997  0.00444526 -0.03307224
 -0.04086638 -0.05114743 -0.02602602  0.04833445  0.01515219  0.01633878
  0.05554559  0.00603533 -0.00998177  0.0701568   0.04360063 -0.04273885
 -0.06905703  0.10435548 -0.00876966  0.05499841 -0.06051288  0.07629019
  0.09227315 -0.08691967 -0.00882404  0.075346   -0.03760632  0.03051127
  0.0299182   0.0143462  -0.11218979 -0.00417652  0.01217553 -0.06297004
 -0.01535737  0.00914927  0.03421031  0.02797135  0.01013453  0.02975834
  0.0068644   0.06663866 -0.02082078  0.04229432  0.04407537 -0.00994034]
[ 0.06157779 -0.0346192  -0.00481016 -0.08229538 -0.04948958 -0.03693301
  0.01929005 -0.00780947  0.00600303  0.05192808  0.01398791 -0.02328994
  0.05020579 -0.09469205 -0.03703336 -0.0772405  -0.00674006 -0.03432504
  0.08469132  0.07196732  0.05131776 -0.02216761 -0.05164456  0.02416298
  0.00146385 -0.03171431 -0.09492444 -0.09556787 -0.00795578 -0.02776184
 -0.10068662  0.06368187 -0.02838715  0.06082581 -0.08469062 -0.02504473
  0.0709001  -0.00864915  0.0732425  -0.05481533  0.02027784  0.05986783
 -0.0180732   0.07615738 -0.01338957  0.01901995  0.00373577  0.02423298
  0.00519338  0.05595293 -0.00124298 -0.04277257 -0.01024147 -0.01053578
 -0.03970733 -0.02717247 -0.04630097  0.03741599 -0.00308216  0.05083906
  0.02701353  0.03626001  0.07772635 -0.01716153 -0.03621221  0.05591726
  0.08283204  0.07019786  0.06736176  0.06118025  0.04895548  0.01422869
 -0.09539701  0.02002919  0.07496216 -0.01273849 -0.04741909  0.05134036
 -0.10023803 -0.09711513 -0.09540594 -0.05726442  0.02376875 -0.03385035
  0.0642067   0.00733862 -0.04198635 -0.02006063  0.00841756 -0.0176136
  0.13866672 -0.0856248   0.03050991  0.0389616   0.05463436 -0.01653688
  0.01141417  0.05399754  0.03565602  0.01967242 -0.04833916 -0.06143664
 -0.00180721  0.02348594  0.14643589  0.01359407  0.08157001 -0.00601884
  0.0283834   0.1287345  -0.04301193 -0.03182712 -0.13048086  0.03492298
  0.03927463  0.00797806 -0.01619313  0.0169096  -0.07700743 -0.01775412
 -0.00922319 -0.03871714 -0.02425293  0.03810426  0.08610059  0.01401693
 -0.02680249 -0.03464901 -0.04505886 -0.01259078  0.10271555 -0.02708096
 -0.02881201  0.10940177  0.00721917  0.03296683  0.0656467  -0.08340909
 -0.0251521   0.08896452 -0.03577926 -0.05050759 -0.0240885  -0.05215494
 -0.09897881  0.00860089  0.04358883  0.06313817  0.02153978  0.02069104
  0.04757864 -0.02535536 -0.05218106 -0.01377365  0.02860085  0.08520851
 -0.0416414  -0.01633989 -0.02199539 -0.08125378  0.07580011  0.14569084
  0.05333726 -0.0407658   0.05765451 -0.03059505 -0.00978166  0.08195561
  0.06843931  0.03590916 -0.05860385 -0.02116807 -0.03883603 -0.04362369
 -0.01776598  0.04451695 -0.05079249  0.05827057 -0.0044876  -0.14587449
 -0.0827132  -0.03105105  0.09346513 -0.05071504 -0.04936836  0.04219954
  0.02739999  0.12522948  0.04280758 -0.00037192  0.01380404 -0.03244773
 -0.06432578 -0.00696639 -0.01685759  0.03797716 -0.06928545  0.00476388
 -0.005008    0.03617308  0.01802712  0.01990853  0.02305667  0.08047249
  0.00855341 -0.01691271 -0.00683652 -0.00108903 -0.13793035  0.00965624
  0.07391001 -0.06415523  0.03425445  0.06973399 -0.01603916  0.06213619
  0.05329591 -0.03797545  0.00762302 -0.08074918 -0.04532012  0.0701356
  0.04444784 -0.0310253   0.04239903  0.00487503 -0.02367266  0.05805919
 -0.10206851  0.07160768 -0.01395928 -0.01373074  0.14763603  0.01871032]
[ 0.09872798  0.05856712 -0.01913564  0.01548227 -0.03749887  0.04519387
 -0.08383219  0.07470709  0.00407955 -0.06055437  0.02868537  0.04151504
 -0.02302888  0.01210138  0.0292689   0.08099215  0.03052405 -0.01008249
 -0.01088972  0.03234797  0.04466368 -0.12937866  0.08405409 -0.04222821
  0.09040789 -0.05047733  0.05053892 -0.02584317 -0.02718497 -0.06235406
  0.02656368  0.00979675 -0.02283996  0.00138558  0.02761945  0.0866259
  0.01801824 -0.02233056 -0.04181699  0.05570136 -0.03062716  0.03045509
 -0.04924145 -0.09548469 -0.06720049 -0.00212165 -0.02692183  0.06621659
  0.11121266  0.05208307  0.01732702  0.0198983   0.11305472 -0.01852823
  0.01127649  0.06262337 -0.07175514  0.02034533  0.02116628 -0.04450085
  0.02238299  0.04037312  0.0391922  -0.02448934 -0.01542506 -0.06375579
 -0.02087317  0.05524718 -0.01665442  0.03336297 -0.01230666  0.05472252
 -0.02464993 -0.01444173 -0.00238232 -0.03056953  0.05577054 -0.10642273
 -0.03147089 -0.01955149  0.01318596  0.1341471   0.02579046 -0.05654544
  0.0657281   0.09187347 -0.07154489 -0.10495442 -0.05666599 -0.02255738
 -0.116563    0.0384849  -0.07136336 -0.00113812 -0.0551701  -0.09094789
 -0.08771716  0.0172066   0.04355246  0.0514445  -0.03516172  0.0597186
 -0.06597538 -0.10470065 -0.05212114  0.00966188  0.02017274  0.0654319
  0.04820298  0.000739   -0.02038806  0.01396734  0.07392988  0.09575506
 -0.01233913  0.11384236  0.0204568   0.08618383  0.00486394  0.00429803
 -0.0214374   0.07696729 -0.02664143  0.02019138 -0.08417784  0.00406303
 -0.0942823  -0.02001199  0.06261151 -0.07441819  0.00187632 -0.03170808
 -0.01081512 -0.09025662 -0.05629395 -0.04284671  0.06246896  0.04495442
 -0.00396801 -0.02086756  0.02998787  0.03822286 -0.01118781  0.03857706
  0.03590078 -0.02150046 -0.00120918 -0.03562666  0.0144767  -0.05226217
  0.00414441  0.01878089  0.02165555 -0.00698323 -0.06528562 -0.1030514
 -0.08075158  0.01360182 -0.0690667  -0.01025167  0.00944014 -0.02043396
  0.07250294  0.00544611  0.01426573  0.06095249  0.00191909 -0.03348268
  0.00778493  0.00415761  0.00015681 -0.08130375  0.00602171  0.00957101
  0.04192133  0.00198771  0.04256761 -0.04812938  0.08731905 -0.01927469
  0.01998109  0.01780004  0.00047276 -0.03663908  0.04857033  0.02638277
  0.04702783 -0.06220935 -0.02113322 -0.02082625  0.02176575 -0.04386224
 -0.07551287  0.03873414  0.06667935 -0.02002574  0.03393167  0.05011451
 -0.03616804  0.04955617  0.01748311 -0.04213694 -0.08979557  0.00462715
 -0.00591349 -0.00468041  0.04213655  0.03723053 -0.0725558  -0.04381756
  0.09261613 -0.07225656  0.05065568  0.06847847 -0.05782033  0.00419533
 -0.02691412 -0.06279022  0.04782113  0.02789509 -0.08802889 -0.00557461
 -0.03162233 -0.03927936 -0.03393906 -0.00264187 -0.05623183  0.01328238
  0.03478812  0.07543033  0.0293352  -0.032843    0.0605908   0.0199196 ]
[ 0.00083429  0.0384984  -0.00791879 -0.1128712   0.0039905  -0.02832652
  0.04573688 -0.0249619  -0.01148675 -0.01373205 -0.05538184 -0.03285253
 -0.01596229  0.0383916   0.0050513  -0.03281491 -0.0330644  -0.01918032
 -0.01762628  0.02310339  0.02163919  0.05465011  0.05081505 -0.02106757
 -0.03521066 -0.04881454 -0.03837414  0.10126917 -0.00834006 -0.01171168
  0.00028363 -0.00124316 -0.06131782 -0.01833317  0.00065333  0.15471968
  0.00974352  0.05728601 -0.06641165 -0.02657163  0.04044641 -0.04998462
 -0.01496551  0.04508613 -0.0340784  -0.08987262 -0.05593218 -0.06203189
  0.05766581 -0.00471134 -0.00199084 -0.02823272  0.01905334 -0.10621814
 -0.0589373  -0.00171042  0.03366444  0.0629953   0.02825311  0.0051243
  0.00588508  0.05369952 -0.0652299  -0.06688444 -0.05628023 -0.04486265
  0.05371964  0.00951977  0.09219509 -0.07081347 -0.0163487   0.05741477
 -0.02849215 -0.09246797 -0.03766739  0.0292459  -0.02234955  0.12571596
  0.07675586 -0.0210105   0.02423361 -0.12683281  0.08750781  0.0132326
 -0.03094936  0.09278317  0.02173535 -0.01622657  0.02417867 -0.0353253
  0.06357591  0.00629554 -0.00408385 -0.0352704  -0.03425579 -0.07654774
  0.06127169  0.01211713  0.02006591 -0.00533009 -0.0333879   0.08208925
 -0.00790826  0.0724083   0.02683437  0.00700858 -0.07705113 -0.01239027
 -0.05576668  0.01714064  0.06215062  0.02789612 -0.00538468  0.02854998
  0.10479629  0.08000763  0.02294366 -0.01879565 -0.0640651   0.04892122
 -0.04811818 -0.06214818 -0.0243552  -0.01133434 -0.03733025 -0.13990574
 -0.13625339  0.00343367  0.01845777  0.04943655  0.12010659 -0.03353523
 -0.05839491  0.04258162  0.08454189  0.05124719 -0.01466243 -0.0154685
 -0.03388645  0.03141044 -0.0856088   0.06022094 -0.03710284 -0.00275847
 -0.04992808 -0.00797189  0.05482845 -0.02829093  0.03490963  0.06665494
  0.01928795 -0.01613034  0.01635575  0.02662631 -0.05655382  0.00512014
 -0.03764486  0.00869422  0.0566582   0.04280401  0.02137694 -0.09006357
  0.01380577 -0.00865754  0.07664085  0.00512383 -0.02533589  0.00539675
 -0.02512132 -0.01736132  0.06156976 -0.05622806  0.05151085 -0.00970211
  0.01613893 -0.03622372 -0.03003643  0.07127838 -0.04356905  0.01623024
 -0.00349461 -0.03216992  0.02237814 -0.04240521 -0.10509138 -0.00380904
 -0.01895158  0.02937057  0.00066202  0.0344134   0.04735027 -0.04709493
 -0.05156359 -0.03846746 -0.10355346 -0.04029394  0.04792074 -0.00213566
 -0.04508925 -0.02721721 -0.04611006 -0.00455855 -0.00230899  0.02707347
 -0.12323041  0.07338863 -0.01394297  0.04164925  0.04940542  0.01447392
  0.0910864   0.09690542  0.04417503 -0.11930145 -0.02380193 -0.09377003
 -0.02814793 -0.00685666  0.05327035 -0.00778739  0.0089482  -0.03989375
  0.05200823  0.04843402  0.09640881 -0.0303885   0.07185937 -0.07423733
 -0.02265108 -0.07980039 -0.09571911 -0.02860826 -0.07453493 -0.05771869]
[-1.28045455e-02 -7.49274045e-02  1.40329655e-02 -9.27802250e-02
  5.02060950e-02  9.25414860e-02 -5.12261726e-02 -4.02790532e-02
 -1.74404366e-03 -1.46881128e-02 -1.22049293e-02 -4.71698157e-02
 -1.68421753e-02  3.03949360e-02  3.39949466e-02  7.86920264e-02
 -1.37369586e-02  8.22672844e-02 -3.55234370e-02 -1.90298110e-02
  3.46639976e-02 -8.53520706e-02 -9.45650099e-04 -4.12466051e-03
  1.44667059e-01 -4.52324338e-02 -2.73225680e-02  9.51399431e-02
  9.97523870e-03 -5.03634475e-02 -5.73955849e-02  6.07525483e-02
  7.27319717e-03 -2.61823088e-02 -4.18621190e-02  1.23523250e-01
 -6.61313385e-02 -2.79918965e-03 -1.39545707e-03 -3.31010371e-02
  1.10528864e-01 -1.98401511e-02  2.79864389e-02  3.05492934e-02
  3.03139165e-02 -3.72591009e-03  4.60995473e-02  2.10942198e-02
 -4.28327098e-02  9.75435041e-03  3.02628409e-02 -2.30972636e-02
 -5.71968369e-02 -2.29951721e-02  4.49138358e-02 -8.04212596e-03
  4.57371287e-02  1.08553953e-01 -2.80533656e-02  3.60561125e-02
 -3.03127728e-02  2.79816054e-02  5.18200397e-02  8.09527859e-02
  3.76833230e-03  3.58442850e-02 -8.02531466e-02  3.77054028e-02
  2.81027351e-02  1.64556373e-02  3.06780660e-03  7.35222623e-02
  6.35896027e-02 -3.78489196e-02  4.11207788e-02 -6.85766488e-02
  9.63012725e-02 -7.41302893e-02  9.55487601e-04  1.76970731e-03
  4.11924049e-02 -7.85566717e-02  1.30369579e-02  2.56960504e-02
  7.43653402e-02  4.03673090e-02 -3.13605145e-02 -6.84050992e-02
  4.12135497e-02  8.60531330e-02  1.07074320e-01  1.04096057e-02
 -1.64599402e-03  6.51565567e-02  1.18015974e-04 -2.06465703e-02
 -6.44868612e-02 -2.44855788e-02  5.66491392e-03  1.11115091e-02
 -5.07249087e-02 -5.57806976e-02 -3.62166669e-03 -1.96948592e-02
  5.63796125e-02  1.25792623e-02  1.31599054e-01 -1.43622393e-02
  7.38769863e-03  1.11452661e-01 -4.29151990e-02 -5.79040358e-03
  3.02971955e-02  3.01756151e-02 -6.33812323e-02 -1.82074700e-02
  2.06477679e-02  4.99308556e-02  3.32740992e-02  1.84718128e-02
 -5.27347811e-02 -2.00726800e-02 -1.52174085e-01  8.45907070e-03
  3.55305746e-02 -9.06150788e-02 -2.62874868e-02  3.52498405e-02
  2.35948078e-02 -5.93398418e-03  8.99942685e-03  3.48903127e-02
  5.59677742e-03  1.55847492e-02  9.19326320e-02  6.19301982e-02
  7.99330994e-02 -9.08076838e-02  7.31411800e-02  1.20648863e-02
 -3.03336629e-03  1.06063768e-01 -6.08264375e-03  3.40254158e-02
 -4.83609084e-03 -1.26117626e-02 -1.99904647e-02  7.77615886e-03
 -6.68380409e-02  6.14306293e-02 -1.47336558e-03 -5.00725210e-02
 -4.27983142e-02  5.66237867e-02 -3.75829078e-02  5.09827100e-02
 -2.75999177e-02  6.26126677e-02  7.77760521e-02 -4.69670594e-02
 -4.89376485e-02 -4.25080881e-02  2.84940749e-02 -3.99334729e-02
  2.31729224e-02 -1.23029193e-02  2.64922827e-02 -5.91725372e-02
 -1.08267777e-01  4.95151579e-02 -8.94722641e-02 -3.30618545e-02
 -2.71144090e-03 -1.90106668e-02  4.51301113e-02 -6.15079477e-02
  3.49936858e-02 -3.94835733e-02 -8.58296677e-02 -2.25924011e-02
  6.98736263e-03 -5.16162664e-02  5.60470335e-02 -4.96384166e-02
 -1.59223098e-02 -4.32915501e-02 -2.41962429e-02  6.14129826e-02
  8.01988170e-02  4.41580191e-02  4.53675464e-02  7.18069775e-03
  9.57753360e-02  1.03977457e-01  3.70017327e-02  2.19605174e-02
 -6.55040517e-03  3.29689728e-03  2.94184200e-02 -2.34911852e-02
 -2.66013294e-02  5.87584935e-02  6.14966862e-02  6.64834306e-02
  7.95847774e-02 -1.19373957e-02  5.63507043e-02  1.63643118e-02
 -8.63431096e-02  4.52098064e-02  4.02023308e-02  6.42968714e-02
 -1.16276219e-01  4.45448346e-02 -2.21249890e-02  2.16356926e-02
 -9.14791301e-02  2.13107150e-02  4.81066443e-02  4.94537167e-02
  3.60728055e-02 -8.10337961e-02  2.43055709e-02 -4.07013819e-02
  4.73758951e-03  5.93294576e-02 -1.01671539e-01  3.45813809e-03
  4.31303270e-02  5.41700162e-02  2.96700485e-02 -7.34911934e-02
 -5.18356338e-02 -8.31204578e-02]
[ 0.03999089  0.14581993 -0.11768965  0.05285897  0.02643139 -0.09992411
  0.04178835  0.0107522   0.00848642  0.13461627  0.02313295 -0.09405015
 -0.04581751  0.00616892  0.04327244  0.03712457  0.0350464   0.03164505
  0.02114698 -0.02669588  0.07876477  0.06128993  0.02946797  0.01703608
  0.0259633  -0.07384114  0.0141101  -0.04970326  0.00904469  0.04216517
 -0.04106473 -0.00932791  0.03430205  0.03409636 -0.03577574  0.00167046
  0.04738074  0.08624557  0.08597969 -0.02599195  0.15633786  0.08104546
  0.00088188  0.03071022  0.01167223  0.05324787  0.12230746 -0.06751382
 -0.00075527 -0.04085339  0.06197913  0.03042638  0.07356507 -0.03974494
  0.0604555  -0.03174639  0.03224568  0.01901479  0.05224271  0.06163076
 -0.11611886 -0.02759305  0.06053625 -0.07388021 -0.03960296 -0.03188696
  0.0650944   0.06099587  0.00060882  0.17129321  0.03380578 -0.06210876
  0.06255171  0.07455346 -0.06259321 -0.00576558 -0.02128679  0.04029039
 -0.03531873 -0.04580547  0.0140528  -0.04814626  0.02254169  0.02215113
  0.05070618  0.11044222 -0.03499232 -0.00178307 -0.05473246 -0.05442801
 -0.00549898  0.00113206 -0.02093467  0.00692567 -0.06579928 -0.0988069
  0.04410266 -0.060107   -0.0122057   0.03195015 -0.02994371 -0.01502309
 -0.04017375  0.05700609 -0.0768932   0.01788914 -0.02482474  0.02520476
 -0.0495794   0.03390702  0.01805613 -0.03489676 -0.04232056  0.08627566
 -0.08747242  0.02183551  0.07674941  0.00934223  0.01422822  0.01137026
  0.06458846  0.01426097 -0.08953772  0.02167713  0.01646154  0.08200832
 -0.04349135 -0.02399318 -0.02290072 -0.05258563  0.05309631  0.01962818
 -0.02603457 -0.00469031 -0.03938778  0.09915062  0.02024649  0.01512952
 -0.01486546  0.02495884 -0.02244925  0.01594387 -0.00129697 -0.09109432
  0.03758897 -0.026097    0.02453714  0.03345999  0.01009936  0.04344043
  0.0467663   0.01634503  0.05899224  0.02298473 -0.0418281   0.06536643
 -0.01467714 -0.06339524  0.00663998  0.09589587 -0.0144276  -0.02454607
  0.00675684 -0.0833452  -0.01288707  0.04348207  0.05510083  0.03119441
 -0.07447568  0.03930591  0.05465296 -0.04034789 -0.01732089  0.0394223
 -0.0525872  -0.0264619   0.00847971 -0.01076636  0.07846967 -0.08416068
 -0.00446834 -0.02253749 -0.03410397 -0.08774474 -0.03546947  0.00201121
  0.04416036  0.03006179 -0.09630761 -0.00318826  0.00780958 -0.0319697
  0.02270099  0.0264981  -0.02197225  0.00759562  0.0431551  -0.02263939
 -0.03065252  0.02990437 -0.03484348  0.05839813  0.07909912  0.03179683
 -0.02586056  0.02319462 -0.01638013  0.07883704 -0.07659058 -0.0238031
  0.01577071 -0.00028742 -0.01402996 -0.00462721  0.13706684 -0.00429531
  0.05146638  0.05907958 -0.04619984 -0.05023435 -0.01003528  0.00354143
  0.12541202  0.0296848  -0.10143413  0.01500518 -0.06388675 -0.00402554
 -0.04045843 -0.04315377 -0.03914949 -0.04277301 -0.02957679 -0.03008361]
[-0.06472553 -0.01141242 -0.06711204  0.03656517 -0.05121731  0.03375041
  0.09166714  0.07900858  0.02100386 -0.05721653  0.10137337 -0.01476703
 -0.01760656  0.03652082 -0.04034847 -0.02772017 -0.00938498  0.01065005
  0.12136165  0.07451637 -0.00223247  0.00798386 -0.02169996 -0.0241754
 -0.06607479 -0.07379181 -0.0332305  -0.04619304 -0.00626116  0.03360439
  0.0417602  -0.06637035 -0.06455596  0.03347392 -0.01969099 -0.04210334
 -0.09444868 -0.04029366 -0.02125666 -0.04477046 -0.01361468  0.01586914
 -0.02796718  0.08521339 -0.06101085 -0.01428699  0.03011768  0.00266292
 -0.00564635 -0.10178468 -0.07446959  0.03602764  0.0202233   0.06524906
  0.05093893  0.02908421 -0.06831022  0.01453345  0.05218565  0.02353097
 -0.06108428  0.09249236 -0.04231634  0.05568433  0.0375932  -0.00479155
  0.01041459  0.08756525  0.00403103 -0.00555831  0.02087771 -0.0545147
  0.05155703  0.01675295 -0.02378185  0.10431283  0.03854914  0.03490342
 -0.06198603 -0.1058289   0.02046051 -0.08097895 -0.07479979  0.02310433
  0.02581597  0.00309547  0.0369211   0.02799605 -0.10750162  0.07037982
  0.00674348  0.07843528  0.00569996 -0.04703511  0.01158144 -0.01994488
 -0.02088694  0.07815427  0.00556457 -0.09284717  0.00759826  0.12013555
 -0.10054871 -0.00705286 -0.02246084 -0.09387692 -0.03162439  0.03275502
 -0.01339107 -0.07609738 -0.0165973  -0.04201972  0.00758017  0.03736173
  0.02625874  0.04940027  0.01237873 -0.04871601 -0.02544733  0.12816769
 -0.08197047 -0.04765119  0.02298014  0.01382015 -0.06608694  0.04430642
 -0.04846514 -0.06590635 -0.03229723  0.01543776 -0.04006998  0.03661887
 -0.02343031 -0.03957051  0.02097166 -0.00752678  0.03548285  0.0825728
 -0.0088812   0.00719907  0.00556048  0.05781552 -0.02036553 -0.0299731
  0.04905679 -0.02577702  0.0011538   0.03246548 -0.05806354  0.05040931
  0.0186706   0.06989083 -0.01144501 -0.02733167 -0.09942558  0.07467528
  0.03440423 -0.02963727 -0.02985733 -0.02698036  0.0518527   0.07335047
 -0.00495862  0.05041489  0.04889587 -0.01672455 -0.07471994 -0.04589935
 -0.07429653 -0.09968926  0.06481954 -0.01324752  0.02875487 -0.02435902
  0.00922267 -0.03323284  0.04445071 -0.00459553  0.0210816  -0.00602604
  0.09166028 -0.09517597  0.01292213  0.07610617  0.01179464 -0.00855357
  0.07993041 -0.01205683 -0.04518181  0.04935108  0.02099134  0.01365404
 -0.07591186 -0.07145579 -0.02998354 -0.08934366  0.07370868 -0.06048684
  0.01679224 -0.053254   -0.00157485 -0.01580859  0.05977215  0.11776929
 -0.00908623  0.00373378  0.01820351  0.06925396 -0.01802091 -0.01250353
  0.01203415  0.03154142  0.04839399  0.02529108 -0.02582891 -0.03538025
 -0.00615152 -0.03797698 -0.02854131 -0.0688661   0.01227785  0.03288976
 -0.04144021 -0.03309617 -0.00660737 -0.03180612 -0.0937071   0.04515969
  0.0916244  -0.09171431  0.02574945 -0.04747911  0.08039866  0.006719  ]
[-0.03738356  0.00527954  0.01709948 -0.00051568 -0.00329348  0.1128038
  0.01453604 -0.00110091 -0.02224162  0.04752219  0.00563076  0.06625367
  0.09266068  0.01400184 -0.00462243  0.05805551 -0.0726233  -0.05383286
 -0.04437538 -0.06737199 -0.01710434  0.0741667  -0.00297384  0.01892121
 -0.02709594  0.06590464  0.00204665  0.01460401  0.03898302 -0.00830548
  0.01545246 -0.00314204  0.03594191 -0.04787057 -0.08341725 -0.05364479
 -0.0068859  -0.00654766 -0.00586671  0.02442879  0.01429312  0.02741311
 -0.04283243 -0.00571082 -0.0458288  -0.05290133  0.00087045  0.0283097
 -0.01249261  0.0430234  -0.03929551  0.01323139  0.03284736  0.02027316
 -0.03272796 -0.0618485   0.07287293 -0.01606379 -0.00519268 -0.03185415
  0.04543376 -0.00022536  0.05502471  0.06389904 -0.01594089 -0.09871701
  0.00958669 -0.00017672  0.02763742  0.12352083 -0.04194119  0.05155281
 -0.04281238 -0.06969454 -0.02153376  0.02668593 -0.00329451  0.06141495
 -0.03149127  0.01230199 -0.01439156 -0.08553263  0.02787811 -0.0344342
 -0.01973573 -0.00208805 -0.10465094  0.04892785 -0.0393354   0.03581965
 -0.0743519  -0.02498813  0.08181708  0.01169993  0.02296914 -0.07567843
 -0.01580373 -0.00395424 -0.04993245 -0.03734684  0.02674041  0.00344545
  0.02258776  0.07430355 -0.00148535 -0.01412288  0.03812991 -0.05260246
  0.02084529 -0.01433664 -0.08008934  0.00824228  0.03482     0.02850434
 -0.02139912  0.10648139 -0.00649114  0.01327491 -0.03760245 -0.01619766
  0.07540435 -0.02527896 -0.02224411 -0.01068402  0.04739029 -0.05488897
  0.03577049  0.03509027 -0.0076587  -0.02597805 -0.06050499 -0.01599903
  0.02111333 -0.0264209   0.02432384  0.03240559 -0.03902546 -0.05559896
 -0.00308313 -0.00875818  0.05882818 -0.12953168  0.04680868  0.00808035
 -0.01855941 -0.09076893 -0.06987345  0.01537689 -0.07906286  0.05869213
  0.03653128  0.05691232  0.01894158  0.08638628 -0.06293748 -0.02970911
  0.01385787  0.01864586 -0.00358313 -0.02337267 -0.04496966 -0.02465218
 -0.0289705   0.00897539  0.02518192  0.12049268 -0.05395178 -0.05256485
 -0.02061098 -0.01560345  0.03653427 -0.01121517  0.04402357  0.02406816
  0.02111789 -0.14929079 -0.0350477  -0.01755268 -0.05173566  0.03007637
 -0.02324899 -0.09962311 -0.0302144   0.01678402  0.04215753  0.10324173
 -0.00920359 -0.02246264 -0.0324692  -0.01441833 -0.02104568  0.0943435
  0.02312612  0.01857609  0.010544   -0.05626707  0.07921569 -0.0644274
 -0.06235454  0.00169871  0.06411579 -0.01984554 -0.02755389  0.02247232
 -0.02900939 -0.04988891  0.01008302  0.03604306 -0.0194079   0.04703404
 -0.03814382  0.0652887  -0.08015113  0.01353414  0.05175993 -0.05927778
 -0.03601068  0.04691027  0.05254471 -0.06128956  0.01594792 -0.13159086
  0.01913627 -0.00568055 -0.00643702  0.03357307  0.0182355  -0.0614469
  0.0253179   0.02672055  0.07467259  0.04416869  0.08699461  0.02229488]
[-3.98118831e-02 -1.89827394e-03  3.45104374e-03  3.28066722e-02
 -3.31124365e-02  3.77186723e-02  1.02575857e-03  8.15724488e-03
 -1.09229796e-01 -1.03864782e-01 -1.21242106e-02  2.75730360e-02
  1.61937661e-02  5.17006069e-02  7.12397620e-02 -6.31443560e-02
 -4.38218145e-03 -1.25426706e-02  7.83010349e-02  3.29602584e-02
  1.56752001e-02 -4.05070707e-02  8.96707457e-03  9.80809447e-04
  3.13549973e-02 -6.37053177e-02  8.72581173e-03  5.65032810e-02
  5.37786186e-02 -6.68374524e-02  3.70219611e-02 -6.11003004e-02
  1.16011426e-02  1.21419821e-02 -1.16137639e-02 -1.25017529e-02
 -1.65045215e-03 -5.96194491e-02  2.11267592e-03  9.83759537e-02
 -7.26609603e-02  7.49429269e-03  4.06797230e-02 -2.63208635e-02
 -9.89656448e-02  1.38106132e-02  1.44577222e-02 -5.31219989e-02
 -8.25648457e-02 -5.25279045e-02  6.39872998e-02  4.06270474e-03
  6.52675629e-02  2.46874476e-03  9.20886770e-02  6.77788705e-02
 -2.70344727e-02  1.03201773e-02  1.10005587e-02  1.50427083e-02
  1.78394616e-02 -1.40591757e-02 -7.87528381e-02 -6.28471316e-04
  2.25095879e-02  1.54725760e-02 -3.66218276e-02  5.70517108e-02
  6.74223378e-02 -3.46789807e-02 -7.54672885e-02  4.90162857e-02
  2.19816118e-02  1.08472705e-02  7.96636268e-02 -3.62734310e-03
 -6.39562756e-02 -3.34248170e-02 -1.42926825e-02  8.24517161e-02
  3.35564651e-03 -1.18270673e-01 -4.15135175e-02  3.89059540e-03
 -8.09453335e-03 -5.40073961e-02  1.53795851e-03  3.01105659e-02
 -1.89489350e-02  5.26450723e-02  7.09985569e-03  7.06066331e-03
 -7.90448561e-02  5.27398363e-02  4.83353846e-02  2.75655724e-02
 -2.49807555e-02  1.18381880e-01  2.92633921e-02  2.01959512e-03
  2.92122806e-03  4.32657748e-02  4.43258369e-03 -9.78654474e-02
  4.58126552e-02 -7.06328824e-02 -8.72646552e-03  1.39896125e-01
 -4.10507657e-02  6.64082468e-02 -1.68918408e-02  6.25621602e-02
  1.62432753e-02  4.92467955e-02  9.09164846e-02 -6.14517927e-02
  4.42950390e-02  7.14955479e-02 -5.34747355e-02 -9.59647819e-02
 -2.56957058e-02  1.00698203e-01 -3.56827527e-02  1.93863572e-03
  1.52693894e-02  1.49460388e-02  7.61917373e-03 -1.04311295e-01
 -1.29709905e-02  1.41169969e-02  7.32799098e-02 -7.05564767e-02
 -5.29938936e-02  1.05073564e-02  5.66156171e-02  2.91989204e-02
 -9.42801833e-02 -9.97725651e-02 -6.23710677e-02  8.04713964e-02
 -3.67967300e-02 -8.47186148e-02  4.38968837e-02 -7.60428980e-02
  7.26871043e-02  2.97419704e-03 -1.40798604e-02  3.97182740e-02
 -9.91827920e-02  3.29405703e-02 -2.56471783e-02  1.07081439e-02
 -1.02085240e-01 -2.43614055e-02  3.72462161e-02  2.35039983e-02
 -4.04600352e-02 -7.73478718e-03  7.08986148e-02  1.87472701e-02
  4.40129712e-02  3.84383798e-02 -2.95782164e-02 -9.47029442e-02
 -4.17138636e-03  4.70104851e-02  1.42575130e-01  2.88009122e-02
  1.25605306e-02 -4.24470287e-03 -1.51201570e-02  5.63144311e-02
 -1.60398278e-02  3.88994589e-02 -5.60770705e-02  4.29118983e-02
 -2.29071565e-02 -4.64320630e-02  2.23719757e-02  1.51333576e-02
  7.79857263e-02 -4.53635529e-02  1.24474680e-02  3.07308882e-02
 -1.38186038e-01 -2.88182963e-02 -2.72013582e-02 -7.17902631e-02
 -1.78161319e-02 -2.62927711e-02 -9.87585168e-03  1.88426096e-02
  6.01537079e-02 -7.04735704e-03 -4.08349000e-02  7.42356405e-02
  2.44543776e-02 -6.85385987e-03 -6.88394532e-03 -5.21800220e-02
 -5.64490966e-02  2.95844767e-02 -6.99164858e-03 -2.77191699e-02
  3.39479111e-02 -3.20105143e-02 -7.18980208e-02  4.17677835e-02
  7.78080374e-02  5.27817346e-02 -5.34534864e-02 -2.41046976e-02
  3.50334821e-03 -5.46520390e-02 -1.54196784e-01  1.54531628e-01
  3.16011533e-02  1.80450380e-02 -6.27469867e-02 -2.82447338e-02
 -6.09426945e-03  4.94556613e-02 -3.96261103e-02 -1.27960034e-02
  9.93965287e-03 -1.12845516e-03 -8.87722746e-02  5.31991608e-02
 -2.64715892e-03 -4.01549190e-02  1.19367520e-04 -3.90687883e-02
 -2.97547840e-02  1.05225388e-02]
[-2.62658973e-03 -6.81255311e-02 -3.82747352e-02 -4.46473993e-02
 -5.14289029e-02 -5.45304082e-03 -3.37122418e-02 -1.35439197e-02
 -6.31343424e-02  5.00513464e-02 -2.59325355e-02  2.76572537e-02
 -5.30053601e-02 -1.12862855e-01 -4.72041182e-02  9.54360962e-02
  4.79113543e-03 -5.42967431e-02  3.33569050e-02 -2.32637357e-02
 -9.00335726e-05 -6.49320558e-02  8.47682357e-02 -1.02326363e-01
 -2.92988922e-02  7.76447877e-02 -1.16722938e-03 -1.15525061e-02
 -1.12383403e-02  2.44841091e-02  1.23575348e-02  8.16285908e-02
  4.72958721e-02  2.23055035e-02 -5.36273755e-02  5.86041175e-02
  3.14307362e-02  2.80721784e-02 -1.73278116e-02  6.57881647e-02
  2.06047967e-02 -1.32065937e-02 -6.54861378e-03 -5.56919836e-02
 -6.10108748e-02  4.58404049e-02 -1.75778605e-02 -3.74657623e-02
  4.60157618e-02 -3.58021520e-02 -2.71619409e-02 -5.07416204e-03
  4.99874353e-02 -8.94869044e-02  4.22909074e-02 -4.92493771e-02
 -4.00882773e-02 -1.12810805e-02  2.01806128e-02 -6.41725883e-02
 -1.04766730e-02 -8.16591457e-02 -4.43907529e-02  5.82347028e-02
 -3.47541757e-02  9.13820986e-05  1.48114860e-02 -7.43348803e-03
  2.77930535e-02  2.78718746e-03 -4.77820523e-02  1.74076967e-02
 -2.06195563e-02 -3.00153159e-02 -1.17230779e-02 -5.41684665e-02
  1.04332147e-02 -2.42559519e-02 -1.95221659e-02 -1.73932090e-02
 -4.04629670e-02  4.07671630e-02 -8.49257186e-02  1.51113719e-02
  8.03595930e-02 -8.06204081e-02  7.59978518e-02 -9.06673893e-02
  1.96703593e-03  1.02397047e-01  1.85486414e-02 -8.07784796e-02
 -6.81418106e-02 -1.69024933e-02 -3.56888920e-02  9.28020570e-03
 -4.22453694e-02 -3.22594531e-02 -4.93026152e-02  3.04958653e-02
  1.97549239e-02  1.98903382e-02  6.09661974e-02  3.43123712e-02
  5.48248254e-02 -6.74185017e-03 -6.01686165e-02  4.44929190e-02
  5.41084707e-02 -6.03044629e-02 -1.11184262e-01  4.68336828e-02
  6.53304830e-02  9.86190140e-02  2.20031943e-02 -1.44334929e-02
  1.23937182e-01  3.49377915e-02 -4.05247658e-02 -9.20541435e-02
  2.60981806e-02  4.31951806e-02 -5.67447469e-02 -1.72903594e-02
 -5.85054345e-02  1.56724583e-02 -2.66779866e-02  3.15899923e-02
 -1.13774771e-02 -2.26887912e-02 -4.57450412e-02  5.81929237e-02
 -8.20241943e-02 -5.11666499e-02 -5.24566695e-03 -1.28766149e-02
 -2.07259823e-02 -7.06949905e-02  3.54400161e-03  4.57187109e-02
  2.83094216e-02 -2.40646191e-02  1.64578520e-02  6.34160405e-03
  8.61077234e-02 -4.86725122e-02 -8.63198563e-03  3.75604630e-02
  5.13365008e-02  1.00366296e-02 -5.27056307e-03 -6.94793835e-02
 -4.02567908e-03 -1.54522015e-02 -2.57193018e-02 -8.09243470e-02
 -8.16726033e-03  5.35840616e-02 -2.07609944e-02  3.44432332e-02
  1.94510613e-02  6.05118042e-03 -7.30066374e-02  4.27060314e-02
 -5.79431839e-02  3.98975499e-02 -1.19439755e-02  6.29834533e-02
 -6.97214007e-02 -5.80319352e-02 -8.12127218e-02  7.82984048e-02
  1.63928494e-02  4.57644090e-02  5.37202284e-02 -2.06860993e-02
 -7.02835945e-03 -3.87774371e-02 -1.86820216e-02  6.47815615e-02
  9.47106034e-02  7.36125140e-03  3.24757658e-02  5.57198711e-02
  1.07909590e-02 -5.10455035e-02 -2.08953377e-02 -4.88372259e-02
  1.27027882e-02 -4.87010367e-02  1.84312128e-02 -9.65482462e-03
 -4.06336114e-02 -6.37028739e-02  1.00975253e-01 -1.82364676e-02
  8.28023106e-02 -7.88660273e-02  2.22458243e-02  1.26099447e-02
  4.69492413e-02  1.39375895e-01  3.61066051e-02  5.34105534e-03
 -1.79518592e-02  1.07605876e-02  6.52776808e-02 -3.66786495e-04
  8.15136954e-02 -7.95369446e-02  1.97962113e-02 -6.99880049e-02
 -3.98768811e-03  4.05114330e-02 -1.52447656e-01 -5.28059043e-02
  3.87125909e-02  4.52355519e-02  4.63659987e-02  1.81662012e-02
 -6.31358009e-04 -4.02017124e-02 -8.48815814e-02 -1.32254185e-02
 -4.22476642e-02  8.77666753e-03 -5.07541262e-02 -6.06182925e-02
 -1.54981613e-02  1.39836706e-02 -9.10884701e-04  4.27350923e-02
  1.75565128e-05 -1.99631527e-02]
[-2.64622867e-02 -6.06362373e-02  1.19595546e-02 -4.69335690e-02
  7.02959253e-03 -5.10130711e-02 -9.16338190e-02 -4.02351171e-02
 -2.35042516e-02 -2.04899125e-02  1.40816867e-01 -1.18189482e-02
 -1.79356930e-03 -3.10817435e-02 -6.74803415e-03  1.47044826e-02
  1.99586004e-02 -1.18042976e-01  4.88572717e-02 -1.06449924e-01
  6.54538050e-02 -3.11831031e-02 -1.03264689e-01  3.21691893e-02
 -6.44737259e-02  5.63163590e-03  6.18381910e-02 -1.30567458e-02
 -2.00148858e-02  4.10015173e-02  3.80524956e-02 -7.45124519e-02
  4.45723534e-02  4.76491824e-02  2.40829345e-02 -7.28436001e-03
 -3.03852558e-02 -1.06080174e-01 -2.40844674e-02  6.69602863e-03
 -4.15653959e-02  6.17751339e-03  3.69550064e-02 -2.60473136e-03
 -1.05537046e-02  9.51375719e-03 -5.27182184e-02  2.01997533e-02
  1.26695242e-02 -6.72148317e-02  3.48952040e-02 -7.14344233e-02
  1.50912383e-03 -2.89754421e-02 -1.06010437e-02 -1.65599044e-02
 -3.02695669e-03  6.54209480e-02 -3.42113748e-02 -3.80832888e-02
 -3.98663851e-03 -9.02916268e-02  5.45180812e-02  6.98014125e-02
  5.35279252e-02  1.44994454e-02  2.82117557e-02 -1.19985314e-02
  6.67702183e-02  1.40600046e-02  9.50227901e-02  1.05024666e-01
  3.06862872e-03 -1.23248093e-01 -6.23947792e-02  4.53558080e-02
  9.31301489e-02  7.06749856e-02  4.59093181e-03 -6.58101821e-03
 -3.90179530e-02  9.00324248e-03 -2.31598970e-02 -9.24248695e-02
 -2.66640075e-02 -2.16723420e-02  1.62209067e-02 -2.45501306e-02
  2.51985881e-02  4.76071145e-03 -2.75200047e-02  6.79094642e-02
 -2.81285234e-02  7.76831210e-02 -4.54047807e-02 -1.26856817e-02
 -1.29184872e-01 -4.24682945e-02  3.36427800e-02  6.34745285e-02
 -3.63517888e-02 -1.94784980e-02  2.37397989e-03 -8.64877179e-02
  4.88886647e-02  3.08489297e-02 -6.48344606e-02 -1.46312118e-02
  6.28376752e-02  3.59863625e-03 -1.06143206e-02  2.47665122e-02
 -2.23615039e-02 -1.54505642e-02  8.29774812e-02 -7.12445825e-02
  2.53356863e-02  9.45579335e-02  1.55294919e-02 -5.92765473e-02
  4.10354547e-02  2.61995811e-02  6.45077750e-02  9.04831756e-03
 -1.42041296e-02  1.13811865e-02  4.07644585e-02  3.80655080e-02
 -7.14257583e-02  5.39605878e-02 -3.19753326e-02  2.29645129e-02
 -1.30085014e-02 -4.91571575e-02  5.57964714e-03 -1.14290295e-02
  1.74830630e-02 -4.93028834e-02  3.61527763e-02 -7.97872320e-02
  1.41875157e-02 -6.25740960e-02 -3.36889587e-02  3.29416469e-02
  3.24173784e-03 -4.48705405e-02 -3.88864838e-02  6.22973517e-02
  2.97567435e-02  6.23063333e-02 -1.75305220e-04 -4.57089171e-02
  1.09338090e-01  3.59818041e-02 -2.78062392e-02 -8.53082836e-02
 -8.44173040e-03 -4.66338955e-02 -8.17961395e-02  6.21297546e-02
  2.16026250e-02 -7.39952037e-03  2.87349466e-02  7.07615912e-02
  3.84911299e-02 -1.90912004e-04 -4.60940339e-02 -6.16774615e-03
  8.23483989e-02  5.97207211e-02  5.63201122e-02  6.68910844e-03
 -5.00307942e-04 -5.86631298e-02  3.73012461e-02 -8.40679035e-02
 -3.19800861e-02 -7.27920979e-02  7.87056517e-03 -1.50911612e-02
  2.66534486e-03  2.72218864e-02  3.16211805e-02  5.60886078e-02
  1.21513829e-02  4.94823046e-02 -1.48226634e-01  5.54880127e-02
 -3.52456868e-02 -5.23188673e-02  2.16387641e-02  3.54280919e-02
 -5.26894890e-02 -1.08356699e-01 -7.71150953e-05 -5.81359528e-02
  7.12196007e-02 -5.72246462e-02  1.51647115e-02 -3.11110336e-02
  2.63428371e-02  2.55793650e-02 -2.67455238e-03 -4.12455648e-02
 -4.38950537e-03 -3.55679393e-02  1.82901192e-02  9.65764746e-03
  8.86149425e-03 -5.87208718e-02  3.77418660e-02 -4.14753444e-02
 -1.36350989e-01  7.14678094e-02 -1.97368711e-02 -1.21046722e-01
  4.58322503e-02 -8.05251896e-02 -1.52433524e-02  2.68190745e-02
  4.50293496e-02  2.11467734e-03  1.19874729e-02 -5.36588542e-02
 -9.32431128e-03  4.48001437e-02 -8.84708855e-03  7.45573565e-02
  1.41627640e-02 -1.69855319e-02  5.49338013e-03 -5.13670594e-02
  7.69716725e-02  3.19719203e-02]
[-0.01028999 -0.04206081  0.09631471 -0.03106924 -0.02795281 -0.0652648
  0.00430135  0.06840552  0.04245641  0.00326236  0.01100698  0.01118731
 -0.03824316  0.01182047 -0.00575729  0.03784098 -0.01730042  0.03155842
 -0.06241747 -0.0142768   0.03336125  0.00898207 -0.04408966 -0.04253975
 -0.11279205  0.0060513   0.00390153  0.03026301  0.06829524 -0.0167848
  0.03915152 -0.06952311  0.00277939  0.0068759  -0.00143826  0.02669764
  0.03768977 -0.00185984 -0.01983157  0.08709637 -0.05458446  0.07448941
 -0.06735113 -0.01576808  0.01993302  0.04626496  0.04004757 -0.02719991
 -0.00712143  0.09585605  0.08430959 -0.04080636  0.01819912  0.00581264
 -0.02554583  0.00021165  0.0639136   0.03601564 -0.01466492 -0.03558808
  0.00350936 -0.02165761  0.07729054  0.06420218  0.0761559  -0.03730949
 -0.01394512  0.00720038  0.0300494  -0.04098613  0.00173226  0.06168729
  0.02678107 -0.05159685  0.05654772  0.03275901  0.0686753   0.04860806
 -0.0944559   0.07366356  0.07321581  0.01322619  0.09266502 -0.04280416
  0.02152297  0.13164869  0.00492341  0.06992666 -0.00680937 -0.03468354
  0.03884128 -0.01335965  0.05551565 -0.02021646 -0.0632491   0.0079805
  0.02447185 -0.05348825  0.08315016 -0.10636645  0.04589162  0.03921252
  0.06518658  0.03273826 -0.02210604 -0.03161762 -0.01640008 -0.04419301
  0.08053311 -0.03077684 -0.00739269 -0.0362975   0.09164491 -0.02517931
  0.05140254  0.06456265 -0.02891027 -0.00378434 -0.01708682  0.08503395
  0.02207129  0.0418844  -0.01970538 -0.03401552  0.06868473  0.04533607
  0.04564581 -0.04902767  0.01931877 -0.02480739  0.02825666 -0.01717323
  0.02789311  0.02327806 -0.02851459 -0.05681282  0.061542   -0.08542002
 -0.00573957 -0.0728677   0.066534   -0.02672429 -0.09463549 -0.01455323
 -0.0544649  -0.00768402 -0.10986488  0.02956697 -0.00491524 -0.02369566
  0.07234503  0.06176804 -0.01994556  0.01350382 -0.03796006 -0.03174986
  0.04399993 -0.07796323  0.00672435  0.07346321 -0.07165793 -0.00858963
 -0.01237049  0.11609487  0.02471302  0.07379957 -0.00141847 -0.08713703
 -0.04843738  0.00722059 -0.03404111 -0.07533018 -0.03966389  0.02801324
  0.03273621 -0.02275728  0.04009512 -0.00538742  0.01261648 -0.04109381
  0.01810163  0.01845459  0.04462851  0.02055388 -0.06298189  0.04935162
  0.01374894 -0.01966922 -0.05563734  0.03753999  0.00351721 -0.00747188
  0.06934884  0.03517382  0.05652328  0.03751569 -0.01733086 -0.02383988
 -0.01461501 -0.02908565  0.00581111  0.07385678 -0.07779588 -0.00775795
  0.00504249  0.05046148 -0.02209364  0.00186436 -0.02738004  0.02727815
  0.00435188 -0.00590814 -0.02712664  0.04606151  0.02905321 -0.0235025
 -0.02260144 -0.09810299 -0.01016187  0.04013482 -0.03814082  0.06533283
  0.03547549 -0.03062968 -0.0142522   0.01527067 -0.04645561 -0.02160941
  0.01076654 -0.00629774 -0.0845457  -0.01035232  0.02056355 -0.00734985]
[-0.0199549   0.0350175  -0.05198558  0.03365594 -0.03191119  0.03640689
 -0.00620851  0.01714465  0.04269772 -0.0555471  -0.01781346  0.0221603
 -0.05614316 -0.06239549  0.07382467  0.01119426 -0.00881977 -0.0031672
  0.03901068  0.06006844 -0.01285068  0.02931602 -0.00021329  0.01010797
 -0.04858915  0.11611126  0.04452934  0.05161287 -0.01708915 -0.02112469
  0.06420227 -0.01778047  0.04151194  0.02181158 -0.08398444  0.10556483
 -0.02938895  0.02269739  0.02634528  0.07509061 -0.08663974 -0.01729232
 -0.07002141 -0.0257183  -0.09732127 -0.06125986 -0.11227465  0.02433104
 -0.01962805  0.01802533  0.03556433  0.00711567  0.06606784 -0.00594632
  0.07175947 -0.06514875  0.03610299 -0.01834446  0.04138746 -0.03650689
  0.1086252   0.00801945  0.01386629  0.01988588  0.11742594 -0.03002022
 -0.02165297 -0.0475533   0.03480875 -0.05681093  0.08445808  0.06487156
 -0.02994532 -0.03114467 -0.00047936  0.00635033 -0.02393615 -0.04410357
  0.02667638 -0.07247407 -0.03367492  0.05615399  0.03874169 -0.00903849
 -0.0555067  -0.08373284 -0.05155652  0.05006813  0.02283462 -0.023308
 -0.06400853 -0.04736145 -0.02585593  0.04216498  0.11937141 -0.00191911
 -0.02166625 -0.00635839  0.03754055  0.0391591  -0.02823201  0.03556732
 -0.06844334  0.09234288  0.16241662  0.0401456  -0.03432833 -0.02113378
  0.00914613  0.05036119  0.03141817 -0.05886829  0.03344453  0.04153937
 -0.07073938  0.0306528   0.08806784 -0.01155583  0.16423468 -0.03868556
  0.01506189 -0.02648922  0.04142239 -0.00486921  0.03236162 -0.01393168
  0.07262549  0.03562705  0.06090564  0.00333833 -0.03401249  0.01255621
  0.00804668  0.02358517 -0.08252354  0.02948193 -0.06453722  0.02116442
  0.02939555  0.00132304 -0.01856804  0.02976811 -0.02438404 -0.03705036
  0.01635773 -0.0308382  -0.00552691 -0.04204402  0.05884298  0.09365397
 -0.05376731  0.0177556  -0.02442125  0.0203637  -0.03567687 -0.07228737
  0.03193292  0.05581364 -0.02163369  0.03521007 -0.0423658  -0.02110876
 -0.00314091 -0.03749881 -0.06615882  0.03127987 -0.01567135 -0.0707709
  0.06548396 -0.04880385  0.01203003  0.01355147  0.01215534  0.0716547
 -0.07124089 -0.0281976  -0.00871953  0.00427828 -0.04593299 -0.05947465
 -0.02779694 -0.02795768 -0.01656671 -0.06478342  0.05699351  0.06058406
 -0.06254413 -0.02118735  0.05352722  0.02650804 -0.0194212   0.01174124
 -0.00035631 -0.100795   -0.07376496  0.04102866  0.03763621 -0.0040147
 -0.03570167  0.01397424  0.07387263  0.02373083  0.08433393  0.00306144
 -0.06343568 -0.00601037 -0.03358809  0.01940298 -0.00651519  0.00343345
 -0.06594686  0.00661252  0.02723737  0.06747508 -0.05226041 -0.06740858
  0.00176557  0.00173821 -0.03016205 -0.01781157 -0.05725044 -0.0768025
 -0.05352971 -0.06921661 -0.03094654 -0.02091458  0.00527793 -0.0502018
 -0.04891535  0.00227437  0.05808064  0.03872673  0.04094376 -0.03578717]
[-4.37928177e-02 -3.98994982e-02 -4.76736389e-02 -4.66255518e-03
  3.81696671e-02 -2.75037251e-02 -4.13797349e-02 -3.20094898e-02
 -8.54605585e-02  7.62695000e-02  6.51071174e-03  4.68816888e-03
 -1.37418043e-02 -4.41333017e-04  3.12772579e-02  3.64504419e-02
  4.33967542e-03  3.73676717e-02 -4.71370630e-02 -2.00494677e-02
 -1.06116779e-01 -5.56364469e-02 -3.23552415e-02  2.40945513e-03
  2.34802626e-02 -2.64553790e-04  3.42380628e-02  4.44239564e-02
  3.40645276e-02  9.14495438e-03 -2.53333282e-02 -7.83011876e-03
  6.10179752e-02  2.43539382e-02  1.14819957e-02  1.06068281e-02
 -7.13675320e-02  3.35177891e-02 -9.00716707e-03  2.18992960e-02
 -1.11958355e-01  1.04156159e-01 -5.91619052e-02 -1.26535729e-01
 -4.68791761e-02 -7.60518014e-03  4.03067581e-02  3.53227742e-03
 -4.31078598e-02 -2.71584895e-02 -8.59475508e-02 -2.55800574e-03
  8.71229842e-02 -2.39371918e-02 -7.26218447e-02 -4.54479754e-02
  1.07743740e-01 -4.78372388e-02  8.90159886e-03 -6.60093427e-02
  4.80712764e-02  3.16506587e-02 -2.10167710e-02 -7.40677398e-03
  5.79804517e-02 -4.90496717e-02  3.68820317e-02  3.65385264e-02
 -1.16449585e-02  3.56691182e-02  5.98169230e-02  8.38951096e-02
 -1.38434172e-02 -7.75534436e-02 -2.62570530e-02 -1.99363530e-02
 -3.18269618e-02 -8.39545727e-02  2.92323064e-02 -1.22102395e-01
 -7.39632733e-03 -3.36234681e-02 -2.04530042e-02  7.76773542e-02
  5.61485766e-03 -7.22510591e-02 -8.57563317e-02  5.15661798e-02
 -5.95708080e-02 -4.48153121e-03 -1.42318696e-01  5.51423691e-02
 -3.74487191e-02 -3.78895663e-02  7.48768821e-03  1.00049749e-01
 -5.29437838e-03 -3.73522900e-02 -4.16644663e-02 -7.99751841e-03
 -4.19253483e-03 -2.53635254e-02 -1.87714901e-02 -5.38400002e-02
  3.45378667e-02  1.33661535e-02 -8.55957046e-02  7.18756616e-02
 -6.59667607e-03 -2.49557812e-02  5.55143058e-02  3.92860882e-02
  7.45238885e-02 -4.27782610e-02  6.43061241e-04  5.65144345e-02
 -1.25545254e-02  2.17669271e-02 -2.46894695e-02  1.50450151e-02
 -7.55496025e-02 -7.80926645e-02  6.90828040e-02  1.52703514e-02
  2.26129945e-02 -1.11015379e-05  2.04688478e-02 -2.63834242e-02
 -5.27184457e-03 -8.14076588e-02  1.44970771e-02 -4.67667133e-02
  3.33327167e-02  4.70303707e-02  4.95566195e-03  6.62358552e-02
 -5.52357696e-02  5.96459620e-02  2.49189278e-03  1.05320118e-01
 -4.61291382e-03 -1.52289718e-02  2.30676848e-02  2.57089008e-02
 -2.24781595e-02 -7.12170219e-03  6.87012123e-03 -6.55008778e-02
 -5.66869453e-02 -1.34649863e-02  8.54102075e-02 -2.37510018e-02
 -3.33600072e-03  5.91158010e-02  4.57493104e-02 -3.69254798e-02
  3.33777927e-02  7.72216171e-02 -2.61372719e-02  6.45517409e-02
  6.49294630e-02 -2.68256776e-02 -8.06288735e-04  7.56099075e-02
 -4.03608344e-02  9.50609148e-02  4.90039997e-02 -9.53613818e-02
  7.72756711e-02  2.35555395e-02  3.33104841e-02 -9.29349754e-03
 -8.65011886e-02 -4.31138612e-02 -4.66244146e-02  4.89549041e-02
 -2.82992783e-04 -1.66918665e-01 -1.52659029e-01 -1.13203246e-02
  7.71802440e-02  7.50578009e-03  6.45761415e-02  2.92687546e-02
 -4.15015370e-02  6.43811226e-02 -1.01059843e-02 -2.58941129e-02
  1.91965606e-02 -8.46226737e-02 -1.25188017e-02 -1.56330436e-01
  2.46215542e-03 -8.06237385e-02  1.20918853e-02  1.13313839e-01
 -6.58826604e-02  7.89180174e-02 -1.13739651e-02 -1.75948106e-02
 -6.45368323e-02 -3.76102626e-02 -1.59322210e-02  3.55211943e-02
 -6.69117877e-03  5.43650649e-02 -4.26570140e-02 -1.85131151e-02
 -4.25943360e-02  6.50560111e-02 -1.97987985e-02  4.18549404e-02
 -5.79346754e-02  7.10704178e-02  2.78840158e-02  3.11789289e-02
  4.62521464e-02  7.39983562e-03  7.54855946e-02  2.55959313e-02
 -9.73892957e-02 -4.46210839e-02 -5.05914316e-02 -4.65959646e-02
 -7.17573315e-02 -3.12762819e-02 -1.01835839e-01 -1.41641926e-02
  1.31888896e-01 -2.28376072e-02 -4.40769792e-02 -3.27549595e-03
 -3.66426446e-02 -7.78472098e-03]
[-4.76096384e-02 -2.13244967e-02  1.40903322e-02  2.59552859e-02
 -3.95016745e-02  4.90584373e-02 -1.35084353e-02 -4.76669408e-02
  9.26244035e-02 -4.65830599e-05 -7.56104514e-02 -8.45348928e-03
 -7.26039559e-02 -1.69359485e-03  1.58347152e-02  7.07210274e-03
  6.27411157e-02  2.44318265e-02 -2.80245971e-02 -3.70470993e-02
 -1.85992736e-02  1.12532780e-01 -8.63291603e-03 -9.42941681e-02
  4.30779308e-02 -1.31038148e-02  1.63500682e-02 -1.45284561e-02
  5.52177988e-02 -6.09934749e-03  3.40959504e-02  7.42461905e-02
 -1.98527481e-02 -4.50002775e-02 -4.48403060e-02  8.82086903e-02
 -5.83183430e-02  1.16608571e-02  1.66929811e-01  2.14367099e-02
 -3.71893682e-02 -3.91773246e-02  5.43462299e-02  5.34969345e-02
 -4.52073179e-02  8.68379232e-03 -5.51171564e-02 -3.25449109e-02
 -5.81512079e-02  2.50384025e-02  6.79069236e-02  5.03359810e-02
  5.74892722e-02  1.02775030e-01 -2.64884122e-02  2.91703967e-03
 -1.79307126e-02  3.88189889e-02  2.52171811e-02  1.27029493e-02
  5.72093278e-02  3.35913077e-02 -6.12234557e-03  2.70224921e-02
 -5.25786057e-02  7.02908561e-02  4.43798937e-02  1.40204746e-02
 -1.37390569e-02  6.54468406e-03  2.17265054e-03 -3.90632451e-02
  3.31940167e-02 -5.63643798e-02 -4.63644378e-02 -4.19229902e-02
 -2.84901988e-02  1.37417063e-01  4.80237566e-02 -2.89178491e-02
  5.93340099e-02 -3.41707133e-02 -1.90755520e-02  9.03039724e-02
 -4.11863029e-02 -7.71673471e-02  5.51326051e-02  8.93130228e-02
 -5.79402260e-02  6.14500381e-02 -6.63489755e-03 -4.68333103e-02
  1.32646799e-01 -6.95300773e-02 -2.65793502e-02  7.55889267e-02
 -1.10291801e-01  3.20536010e-02  7.36755282e-02 -3.01289670e-02
 -2.25893985e-02  1.78758167e-02  6.56556115e-02  2.05644243e-03
  6.08743681e-03 -5.96346185e-02 -1.09594185e-02 -9.43724066e-03
  2.75332108e-02  1.00620212e-02 -4.40188125e-02  3.18585932e-02
  4.68681455e-02 -7.20610321e-02 -7.76249692e-02  1.21327126e-02
 -1.94378980e-02 -7.08810762e-02 -1.52605120e-02 -5.76178730e-02
  5.50424121e-02 -1.12362439e-02  6.00207411e-03  3.81641947e-02
  6.30063191e-02  1.64758265e-02 -2.27066334e-02  1.14614023e-02
  9.12112370e-03 -5.26294997e-03  1.00735314e-01  2.55017504e-02
  1.11270152e-01 -5.30228652e-02 -2.11504232e-02 -1.22432046e-01
  4.08836678e-02 -5.47783822e-02 -2.81292293e-02  4.20749001e-02
 -3.28709260e-02 -7.10993186e-02  8.47083181e-02  2.96993852e-02
  3.33024338e-02  3.46255302e-02 -7.96849877e-02 -6.33263960e-02
  2.63483636e-02  4.65354044e-03 -1.06411334e-02  5.87370060e-02
  5.60748801e-02  3.52677554e-02  1.27822319e-02 -1.02344099e-02
 -6.75741360e-02  3.76981832e-02 -5.72143942e-02 -8.39657523e-03
  2.16883086e-02  3.06782480e-02 -3.11122020e-03 -8.49365816e-02
 -4.35287878e-02  4.60714959e-02 -3.04936208e-02  8.94902951e-06
 -3.11536994e-02  2.15833429e-02  7.59588555e-02  2.81860866e-02
 -5.78356534e-02  4.59562056e-02 -7.90542141e-02 -3.38653161e-04
  6.16342984e-02 -4.90900837e-02  2.28439341e-03 -2.74435040e-02
 -2.63216849e-02 -1.35433683e-02  2.54455628e-03 -1.82770914e-03
  3.85298692e-02  4.63693514e-02 -2.42789760e-02  4.02218886e-02
  2.90925931e-02 -4.60238047e-02 -1.76753309e-02 -5.88280335e-02
 -7.66777024e-02  3.45040858e-02 -5.38214594e-02  4.82218042e-02
  2.10255682e-02  2.10288130e-02 -5.18406853e-02  7.07655773e-02
  3.24814990e-02 -1.21189207e-02 -6.55702781e-03  3.23544741e-02
 -5.43135926e-02  4.35300283e-02  9.61603895e-02  5.28484546e-02
  5.54891601e-02 -6.39450103e-02  3.33501548e-02 -7.35733733e-02
  4.21382301e-02 -7.77433664e-02  9.08789784e-02 -4.39025909e-02
 -3.23673664e-03  2.63466444e-02  9.44468845e-03 -3.14784423e-02
  1.71724765e-03 -3.82655375e-02 -7.87678137e-02 -3.57359797e-02
  4.32226919e-02 -2.87706479e-02 -5.50559275e-02  5.10992855e-02
 -1.50685310e-02  8.94023180e-02 -4.00426186e-04  5.21672443e-02
  1.48079740e-02 -6.70100525e-02]
[ 0.01451634 -0.08737849  0.00373282 -0.00913069 -0.04475569 -0.00674997
 -0.00488467 -0.01721849 -0.02468076  0.05785576 -0.09561075 -0.08218733
  0.0789385  -0.02261136 -0.05508887  0.00869917  0.00333732 -0.02170185
 -0.01733821  0.01126962 -0.00205887 -0.00237236 -0.04964062  0.02938585
 -0.08232491 -0.03041323  0.06341948 -0.04328996  0.03865755 -0.02681434
  0.02726626  0.07859059  0.05530572  0.04944429  0.06647155  0.07246746
 -0.05955525  0.00873798 -0.05276472  0.07467522  0.04523894 -0.08295086
  0.01882053  0.04700221 -0.00021931  0.01455084  0.01495717 -0.04154847
  0.04481793 -0.10580385 -0.05560179 -0.00608678  0.01124846 -0.01996039
 -0.01582161  0.0176582   0.07292943  0.02668304  0.01446671  0.0555269
 -0.01342907  0.0463538  -0.02496376 -0.02811423 -0.00259521  0.01385327
  0.02565784  0.03248964 -0.01557453  0.02515649  0.03215286 -0.00620414
 -0.12057192 -0.02917188  0.07440497 -0.00934855  0.09501738 -0.03446379
 -0.00341533 -0.08827278  0.01176824 -0.01914391 -0.05394356  0.08446252
 -0.02751743  0.00751352 -0.00616754  0.02718094  0.00368831  0.06941293
  0.08409788 -0.01421538 -0.04269297  0.02762636 -0.05255795  0.11995918
 -0.05570059 -0.03273878  0.02612499 -0.01486059  0.06442723 -0.1206171
  0.03969448  0.08638579  0.08787113 -0.00833553 -0.06353083 -0.07956127
 -0.02190911  0.0090921   0.01065272  0.01600718  0.06641966  0.12660648
 -0.02984295  0.0263146  -0.03557346  0.01100073  0.03513266  0.03288148
 -0.04785394  0.07084878 -0.05771944  0.02034641  0.01053861 -0.03513211
  0.08576201 -0.00276755 -0.00027028  0.00282056  0.05163623 -0.02484883
  0.03509376 -0.13359232 -0.04670883  0.01481494  0.06856358  0.01937418
 -0.04861718  0.00788212  0.04435857 -0.03663841  0.07050928 -0.06383626
 -0.05887637  0.05155197  0.00239099  0.01962759  0.02521449  0.03518964
  0.01345818  0.04636612  0.0012058  -0.05415065 -0.01830883 -0.05890749
  0.00368223 -0.02464826 -0.00601562  0.00659822  0.0075409   0.07548264
  0.04713812 -0.03832705 -0.05817499  0.05934774  0.03975367  0.0089144
  0.08305642  0.01701742  0.04785242 -0.06651592 -0.00491481 -0.00604673
  0.01722807  0.01058615 -0.05065796 -0.03632147 -0.04905359  0.01870389
  0.06262662 -0.02240775  0.05548066 -0.04711253 -0.07710543 -0.04379045
  0.03277174 -0.09536323  0.00221412  0.04733662  0.03587133 -0.12206779
  0.00425072  0.04209007  0.02476238  0.00140537 -0.01592883  0.00019337
  0.02633932 -0.02048103 -0.00500275 -0.03452842  0.00064091 -0.04730083
 -0.05104907  0.0412964  -0.06249091 -0.03242118 -0.05891122 -0.0028942
 -0.00604846  0.01049682 -0.02851849  0.04387223 -0.01080941 -0.00986112
 -0.07901554 -0.04566562  0.01747553 -0.02590202 -0.00792979  0.04037944
 -0.06445783  0.10022947  0.10278334  0.02518045  0.05761628  0.03522026
 -0.01377585  0.06251147  0.03871833  0.09676053 -0.05772237 -0.02484412]
[-0.12819818  0.02522573  0.02739185 -0.00218934 -0.01434114 -0.09423438
  0.10986704  0.02546294  0.01415822 -0.09628273 -0.00525024 -0.02801753
  0.03575494  0.05640089  0.06358548 -0.03683231  0.02469254  0.03886847
  0.10277642  0.01338583  0.07463568 -0.04190596  0.02512914  0.0041103
  0.03979521  0.01139939  0.01574585  0.01620737  0.02617822 -0.00057715
 -0.0637587  -0.00019049 -0.00534664 -0.05326586  0.02512626 -0.00870917
 -0.04037428  0.05649411  0.05312681 -0.10436537 -0.03509248 -0.08360089
 -0.11244748  0.04829889  0.03841433  0.00758047  0.01546743  0.0285109
 -0.10750367 -0.0107744  -0.04090281  0.04280314  0.04525896 -0.0888904
  0.11103276 -0.05230444  0.01556219  0.07869516 -0.03834011 -0.0146436
 -0.01712964  0.03721397  0.10655293 -0.04903382  0.04555928  0.10840179
 -0.03705591 -0.02651321 -0.00100871  0.04138875 -0.05178972  0.00166446
 -0.04692138  0.04008506 -0.01161286  0.115091    0.09361018 -0.01607949
 -0.05234466  0.08591567  0.08112158 -0.00885252  0.03111154  0.06179459
  0.0684872  -0.00239051 -0.0639869  -0.05211671  0.09759058  0.05815651
 -0.06472674 -0.05756423 -0.01587954  0.01192695  0.10417674 -0.02533714
 -0.04551035  0.07150858 -0.02169435 -0.05642061  0.0762564   0.05138322
 -0.01505462  0.06882457  0.07004259  0.13621758  0.00039362  0.03682627
 -0.00378672  0.06012167 -0.02927767 -0.0317937  -0.05686435  0.08124642
 -0.01245059  0.06311178  0.01976394  0.02386348 -0.08129238  0.09698736
 -0.03218037  0.08366176 -0.03812495 -0.05532109 -0.06283017 -0.04467865
  0.03413723 -0.02629413  0.03835601 -0.10509781 -0.14882407  0.0472183
 -0.03168124  0.02067205 -0.03475035  0.0783408  -0.06405944 -0.00166157
 -0.04402251  0.03932205 -0.01914852 -0.02106917  0.01482219 -0.02179418
 -0.00454788  0.02197501 -0.00467912  0.02221138  0.06880771  0.02191181
 -0.09309306 -0.03590855 -0.04307832  0.08657706  0.00655617  0.04313153
  0.02179522 -0.00845924 -0.03269944  0.06973216  0.01234632 -0.00368235
 -0.08385837 -0.00846613 -0.01071145 -0.05507267 -0.02537151  0.05549493
 -0.01431754  0.09206598  0.06438076  0.07620697  0.00736867  0.00271582
 -0.01103154  0.03631237 -0.06347227 -0.03646555  0.00180883 -0.09833191
 -0.01978556 -0.08394513 -0.04667195 -0.0449135   0.07388443 -0.04988214
 -0.04133574 -0.08259421 -0.06050508 -0.00321303  0.05217755  0.00092616
  0.01990192  0.07415163  0.08665121  0.05501422  0.02911993  0.01230203
 -0.06494585  0.03465784  0.08464812  0.0604848   0.0555668   0.02280294
  0.01251253  0.07027121 -0.02805216  0.10714233  0.07036516  0.05976542
  0.06766135 -0.04641987 -0.00384522  0.00359674 -0.03811163 -0.00516459
 -0.05060309  0.02086793 -0.05820865  0.00191077  0.07220706  0.02887587
  0.03324221  0.03608892  0.00268534  0.0271215  -0.07223414  0.019507
  0.0953948   0.04338496 -0.07211786 -0.02733025 -0.04423235 -0.0328478 ]
[-6.77925572e-02 -2.60149874e-02 -3.19527164e-02 -9.27707553e-02
  2.89664734e-02  2.63242684e-02 -3.93782295e-02  6.33278042e-02
 -5.98428696e-02 -7.15207122e-03  3.45319486e-03 -5.36756963e-02
  2.62433682e-02  4.71169734e-03  9.63230385e-04 -1.66037250e-02
  6.73861206e-02 -2.47711819e-02  4.25636284e-02  1.97002292e-02
 -5.55474982e-02 -1.74262989e-02 -3.05388942e-02 -5.01091499e-03
  1.81709751e-02 -4.43884395e-02 -4.56062332e-02 -1.12577163e-01
  1.45583134e-02  7.34181255e-02  3.84340063e-02  5.21307206e-03
  1.11830467e-02 -8.54141712e-02  2.04184670e-02 -1.56671889e-02
  4.21842895e-02  2.81053851e-03 -1.89299956e-02 -5.24156280e-02
 -3.69015783e-02  1.26063656e-02 -2.97064036e-02  1.09371714e-01
 -1.16298655e-02 -2.62180436e-02 -8.77438951e-03 -4.92894091e-03
 -2.42319722e-02  6.45384863e-02 -2.06807181e-02  1.05079062e-01
  7.18017519e-02  3.67447063e-02  5.71537577e-02 -7.07054883e-02
  1.49616525e-02  3.85509469e-02  2.04802379e-02  2.37880964e-02
  1.03981249e-01  3.49089094e-02  3.02115399e-02 -1.15438808e-04
 -1.24727739e-02 -5.24752811e-02 -2.77982205e-02 -9.57488082e-03
  2.27833558e-02 -1.43845826e-02  1.72197577e-02 -4.97818459e-03
  2.40482278e-02 -4.11478952e-02 -3.51234674e-02  1.56978872e-02
 -3.52260880e-02  3.37069780e-02 -5.53234331e-02  1.00232875e-02
 -2.26701144e-02  5.30104712e-02  4.20165695e-02 -3.73368040e-02
  8.58614892e-02  5.52993640e-02 -3.62829268e-02  2.60661989e-02
 -9.17560700e-03 -6.17490783e-02  7.33563444e-03 -2.28923280e-02
  3.85865346e-02  4.87751886e-02  7.71426633e-02  5.45977335e-03
 -3.95909585e-02 -4.46777008e-02 -6.73606992e-02 -6.04131296e-02
  4.91032600e-02 -2.02558320e-02  5.62792011e-02 -1.96111780e-02
 -9.00406167e-02  2.99308952e-02 -5.49033955e-02  1.31925836e-01
 -1.83844417e-02 -2.61828434e-02 -1.37895141e-02  1.14922047e-01
 -8.96345302e-02 -3.95377390e-02 -2.05962453e-02 -1.40903993e-02
  5.54633443e-04 -1.40164858e-02  1.01972602e-01  6.97317421e-02
  7.06829829e-03  4.86887246e-02 -3.59145515e-02  7.80907944e-02
  3.74087840e-02  1.48207147e-03 -5.30503988e-02 -5.09918965e-02
 -1.90010965e-02 -1.73776038e-02  5.87036414e-03  1.65446308e-02
  3.22013088e-02 -1.05738332e-02  1.09835558e-01 -3.66336703e-02
  1.74990110e-02  5.54524139e-02 -3.03774253e-02  6.70908689e-02
  3.29332463e-02 -9.68608726e-03 -3.95562313e-02 -6.93165660e-02
  1.00460723e-02 -4.14987914e-02 -1.47101998e-01  3.85590419e-02
  3.38995606e-02 -5.23067452e-02 -8.71325471e-03  4.68699373e-02
 -7.80513510e-04  2.29512043e-02  2.52682902e-02 -2.97411401e-02
  3.60053661e-03  4.27965745e-02 -7.69702718e-02  1.48557196e-03
 -2.19799671e-02 -2.06805114e-02  1.89121459e-02  1.67132989e-02
  6.37056231e-02  6.85157627e-02  6.19499246e-03 -3.43369134e-03
  1.97541509e-02 -3.29914279e-02  2.07868814e-02  8.72573853e-02
  6.79825023e-02 -5.91415167e-02  6.53353482e-02  8.50026608e-02
  4.69275005e-02  3.32986452e-02 -4.30222088e-03 -4.35732752e-02
 -2.48974226e-02 -3.60829681e-02 -6.92185163e-02  5.07296063e-02
  4.75960188e-02 -3.28214802e-02  4.43162657e-02 -6.10218905e-02
 -5.86305857e-02 -6.53110724e-03  5.87106533e-02  6.69759959e-02
 -2.90943985e-03  8.88782833e-03  3.28125991e-02 -3.01003233e-02
 -3.50370482e-02 -1.06471017e-01  8.12161434e-03  3.11732367e-02
  8.58724117e-02  6.14167079e-02  2.35509668e-02 -1.81606412e-02
  6.78021088e-03  2.53933929e-02 -1.40573140e-02 -1.19691305e-01
  2.12716740e-02  1.12723848e-02  1.85545366e-02 -6.54217275e-03
 -5.38129807e-02 -1.08405552e-03  3.85502763e-02  5.08714188e-03
  1.00103663e-02  6.72323257e-02 -3.09680291e-02  2.05727331e-02
  4.48140055e-02  3.30436453e-02 -5.46782501e-02 -2.79350113e-02
  6.08362295e-02 -3.17471772e-02  3.52572650e-02 -5.86819649e-02
  1.54981446e-02 -5.73572405e-02 -6.53807223e-02 -3.45348865e-02
 -3.21591552e-03 -1.07952328e-02]
[ 0.0307314   0.09004522  0.04694309  0.02990206  0.0578213   0.04927432
  0.07144271  0.06331591  0.01488129  0.05202802 -0.03069803 -0.00805286
 -0.00126651  0.00580409 -0.01320994 -0.00546209  0.04845944 -0.04641102
 -0.01469679 -0.05122633 -0.00947972  0.03327351  0.11256347  0.06995878
  0.07569233  0.01207418  0.04018758 -0.05202049 -0.00932415  0.1235176
  0.02630551 -0.15212357  0.06042131  0.01053085  0.00442518  0.00868945
 -0.03139957 -0.00803139 -0.06291844  0.01364884  0.06033168 -0.03626286
 -0.02563266 -0.05746784  0.03112002  0.02236134  0.0434519  -0.00874559
  0.07098415 -0.02800781 -0.04381661  0.05089735  0.03637782 -0.04473813
 -0.01944192 -0.06226456 -0.02281575  0.00074356  0.05045035 -0.02839261
 -0.04072237 -0.02627459  0.00321767  0.02025639 -0.06569893 -0.03997167
 -0.01380153  0.04204664 -0.00093101 -0.11479688 -0.03516177  0.05443525
  0.07310965 -0.00563916 -0.04279137  0.04608678 -0.04585039 -0.07981789
 -0.03219747  0.15778649 -0.00929251 -0.00447632  0.08837061  0.01819302
 -0.01447937 -0.01459564 -0.04515212 -0.11627253 -0.05922237  0.04705152
 -0.037057    0.00500669  0.00137168  0.00096562 -0.03183728  0.01011175
  0.04980184  0.03246334  0.06190898  0.10615817 -0.01672194 -0.05645314
  0.06575818  0.00713677  0.09526136 -0.02645869 -0.01037515 -0.01276683
  0.03664955 -0.05351158 -0.07598019  0.07070746  0.05231326  0.01967416
  0.03840347 -0.04599741  0.02802175 -0.06356361  0.08400407  0.01676359
  0.12765539 -0.01618638 -0.01611001 -0.01238188 -0.0583685  -0.00281444
  0.08887324 -0.0036437  -0.02236268 -0.01596906  0.00417631 -0.02567228
 -0.01155114 -0.0343353   0.00546383  0.02744539 -0.03394955  0.00232643
  0.05110478 -0.06014043  0.00445281  0.00363762  0.03767568 -0.03580929
  0.01919493 -0.01984108 -0.06944574  0.02417638  0.00867002 -0.00135655
 -0.05523235 -0.15793926  0.07393367  0.0048568   0.07821178  0.03097803
  0.02309287 -0.04357889  0.0147493  -0.05367089 -0.05996185 -0.01571895
 -0.04411846  0.00126496 -0.0139669   0.02391203 -0.00499727  0.05512912
 -0.01969351  0.0585436   0.0143483  -0.00540363 -0.02916879  0.00233217
 -0.03921945  0.08123329  0.018575    0.06808957 -0.00130383 -0.0199427
 -0.09068129  0.02560672  0.05216901  0.01454581  0.0124163  -0.01061299
  0.04808143  0.02267054  0.01548519  0.05520843  0.00446951  0.02746624
 -0.0155874  -0.01168458  0.00267727 -0.03964178  0.03273407  0.01025814
 -0.08135373  0.03793359  0.02683863  0.08689596  0.03516244  0.05523365
  0.02114492 -0.01591223  0.02872753 -0.02328805 -0.06876993 -0.01176216
  0.02333378  0.06068475 -0.01283658  0.0280841   0.02941664 -0.00726685
 -0.01263418 -0.04830213  0.01132406 -0.02991451 -0.05428128  0.01065534
 -0.07188491 -0.02869827 -0.01092615  0.04772194  0.02771293  0.01076541
 -0.00265492 -0.02909749 -0.03722708  0.05771969  0.02340744 -0.00461587]
[ 2.84914840e-02 -2.22972054e-02 -2.68797763e-02  4.41721417e-02
  7.76836043e-03 -1.17404340e-02 -5.40346950e-02 -4.12141792e-02
 -8.49945471e-03  1.75720435e-02 -7.89193716e-03 -6.79731295e-02
  4.84598726e-02 -2.71786265e-02 -9.08373967e-02  1.04443900e-01
  1.56580899e-02  4.61782813e-02 -2.80752592e-02 -1.29459630e-04
 -4.69789207e-02 -2.89870426e-02 -1.15395397e-01  3.40567529e-02
 -4.31695655e-02 -5.89714907e-02  5.94405225e-04  1.75014623e-02
  3.95853445e-02 -5.02292905e-03  6.26961887e-02  4.67518233e-02
 -6.36144057e-02 -1.38306431e-03 -4.18658182e-02 -4.01871204e-02
  7.87874218e-03  7.50092790e-02  4.99395393e-02 -5.02201682e-03
  7.85877854e-02 -4.32018153e-02  6.40842095e-02  1.72498040e-02
 -1.56343415e-01  1.47312917e-02 -2.00679526e-02 -4.18960899e-02
 -2.24399567e-02 -2.83538308e-02  7.69411549e-02  6.98278919e-02
  2.82770582e-03  4.33214791e-02 -5.49051650e-02 -2.01115180e-02
  4.04931642e-02  2.88346745e-02 -8.18527415e-02 -1.07602356e-02
  1.27448691e-02 -1.37125198e-02 -4.46523093e-02 -5.89951165e-02
  2.22703791e-03  4.42928337e-02  1.10036489e-02 -8.28288123e-02
  2.48046238e-02 -5.25215268e-02 -1.14444895e-02 -1.87331252e-02
  2.88328081e-02  6.20982833e-02 -7.87161514e-02  5.54314479e-02
 -1.91274378e-03  4.54414599e-02 -1.54224355e-02 -5.05504906e-02
 -5.25421500e-02 -4.80000004e-02 -2.96351798e-02 -7.55043179e-02
 -4.38487381e-02 -6.56361580e-02  6.60532936e-02 -6.79212436e-02
  7.28727132e-02  2.60982830e-02 -5.35553060e-02 -5.88571019e-02
 -4.86661345e-02  1.08191492e-02  7.16835260e-02  5.66996308e-03
 -4.77342978e-02 -3.02261878e-02 -4.31708582e-02 -4.32276279e-02
  2.51879320e-02  6.94422200e-02  2.82875798e-03  4.15096479e-03
  3.33981663e-02  4.69746105e-02 -1.91515144e-02  7.57650509e-02
 -5.69785479e-03  9.65961069e-02 -4.63420823e-02  1.98988877e-02
 -1.90657601e-02 -1.44051626e-01 -4.49443646e-02  6.74144272e-03
 -7.77162090e-02 -1.68098640e-02 -5.28362766e-03  3.00538875e-02
 -9.78925377e-02  1.37578025e-02  3.56109962e-02 -4.56914902e-02
 -5.32489233e-02  2.85590254e-02  6.85605258e-02 -4.49429937e-02
 -1.15109300e-02  7.11955875e-02 -1.12125361e-02 -1.37172053e-02
 -7.72893103e-03  2.36180201e-02 -2.69436091e-03 -2.18899790e-02
  2.66892500e-02  4.31577973e-02 -2.49073710e-02  7.26181045e-02
 -4.91143949e-02 -3.50404792e-02 -4.37361933e-02 -3.01385075e-02
 -7.30748847e-02 -1.57370623e-02  1.10692352e-01  9.07629505e-02
  9.11524985e-03  4.69829934e-03  5.76975606e-02 -6.84050992e-02
 -9.37490761e-02  8.38637203e-02  4.36202548e-02 -1.35830268e-02
  2.30812803e-02 -1.38928527e-02  4.07940568e-03 -6.73439205e-02
 -3.15996520e-02 -6.78352779e-03  2.03261860e-02 -1.02949440e-02
  6.86128438e-02  1.53477993e-02 -1.20003261e-02 -3.80098484e-02
  5.82259595e-02  5.69301397e-02  3.56471799e-02  5.37420399e-02
  1.61894895e-02  5.97516657e-04  5.53681143e-02  8.14150125e-02
 -3.19491029e-02 -3.78916748e-02  5.52236103e-02 -7.59177580e-02
 -3.94109860e-02 -4.21538390e-02  2.55190097e-02  3.50547731e-02
  1.12001435e-04  1.28473956e-02  6.37888014e-02 -3.78796309e-02
