layers 13
layer 0 Dense
4 222
[-5.02842218e-02 -1.48785049e-02 -2.99932361e-02  1.27837956e-01
  1.42413350e-02  5.02697118e-02  3.34115289e-02  2.02117525e-02
 -1.12816840e-01  6.00490533e-02  4.21448462e-02 -1.57727338e-02
  6.65978119e-02  8.15979838e-02 -4.96370392e-03  4.02782038e-02
  8.32544491e-02 -3.99422571e-02 -3.51038873e-02  1.53529542e-02
  6.64427876e-02 -3.65323573e-02 -2.86793690e-02 -8.32815319e-02
  4.22448553e-02 -7.40841031e-02  3.93540747e-02  4.11185361e-02
  3.83744799e-02  2.91699432e-02 -2.82874834e-02 -1.08714411e-02
 -8.94947425e-02 -9.19927582e-02 -5.91520742e-02  9.42763239e-02
  3.33298184e-02  9.99420658e-02 -4.07004468e-02  2.60285921e-02
 -7.08197653e-02  1.34982252e-02 -2.89309565e-02  7.96578154e-02
 -2.90793087e-03 -5.60916699e-02 -1.49129955e-02  3.43395919e-02
  3.92052494e-02 -4.57504690e-02  2.22248826e-02  9.70853958e-03
  9.96428076e-03 -1.18181920e-02 -7.41949305e-02  1.90490298e-02
 -1.75073650e-02  2.70802006e-02  1.12200156e-02  7.87711218e-02
 -2.74335820e-04  5.21669239e-02 -1.27770696e-02  4.03696299e-02
 -9.71060842e-02 -6.81510568e-02 -8.16501826e-02 -8.92459303e-02
 -8.06067213e-02  1.40777975e-01  1.25660151e-02  3.30024050e-03
 -1.68178976e-02 -1.15524763e-02  8.15820619e-02 -8.73509943e-02
  3.48513313e-02 -1.72330346e-02  7.97943324e-02  2.08334364e-02
 -8.19052309e-02 -8.76928195e-02 -3.10938293e-03  3.79372574e-02
  1.40357260e-02  8.21462721e-02 -1.32518902e-01 -3.47777605e-02
 -3.21264677e-02  8.91284868e-02 -3.95714715e-02  2.56207641e-02
  1.81534961e-02 -7.34174764e-03 -1.13609649e-01 -1.68162100e-02
  8.16412792e-02 -8.34261179e-02 -1.18666112e-01 -2.61784066e-03
 -4.30978388e-02  5.80434315e-02 -1.04411274e-01  1.97516498e-03
 -4.66020629e-02  6.35943636e-02  4.45738882e-02  7.32120797e-02
 -9.97854769e-03  5.37168607e-02 -6.61149435e-03 -1.59759410e-02
  3.23783373e-03 -6.75308332e-02 -1.23235947e-02  6.32321984e-02
 -7.80587457e-03 -2.57617066e-04  3.06381658e-02 -1.02031068e-03
  2.04433631e-02  1.36675686e-01 -6.92458153e-02 -8.30978230e-02
  5.04362546e-02 -4.32413481e-02  7.20503256e-02 -3.64302360e-02
 -1.14373274e-01  9.73819941e-03  1.67243451e-01 -2.27669929e-03
  2.02653930e-02  3.95582523e-03 -7.64435381e-02 -1.09868217e-03
 -2.37514563e-02 -1.96903455e-03  6.28443956e-02 -1.92244537e-02
  1.97701231e-01  1.87962875e-02 -1.12432666e-01 -8.41503218e-03
  1.87169053e-02 -1.30734742e-02  1.37038361e-02 -4.84844036e-02
 -8.22158381e-02 -1.96881458e-01 -1.40216518e-02  4.12514284e-02
  8.06125030e-02 -2.50530113e-02  3.71530689e-02 -2.04814449e-02
  4.08368520e-02 -1.81900561e-02  9.47884284e-03 -1.54470699e-02
  6.56922348e-03 -4.46391664e-02 -2.47324109e-02  1.28229003e-04
  5.73531501e-02 -5.09571023e-02  8.21737107e-03 -1.59704871e-02
  9.53974724e-02 -3.79998377e-03 -1.04720600e-01  2.19727922e-02
  9.68357846e-02 -5.69186285e-02 -5.04620466e-03  2.94956900e-02
 -4.58783656e-02 -1.07123911e-01  7.35903680e-02 -4.83782217e-03
 -6.51709437e-02  7.00911209e-02 -7.53673688e-02 -6.08299598e-02
  2.76733451e-02  2.88719963e-02  9.61280457e-05  5.59346490e-02
 -1.17705939e-02  1.14700869e-02 -1.19673619e-02  4.83392738e-03
  4.65152562e-02  7.00512528e-02 -2.34604385e-02  1.27762273e-01
  2.26303414e-02 -6.48944080e-02  6.57378659e-02 -4.17524092e-02
 -3.54924388e-02  6.61011264e-02  1.42879132e-02  1.02024481e-01
 -4.60129865e-02 -4.64189053e-02  2.93207131e-02  1.53721543e-02
 -1.24076195e-02  2.21933760e-02  2.20415518e-02  2.92183571e-02
 -9.83031690e-02 -1.22723483e-01  4.53558527e-02 -2.97445282e-02
  3.13480608e-02 -9.29308906e-02  3.77580076e-02  4.58739698e-02
  8.83057490e-02  5.84163666e-02]
[ 0.04416512 -0.03907789 -0.03616104 -0.07146027 -0.01640101 -0.01137772
 -0.05486005 -0.01610047  0.02227711 -0.02333143 -0.05812302 -0.01925308
 -0.00950443 -0.05018911  0.02010786  0.03539987 -0.07355241 -0.11880097
 -0.00067507  0.02018273  0.00785715 -0.03675482  0.03730778 -0.04360562
 -0.02834359 -0.03807507 -0.04783642 -0.09369691  0.06705173  0.09307942
  0.07543838 -0.02476746 -0.05036897 -0.14081334  0.05711797 -0.01380959
  0.06778607  0.07738345 -0.06559521  0.13343948 -0.00918896  0.00971006
  0.06391405  0.09181397 -0.01570946 -0.05323348 -0.04534483 -0.01981403
 -0.03011987  0.07572215  0.05519052  0.04268356  0.00588254  0.06670363
 -0.05310709 -0.05796746 -0.00481829 -0.07188461  0.07520813 -0.09708412
  0.12927815 -0.02313283 -0.04129501  0.00175547  0.01458976  0.13281032
  0.04911263 -0.06461698  0.07783058  0.00188975 -0.08160324  0.16102976
  0.00261285  0.08128647  0.0306396   0.001935    0.07307546  0.11424479
  0.02127199 -0.02235674  0.00087791 -0.01278823 -0.03817789 -0.05922071
 -0.04614304  0.0092216  -0.07720131 -0.04768739 -0.15684713  0.05949689
  0.02556212 -0.12035473 -0.12906374 -0.04336091  0.05364555 -0.00614883
 -0.00083993  0.01289743 -0.00581691 -0.00932035 -0.08180557 -0.05077243
  0.03965156  0.00818393  0.02661072 -0.03008945  0.01508777  0.09744374
 -0.02105566 -0.00195218  0.01601227  0.00502448  0.06114695 -0.00040971
 -0.0693263   0.0830569   0.05946049  0.09606087 -0.0911139  -0.08384361
 -0.05139662  0.04370444 -0.0810774  -0.01110963 -0.05219828  0.0301848
  0.0430677  -0.03853097  0.14839813  0.00600418  0.02905982 -0.01174494
 -0.03069766  0.00512634  0.01371391  0.01311638 -0.01836183 -0.06466998
  0.09222812  0.01309062  0.02766915  0.02977154 -0.0138728  -0.00318517
 -0.11468906  0.07321447 -0.00498671 -0.00964833 -0.06541492 -0.02517401
 -0.02652448 -0.04264442  0.01999388  0.02087758 -0.00200341 -0.07734612
  0.05693748 -0.03808729 -0.07970657 -0.04171446  0.08143114  0.1328403
 -0.06503008 -0.02450061  0.05268365  0.01975554 -0.13748246  0.01853867
 -0.02458789 -0.04798533 -0.00184846  0.02069589  0.03736395  0.12635547
 -0.08848233  0.11026899 -0.04994101 -0.06580932 -0.03327791  0.06398553
  0.02821607  0.01709251 -0.09273168  0.01715063  0.02732508 -0.05635345
 -0.09375919 -0.07779638 -0.033398   -0.05749391  0.05006327  0.02306772
  0.01448082  0.04412646  0.04009482 -0.05887417 -0.04272339  0.00297115
  0.20122844 -0.08387656  0.07705253  0.02168536 -0.04354214 -0.00415169
 -0.03607137 -0.00858001  0.0130759   0.05030115 -0.09384769  0.0230995
 -0.00684639 -0.04835374  0.00507438 -0.02245135 -0.00418121  0.22531013
 -0.0432945   0.00563281  0.01945182  0.12393078 -0.07308514 -0.01645546]
[ 2.45505534e-02  1.90218128e-02  3.79501581e-02 -9.16915573e-03
 -5.97307719e-02  2.70256586e-02 -3.23440507e-02 -5.87285720e-02
  3.11295465e-02 -5.01505621e-02  5.73761985e-02 -7.87559971e-02
 -1.04252947e-03  1.42889973e-02  5.52558973e-02  1.64792320e-04
  1.73318777e-02  3.96001637e-02 -3.89862396e-02 -6.09057434e-02
 -6.46443740e-02 -3.22074480e-02  7.19776377e-02  8.55408907e-02
 -9.71647736e-04 -4.53561395e-02  1.77006312e-02 -3.05264234e-03
 -1.69762485e-02  5.11984043e-02  7.30621209e-03  5.86663783e-02
  2.29494069e-02 -1.47468932e-02 -1.98234431e-02 -4.82824370e-02
  3.77269797e-02  1.29433814e-03  2.94367503e-03 -4.37273775e-05
 -3.73186395e-02  2.13881792e-03 -4.67449427e-03 -3.47191915e-02
  5.70872333e-03  4.64614704e-02 -1.52292578e-02 -4.48513180e-02
  1.13085531e-01  5.67106120e-02  1.49125373e-02 -3.28888148e-02
 -5.14089316e-02 -4.20269407e-02  8.75975471e-03 -4.02535386e-02
 -1.49809076e-02 -4.37096205e-05 -4.50229533e-02  3.33401375e-02
  5.16608395e-02  2.52975076e-02  2.71339715e-02 -1.22341111e-01
  8.38890113e-03 -2.32932288e-02  1.38176493e-02 -6.57846406e-02
  2.15869374e-03 -1.50230806e-03 -1.46626756e-02  6.93310212e-05
  8.42465609e-02  3.44464071e-02  7.90328085e-02 -4.34319153e-02
  7.43262097e-02 -6.09059408e-02  3.72809311e-03 -5.15754148e-02
  7.07764237e-04 -3.42770331e-02 -4.07876112e-02 -2.45765317e-02
  9.30715874e-02  6.06969036e-02  1.29821673e-02  1.26413081e-03
  1.65889245e-02  7.20812082e-02  1.66872256e-02 -6.18430488e-02
  4.64150275e-04 -3.46711054e-02  4.30822708e-02 -2.84722280e-02
 -9.65718403e-02 -1.80913433e-02 -1.22034037e-02 -8.99714902e-02
  5.04248701e-02 -7.58341923e-02 -4.63285260e-02 -4.75324551e-03
  2.08710544e-02  6.92524314e-02  3.38984467e-02 -9.91245080e-03
  5.03088869e-02 -7.20934127e-04 -3.59409824e-02  4.48191278e-02
  4.80817780e-02  1.02851307e-02  3.80427465e-02  3.07838060e-03
 -3.09231430e-02  1.08648362e-02  1.25377588e-02 -2.88903303e-02
  2.48033013e-02  1.08685838e-02 -4.03616345e-03 -1.09710312e-02
  3.51773389e-02  5.12780920e-02 -1.82179979e-03 -4.68936376e-02
  3.24048325e-02 -3.62371393e-02 -4.32265550e-02 -1.16473287e-02
  6.33785576e-02 -9.02662948e-02 -6.55168295e-02 -5.65509871e-02
  3.68143208e-02  2.80267447e-02  6.77284822e-02  3.10013425e-02
 -5.84441796e-02  4.48959023e-02 -1.52141005e-02 -9.04906020e-02
  5.83842322e-02  5.47257476e-02  4.34773080e-02 -8.50347951e-02
 -5.67452563e-03 -5.36750183e-02  4.05265577e-02  4.27835174e-02
  5.68587407e-02  1.35511532e-01 -4.54820432e-02  1.06434137e-01
 -2.75166263e-03  1.24620704e-03 -1.93634871e-02  3.00887730e-02
 -3.80457342e-02  4.49489895e-03 -1.59671518e-03 -2.01681089e-02
  4.77363653e-02  2.77549680e-02 -6.65604696e-02  1.70932226e-02
 -3.21605466e-02  1.76202245e-02  5.05582131e-02  6.15677088e-02
 -1.53990760e-02  4.47575673e-02  7.78224915e-02 -1.43019622e-03
  4.44794958e-03 -4.05732729e-02  3.58389616e-02 -3.32797249e-03
  2.60105804e-02  1.50462165e-02  7.62248738e-03  3.19741629e-02
 -1.24283604e-01  4.69572805e-02 -4.65072207e-02  4.37068156e-05
 -5.79469763e-02 -9.30719748e-02 -1.51654720e-01 -1.53590450e-02
 -1.44154252e-02 -5.28064836e-03 -3.53335030e-02  2.81961111e-04
  2.08884683e-02 -5.40524349e-02 -2.17976198e-02  2.37423740e-03
 -1.46749437e-01 -6.45541176e-02 -1.15193926e-01 -1.11968696e-01
 -3.66946012e-02  9.04347654e-03  1.11456826e-01  5.14385328e-02
 -1.69291999e-03  1.03713110e-01  3.68753523e-02  1.23541756e-03
 -6.79907668e-03 -5.32590710e-02  1.91036481e-02  1.43896171e-03
  4.69355844e-02  2.98770089e-02 -1.63047500e-02  8.98051858e-02
  9.44914371e-02 -3.37687060e-02]
[-2.63274964e-02  6.66807443e-02 -1.14733335e-02  3.81863825e-02
  7.30365440e-02  6.04483373e-02  7.27500394e-02 -1.18706234e-01
  1.54429562e-02 -4.79302965e-02  2.35868841e-02  2.17744913e-02
  2.57187225e-02 -4.42199744e-02 -3.54711968e-03  3.53417097e-04
  1.14662154e-02 -9.12820082e-03  1.91088766e-02  2.49480410e-03
 -3.51545773e-02  3.56730074e-02  1.44265676e-02 -6.03428157e-03
 -1.77326556e-02 -3.70721966e-02  5.04414029e-02 -1.90893393e-02
  3.76717299e-02  3.69483754e-02  1.25862345e-01  7.84399360e-02
  6.44855723e-02 -9.04450472e-03  6.07796870e-02  1.02968358e-01
  4.01469134e-02 -2.04797070e-02  2.71981978e-03  1.72366825e-04
  1.83496159e-02 -2.65489742e-02 -5.83662204e-02  8.04025531e-02
  1.20438924e-02 -4.07909192e-02  5.84934168e-02 -6.14713039e-03
  4.94542308e-02  1.71682313e-02 -7.71843717e-02 -1.04997933e-01
  2.73579843e-02  2.95859948e-02 -2.32619699e-02 -2.45652124e-02
 -8.71691480e-02  1.12467706e-05 -5.13248844e-03 -5.08311056e-02
 -1.55874630e-04 -6.88355509e-03  1.19330563e-01 -5.13974726e-02
  2.42945813e-02 -3.02868001e-02  5.18457070e-02 -4.23157290e-02
  8.23215814e-04 -3.02125365e-02 -6.43483782e-03  2.44809053e-04
  6.32138774e-02  3.47712031e-03 -1.64037254e-02 -2.36189403e-02
 -1.80239458e-05  5.49027771e-02 -9.40968283e-03 -2.03034300e-02
  8.90158815e-04 -1.17886972e-04  6.42588958e-02  9.69684869e-02
  1.92517210e-02  6.12140857e-02  6.37281686e-03 -3.67893185e-03
  2.99888644e-02  2.21679565e-02  2.60299314e-02 -4.89844382e-02
  3.50335315e-02 -1.39399981e-02  3.01609188e-03  3.02527864e-02
 -4.64142635e-02 -1.07901208e-02  6.69030994e-02  5.83662800e-02
  9.24155489e-03 -1.12488307e-02  1.76543836e-02 -6.12504259e-02
 -9.07501057e-02  5.33164963e-02  3.60690840e-02  4.82627265e-02
  9.88450199e-02 -6.35847747e-02  4.98644222e-05 -1.86473746e-02
  4.94343340e-02 -8.07515383e-02 -3.24100889e-02  1.66543876e-03
  5.11294939e-02 -4.17736620e-02  1.65401865e-02  4.92786244e-03
  9.64712631e-03  8.10138788e-03 -2.32596099e-02 -8.27287324e-03
 -2.90658772e-02 -1.02779955e-01 -4.08577034e-03  9.90369245e-02
 -7.01927987e-04  7.42439330e-02  3.23049165e-02 -4.67148349e-02
 -2.84735635e-02  1.26732476e-02  1.06020756e-01  2.03775018e-02
 -9.75034311e-02 -6.56874850e-02 -6.25882819e-02  7.93272108e-02
 -2.23746505e-02  6.50059581e-02  1.00551814e-01  2.30270661e-02
  1.21245161e-01 -3.08171958e-02  1.28030544e-02 -1.46788377e-02
  7.65739381e-02 -3.15209441e-02  8.75800150e-04  6.38105199e-02
  2.80470122e-02  3.39756198e-02 -6.74177930e-02 -5.12341876e-03
  7.96442106e-02 -4.28601727e-02 -1.04156129e-01 -7.78196752e-02
 -4.69043143e-02  9.34935641e-03 -9.26634239e-04  1.06047831e-01
  2.80942991e-02  4.83617894e-02  1.96453407e-02  5.99165596e-02
 -3.82374413e-03 -1.00979127e-03  1.82357002e-02  3.05077061e-02
 -1.30563518e-02  8.45915228e-02  1.46494107e-02 -5.57922712e-03
 -3.61725800e-02  1.02091804e-02  2.28928495e-02 -1.50487002e-03
 -1.31817892e-01 -6.38152584e-02  6.75611151e-03 -2.53245961e-02
  1.92637146e-02  7.31957257e-02 -2.39597689e-02  2.17448396e-05
 -3.20260250e-03  3.96014526e-02  1.36965979e-02  3.00244354e-02
  5.08404151e-02 -2.00362206e-02  2.28182562e-02  7.76919551e-05
 -1.03081688e-01 -5.50411418e-02 -5.44347577e-02  7.66152591e-02
 -3.44948284e-02 -1.28952349e-02  3.75103727e-02 -9.42408517e-02
  2.10390035e-02 -4.46775258e-02  1.18792318e-02  3.57135087e-02
 -9.29470174e-03  3.93430442e-02 -3.19033042e-02 -2.90601552e-02
 -2.24420638e-03 -3.25069390e-02 -4.84092794e-02  5.32807317e-04
 -1.78037416e-02 -1.21772122e-02  6.00026660e-02 -3.38849910e-02
  7.10722208e-02 -2.68158540e-02]
[ 9.81036574e-03 -3.39158834e-03  3.65797244e-03 -1.00767054e-02
  2.63475254e-02  6.51391316e-03 -1.07306326e-02  7.26313423e-03
 -2.43192608e-03  7.66354660e-03  8.64520727e-04  7.08982302e-03
 -7.95345660e-03 -9.90224909e-03  1.48912361e-02  4.22894396e-02
  2.89809462e-02  1.28110619e-02  1.17911333e-02 -3.59716080e-03
  2.17235205e-03 -2.66598780e-02  8.31472594e-03  1.27882026e-02
 -5.94077446e-03  9.78922355e-04 -1.72971617e-02 -7.26812112e-04
 -2.67444272e-02 -5.74541697e-03 -2.78152172e-02 -1.04169641e-02
  1.54336728e-02  4.58446937e-03  2.77604591e-02 -4.37629921e-03
 -1.76539645e-02  1.00122457e-02 -1.43753990e-04  5.31461276e-03
 -1.28991092e-02 -1.71502996e-02  6.18196151e-04 -8.32247548e-03
 -1.25080151e-02 -8.26624280e-04 -1.51928077e-02  1.62387956e-02
  8.31746776e-03 -1.46621224e-02 -1.40576754e-02 -1.10395234e-02
 -4.67954837e-02  1.81521866e-02 -1.03700231e-03 -5.58761996e-04
 -1.12070027e-03  1.62507575e-02  4.76401765e-03 -2.65301205e-03
  1.33734653e-02  2.36741733e-02  2.69426731e-03 -2.24714982e-03
 -2.02857982e-02 -3.00287595e-03 -1.25576295e-02 -1.22507000e-02
  3.87714274e-04  3.68228815e-02  4.51846346e-02 -2.06590053e-02
  3.76399420e-03 -2.71145697e-03 -2.72103678e-03  1.18645355e-02
  2.14103609e-02 -4.75005101e-04 -5.33256389e-04  2.39027720e-02
 -3.35129984e-02 -2.58863135e-03 -1.14596579e-02 -5.92136569e-03
 -9.89679527e-03 -1.63903944e-02  6.20561978e-03  1.20278820e-02
 -5.74051309e-03  1.37452120e-02 -4.84224409e-03 -1.84970233e-03
 -4.23910702e-03 -1.08161550e-02  7.54232379e-03 -1.69219566e-03
  1.33720273e-02 -7.99040124e-03 -1.57248178e-06  1.46261025e-02
  4.41109575e-03 -7.58784777e-03 -8.07368755e-03 -1.97939333e-02
 -2.03445069e-02  1.51375672e-02  9.45242681e-03 -6.46770466e-03
 -2.87559698e-03 -6.08560257e-03 -3.16290138e-03  7.31056649e-03
  4.79112193e-03  1.31096342e-03  1.60976667e-02 -1.19177755e-02
 -3.00207622e-02  1.21016325e-02  7.42396951e-05 -2.68052947e-02
 -3.44687980e-03 -2.25459542e-02 -8.39274097e-03 -1.56661328e-02
  6.40191429e-04  1.02223288e-02 -1.65736524e-03 -2.94487225e-04
  7.33487383e-02 -2.75975615e-02 -3.80520299e-02  2.25226767e-02
 -1.44730182e-02 -2.13079955e-02 -5.38235903e-03 -1.87424831e-02
  7.93731492e-03 -2.68391594e-02 -3.04657500e-03  1.88933909e-02
  8.98912549e-03 -1.03571834e-02  3.03701800e-03 -7.24095944e-03
 -1.04888715e-03  4.96777473e-03 -1.05215404e-02 -1.17260618e-02
 -8.29944015e-03 -6.01538736e-03  1.67739799e-03 -1.41677540e-02
  1.01701664e-02 -2.94346847e-02  1.76599734e-02  9.36129969e-03
 -3.63737904e-02 -1.49895819e-02  3.81311774e-03  3.74541199e-03
  2.82904366e-03 -1.96132474e-02 -6.67725923e-03 -1.87227819e-02
 -2.88191605e-02 -7.33794062e-04  1.70380231e-02 -6.49562990e-03
 -4.94966237e-03  1.63438395e-02 -2.13176403e-02 -1.45729911e-02
 -1.81064839e-04 -1.46535719e-02 -1.71226601e-03  4.79944237e-03
  1.10065304e-02 -1.04967225e-02  1.08417869e-02  6.19084854e-03
 -1.04751969e-02 -1.30420150e-02  9.46694892e-03 -9.12457518e-03
 -1.48408283e-02  2.20448640e-03  1.27634825e-02 -2.05124039e-02
 -1.73457619e-02  3.60382441e-03 -1.48943029e-02 -7.34391809e-03
 -1.78727917e-02 -4.90832003e-03  7.95538258e-03  7.86198955e-03
  6.54442585e-04  1.66803971e-02  2.20834333e-02 -1.90473236e-02
 -2.53577577e-03 -9.82572511e-03 -8.60922690e-03  1.45048909e-02
  3.57417692e-03  1.76713773e-04  1.09352905e-03 -9.20943683e-04
 -1.36936922e-03  1.34481946e-02 -1.32962568e-02  1.86754495e-03
 -1.83679983e-02  5.84957330e-03 -8.69177002e-03 -3.01970374e-02
 -2.18836265e-03  1.04534654e-02 -2.03830488e-02 -1.14239464e-02
 -3.02906930e-02  1.40817938e-02]
layer 1 Activation
relu
layer 2 Dense
222 222
[ 0.05485613 -0.04872481 -0.01581203  0.01630291 -0.00799779 -0.03592522
 -0.07031205  0.03785869 -0.06816666 -0.02137129  0.14761065  0.01138811
 -0.00248683  0.05202166  0.02725194  0.06136726 -0.02069533  0.04843935
 -0.07082499 -0.00126831  0.04789801 -0.02767229  0.05035526  0.06057801
 -0.00478702  0.00402914 -0.05019305 -0.03575329  0.00920777 -0.04025898
 -0.02035986  0.03620882  0.0061919   0.05049892  0.01134907  0.01599563
  0.05219872  0.03457103  0.03938454 -0.01853771  0.08620615  0.00287973
 -0.03504668  0.0935002  -0.04760211 -0.01958916 -0.01803235 -0.01379185
 -0.03772047 -0.02109703  0.01852786  0.03796621  0.01369069 -0.0238667
  0.0241843  -0.03915193  0.02040498 -0.06562389  0.03086166  0.04409011
  0.02683514  0.08657029 -0.0961588   0.1071361   0.08133966 -0.09802978
 -0.01011272 -0.05006792  0.02854395  0.05580764 -0.14737871  0.02212479
  0.00161648 -0.03763956  0.05600213  0.02660645 -0.02404947 -0.04549076
  0.09870618  0.02765714  0.0626709  -0.05970157 -0.02891644  0.04773582
  0.03082556 -0.00264101  0.0692491  -0.04724959 -0.11963623  0.06319952
  0.02771383 -0.01334654 -0.00019776 -0.01144098  0.08716375 -0.01771879
  0.02799659  0.06728847  0.01292187 -0.00048954 -0.06018981 -0.02209531
 -0.00247785 -0.02600845  0.01712574 -0.07118917  0.05483393 -0.00140976
 -0.06306342  0.00247934  0.06884199  0.02507848 -0.02315107 -0.01440696
  0.06636009 -0.0376214   0.07332522 -0.00755474 -0.01324413  0.11688311
  0.05235372  0.02457619  0.01464588 -0.07143946 -0.07367638 -0.03380247
  0.03129695 -0.02984112  0.01055463 -0.05856578 -0.02992663 -0.03803329
  0.0279334  -0.11478304 -0.03263412  0.05119468 -0.04287836 -0.00435447
 -0.02502528  0.00744299 -0.03685826  0.0365809   0.02816542 -0.01206032
 -0.03794657  0.05676638  0.06330933 -0.03117898 -0.04174263  0.01694036
 -0.02417816  0.00399695 -0.03099422 -0.00212094 -0.0462219   0.11697859
 -0.02026714 -0.07208204 -0.02243259 -0.04863293  0.03433977  0.00799474
  0.04754377  0.05418622 -0.07382867 -0.12477259 -0.05661907 -0.10407408
  0.02089616 -0.01241618  0.01085675  0.02819768 -0.035982   -0.02996404
 -0.09579565 -0.02722553 -0.02317407 -0.00856705 -0.06193402  0.04510592
  0.01533547 -0.05091332 -0.07648125 -0.06109875 -0.06492061 -0.01562289
 -0.05273985 -0.14685844  0.07716456 -0.06697206  0.05439975  0.02682387
 -0.03529865  0.0483684  -0.0380142  -0.02580205  0.12010927  0.04151475
  0.00693181  0.00513132 -0.01515862  0.06037766  0.03288592  0.07642037
  0.07375742 -0.05456031  0.05858645  0.00558765 -0.08053134 -0.01214908
 -0.01628058 -0.02834159 -0.00861361  0.01167439 -0.01592061 -0.01529096
 -0.05743767 -0.014934    0.06085684 -0.02816015  0.02122825 -0.06215174]
[ 0.01841632  0.04359525  0.02266022 -0.04709932  0.03601294  0.01022124
 -0.01060131  0.0065059   0.00590732  0.06189371 -0.0100519  -0.00741615
 -0.07601103  0.06709276 -0.02712559 -0.02873814 -0.08002011  0.04062853
  0.01850057  0.0453531  -0.04135214  0.02403525  0.0152758   0.01050352
  0.09537965 -0.05319533  0.05229367 -0.10394488 -0.04853556  0.07337575
  0.00474686 -0.03790507 -0.13377626  0.07255943 -0.12149735 -0.03725457
  0.00975992 -0.05227042  0.04460376  0.01070434  0.06547408 -0.05188513
  0.03075992 -0.00193059 -0.06112438 -0.01243601  0.00849394  0.04042563
 -0.00864234 -0.08265796 -0.03201308  0.11341462 -0.08996411 -0.02123004
 -0.03888378 -0.06700712 -0.00990834 -0.08597291  0.02378412 -0.01372723
  0.05921721  0.04663089  0.05010895  0.04419783  0.01364935  0.06724498
  0.14083648  0.03595094 -0.05098759 -0.00154223  0.02150184  0.03561725
 -0.06462505 -0.04535484  0.02506788  0.01047897  0.00148806 -0.06636505
 -0.01483123 -0.01153879  0.02345364  0.01105279  0.02918531  0.03931816
  0.06274295  0.00893897  0.074437   -0.04763907  0.04880045  0.00714148
 -0.13508306  0.01810256 -0.00410312  0.01343535  0.08725834 -0.0292454
  0.00296096 -0.05172175  0.01886219 -0.00551557 -0.11236847  0.01906108
 -0.02904493  0.0832558  -0.00946432 -0.0716773  -0.02607072  0.03423839
  0.06127209 -0.01652588  0.01182172 -0.16106822  0.04539077  0.05251288
  0.01624864 -0.01473384 -0.03765656  0.03208397 -0.036259   -0.02736395
  0.01907404  0.11343865 -0.11438207  0.00043205  0.03532828  0.02110568
 -0.02887    -0.02554584 -0.0450991  -0.04537148  0.05589281  0.04650804
  0.02200854 -0.02913709  0.07057815  0.01645089 -0.00770556  0.08914001
 -0.04931356  0.03057552  0.04885606  0.00576407  0.13677423  0.02775146
 -0.01557497 -0.02147356 -0.02557384 -0.03603666  0.00485745  0.04959058
  0.09345182 -0.00865755 -0.07745197 -0.02690236 -0.01252755 -0.04324231
 -0.01370516 -0.01062043  0.01586497  0.00443735  0.0517274   0.10054039
  0.05835501  0.06282312 -0.06147765 -0.04001187  0.00212264  0.02779547
  0.021057    0.02213862 -0.09325485 -0.08254085 -0.07486407  0.01238154
  0.12671395  0.01930833  0.01468562 -0.02442856 -0.00521114 -0.00761835
 -0.02827307 -0.02348507 -0.05610314 -0.01057685 -0.03128139 -0.02640724
 -0.06490775 -0.00754265 -0.01078753  0.03979868 -0.00177217 -0.02693091
  0.04062017  0.07807524  0.02962056  0.03613109  0.00671265 -0.05222197
  0.0219671   0.03643968 -0.01510515  0.03911152  0.02728062 -0.04586101
 -0.00444224 -0.01605037 -0.06199819 -0.02914045 -0.00491734 -0.10193974
 -0.04100304  0.03720854  0.04015565  0.04536645 -0.0327274  -0.022418
  0.02779325 -0.02354684  0.01550353 -0.04249958  0.0506279   0.04019556]
[-2.65508238e-02 -7.43929595e-02 -1.23192882e-03 -3.54202278e-02
  2.23034509e-02  2.88923420e-02 -5.66410720e-02 -8.58130027e-03
  3.42680961e-02 -1.65503733e-02  8.87196325e-03  6.66128471e-02
 -1.04566820e-01 -3.95074487e-02  4.42898311e-02 -2.90446519e-03
 -5.61934412e-02  7.38910064e-02  1.03500120e-01 -1.15244530e-01
  1.47357685e-02 -7.47819319e-02 -1.29986266e-02  4.87280898e-02
 -3.59194726e-02  7.27749467e-02 -4.84419577e-02  2.24654805e-02
 -1.18299603e-01  1.33921597e-02 -1.33155445e-02  6.70355782e-02
 -6.65564165e-02 -3.98073979e-02  1.61856599e-02 -1.89551769e-03
 -3.84722687e-02 -3.23902965e-02  1.01693086e-02  3.75962332e-02
  1.34336203e-02  4.20942809e-03 -4.12283000e-03 -9.61304456e-02
 -6.35232478e-02  1.86503120e-02  5.04994318e-02 -1.02149174e-01
  2.15613265e-02 -9.09700543e-02 -1.04277879e-02 -1.11697808e-01
 -6.73270226e-02  3.48102525e-02  3.00592594e-02  2.16155630e-02
 -8.27865954e-03  6.31108880e-02  5.57401106e-02 -6.43292889e-02
  8.30806270e-02  1.05991066e-02  4.76095192e-02  3.63083519e-02
  9.49206054e-02  1.19244754e-01  1.63677912e-02  4.32350338e-02
 -2.36849077e-02  3.24682742e-02  2.67786887e-02  5.55359982e-02
  8.41235276e-03  2.30206270e-02  5.81358336e-02  3.59316170e-02
  1.37863001e-02  5.94403110e-02 -1.28100123e-02  4.95512085e-03
 -4.76692524e-03 -6.90827668e-02 -3.96609232e-02 -1.44380014e-02
  7.87834451e-02 -1.77086536e-02 -5.05401846e-03  6.89357817e-02
 -3.14049199e-02  2.17772219e-02 -6.23141043e-02  3.02183237e-02
 -5.87680079e-02  3.99869494e-02 -2.96588410e-02  2.63921544e-02
 -3.36830467e-02 -5.53203598e-02 -1.87900348e-03 -5.84228449e-02
  2.16234103e-03  1.75839141e-02  5.44615872e-02 -3.68123725e-02
  5.67017980e-02 -1.07394546e-01 -4.60543334e-02  5.28369099e-02
 -1.95167325e-02  6.28670603e-02  6.11750502e-03  2.90046018e-02
 -1.00281373e-01 -3.65136974e-02 -7.14713484e-02  9.63590667e-02
 -8.21802244e-02 -3.78599465e-02  2.50263810e-02 -1.12841808e-04
 -4.70916554e-02 -3.41176949e-02  8.22030231e-02  2.73807179e-02
  6.02750257e-02 -7.48911276e-02 -8.16746354e-02  5.23265935e-02
  5.88809587e-02 -7.09745474e-03  1.42192813e-02 -2.58055609e-02
  5.14371023e-02 -4.43639094e-03 -9.33950022e-03 -7.74255469e-02
  2.49255020e-02 -3.27017829e-02  3.70752029e-02  8.06025602e-03
  6.39691874e-02  1.49033554e-02  5.51279560e-02  7.36783519e-02
  3.36277857e-02 -1.25222616e-02 -6.59503625e-04  7.77953938e-02
  4.74082306e-02  1.00741759e-01  4.01566131e-03 -1.51220132e-02
  4.76337746e-02  4.41139974e-02 -3.77295204e-02 -1.03447419e-02
 -1.12283658e-02  1.76853053e-02  8.07958841e-02 -8.84557515e-02
  1.80618782e-02 -3.61643620e-02 -1.12100004e-03  4.77172919e-02
 -2.38779709e-02  3.19419764e-02 -3.39447036e-02 -2.49403901e-02
  1.20336032e-02 -6.57901226e-04  4.76978496e-02 -7.04173073e-02
  7.75805339e-02 -7.07987547e-02 -3.42449509e-02 -3.99201438e-02
  1.11022023e-02  8.41833535e-04  8.78836215e-03 -5.03171720e-02
 -1.66961586e-03 -3.72298397e-02 -3.32356840e-02  3.06509081e-02
  5.41276671e-02 -2.58146394e-02  4.78473268e-02  6.62435917e-03
 -5.94820529e-02 -4.70841900e-02 -5.85851893e-02  5.95963560e-02
 -3.55769731e-02  1.91184804e-02 -9.30223465e-02 -1.71995088e-02
 -5.84289581e-02 -3.21295820e-02  4.62453626e-02 -1.52663011e-02
 -2.50037443e-02  4.22810912e-02  5.36529766e-03  4.87616891e-03
  2.93415878e-02 -5.53049566e-03 -8.28488767e-02  1.02235964e-02
 -8.79266590e-04  6.20669127e-02 -4.26453054e-02 -1.46001782e-02
 -4.04443070e-02 -5.63987903e-02 -1.01940548e-02  2.41096262e-02
  6.38289154e-02  5.10527231e-02  7.50347739e-04 -2.86709871e-02
  3.00133992e-02 -1.90681294e-02]
[ 0.01280846  0.00988485  0.07616323  0.03418279  0.00626483 -0.08833657
  0.04921936  0.06265453 -0.08865713  0.07355249 -0.0764179  -0.05029627
 -0.06012115  0.00146245 -0.04664442 -0.05580626  0.08029526 -0.03028927
 -0.06608386  0.01044563  0.02770585  0.02918191  0.10306349  0.03149221
  0.10276093  0.05451695 -0.00487125 -0.0229021  -0.01885407  0.01136926
 -0.01162477  0.03414244 -0.06427708  0.05185448 -0.01886583 -0.02834405
  0.01242702  0.04781443  0.02453199  0.05553244  0.06128718 -0.064515
 -0.09152809 -0.03271431 -0.01898467  0.07883684  0.04423004  0.01608582
 -0.0177983   0.05204676  0.02989752  0.02543512 -0.02711441 -0.01839427
 -0.03210809 -0.02149053 -0.0560201   0.00809881 -0.04198329  0.07296301
  0.00709987 -0.09640221 -0.05340893  0.07447691 -0.01024135 -0.06024995
  0.09372513 -0.0370293  -0.03575372  0.03036674  0.00133746  0.0204579
 -0.05030978 -0.08519381  0.06746989 -0.05736335 -0.02443828  0.0082993
 -0.02091985  0.02103759 -0.06947401 -0.01103642 -0.01780696  0.02125383
  0.1266545  -0.03967186 -0.01042536 -0.01725535  0.03376758  0.02790593
  0.08587823 -0.04417492  0.01372152 -0.02367746  0.05084711  0.03732331
 -0.04589411 -0.02651616 -0.01669553  0.02029642  0.00256254 -0.1075343
 -0.0737024   0.01320683 -0.05054979  0.09108644 -0.00332292  0.02436652
  0.02005343 -0.04458169  0.13471325  0.0386478   0.04570758 -0.04617506
  0.01706316  0.05244601  0.01213316  0.08910711 -0.06571106  0.06917893
  0.03583974  0.02630649  0.0211118  -0.01505059 -0.02685934 -0.07294358
  0.05670745  0.00937809 -0.00927112  0.13634141 -0.00211954 -0.11739253
  0.02365659  0.03913924 -0.04647769 -0.02203414 -0.03010832  0.03117775
 -0.00869137  0.04114378 -0.04894287  0.10137544  0.0607517   0.07956146
 -0.03548454  0.05783914  0.0124758   0.08744691 -0.04135368 -0.02714351
 -0.10929967  0.02449031  0.03750138 -0.00671308  0.00698914  0.04647192
 -0.05908706  0.06659593 -0.0463213  -0.09131103  0.01457116 -0.0437988
 -0.00790186 -0.06354394 -0.11272782 -0.05380909  0.05214575 -0.0413832
  0.04938326 -0.03882326  0.0613076   0.03884025 -0.04026511  0.03580586
  0.01348179 -0.04119699 -0.02677881  0.08727936  0.04842549  0.02515464
  0.03785384  0.00626237 -0.0540284   0.06810056 -0.01715328  0.0192078
  0.03048309  0.04784228  0.02634684 -0.00695768 -0.05978913  0.04422257
 -0.03271213  0.02951958  0.02397578  0.01939391  0.0329146   0.03553265
  0.02789831 -0.01000506  0.01641012  0.09439223 -0.10959309 -0.0161944
  0.01148081  0.00868267  0.02994368  0.11510853 -0.01329534  0.04395417
  0.09084184 -0.04917972 -0.0388688  -0.05543462  0.02986732  0.0106647
 -0.07964974 -0.03245577  0.02239782  0.06273118  0.09958248  0.02518353]
[-0.01177244  0.06794149 -0.10309102 -0.00802723 -0.0438963  -0.03202076
  0.03418267 -0.00392778  0.07718953  0.03205374 -0.05235924  0.07804468
  0.07646377  0.05264073 -0.00802673  0.02031269  0.04849868  0.0535621
 -0.01706622 -0.00602312  0.08132359  0.06202614 -0.02057568 -0.00891217
  0.0248272   0.08941762 -0.02370397 -0.07438083 -0.04636002  0.02497352
 -0.00762811  0.02775926  0.02103978  0.0580965   0.01641239  0.00810733
  0.00537791  0.00789347  0.00324667  0.04443682 -0.12027049  0.03480352
 -0.01000976  0.0394562  -0.04051454 -0.12304894 -0.13191496  0.13346913
 -0.05149887  0.05241635  0.01236679 -0.01411214 -0.00647516  0.08705192
  0.00930795  0.06641088 -0.06672298 -0.03602867 -0.03770973  0.01429955
  0.06420539 -0.02921333 -0.02222352  0.03663618 -0.00907761 -0.0385735
 -0.08810088  0.06294491 -0.03634758 -0.07079592 -0.01719052  0.07841008
  0.05655172  0.07364713  0.04324943  0.01442363 -0.01647114  0.02756576
  0.01588838  0.00873953  0.05854805 -0.0282966   0.06628718 -0.08166322
  0.13043693  0.01772945 -0.09082474  0.03070141 -0.0028728   0.04327069
  0.027974    0.05556526 -0.03538791 -0.05165866  0.00423183  0.02376732
  0.02596943 -0.03550626 -0.02641799 -0.06517223 -0.02265323 -0.02982134
  0.08486549  0.07020722 -0.05716154  0.00932306  0.02222527 -0.07106928
 -0.00249017  0.08406379 -0.05283567  0.08169419 -0.04558756  0.05304898
  0.02908313 -0.02798539 -0.0359943  -0.10476624 -0.0395611   0.00552641
  0.00924144  0.01147406 -0.0117416  -0.02139455 -0.00296744 -0.01386759
 -0.04312842 -0.00942476  0.02465078  0.00558837  0.02836214 -0.02705447
 -0.02286353  0.04284303  0.01501755  0.02831296  0.00492768  0.02985161
 -0.0785975   0.01233416 -0.00488304  0.01778372 -0.03392862  0.06495623
 -0.08431536  0.02498685  0.0008625  -0.07264807 -0.07084305  0.00318305
  0.00914342  0.0680569  -0.02302908  0.07619823 -0.04127603  0.0507761
 -0.01454423  0.05209037 -0.00883596 -0.05665826  0.02886147  0.03678169
  0.04104676  0.00858888  0.02731614 -0.04538397 -0.06931464 -0.00543079
  0.04162443 -0.03818639  0.01645267 -0.05586384  0.06215332 -0.05477209
  0.0164951   0.01122267  0.05843057  0.08237468 -0.06228674  0.03402499
  0.02092225 -0.03335434 -0.00345031 -0.02119966  0.00178078  0.07929019
 -0.0213761  -0.0056015  -0.0207265   0.10559329 -0.11011696  0.04265388
 -0.00418529  0.00603624 -0.01799058  0.07897053  0.02678825  0.05208168
  0.1192705  -0.04556675  0.06690483 -0.07872331 -0.05111371  0.10565764
  0.03851928 -0.07458057  0.06055717  0.08856644  0.00586093 -0.06876935
 -0.02932864  0.02690583 -0.0106462   0.01606832  0.07772039  0.08120576
  0.01848059 -0.03812796 -0.01479988 -0.12064154 -0.04321429 -0.10707129]
[-0.09939353  0.02990204  0.06793329 -0.03707487  0.04056879  0.05202891
  0.07791158  0.02843164 -0.00575677  0.00084079  0.0088679  -0.00849545
  0.00165272  0.03686732  0.07017323 -0.03400972 -0.03779244 -0.05597367
  0.03207128 -0.10705364 -0.05857223 -0.02771387 -0.06377488  0.0657422
 -0.02506344  0.02999566 -0.09246711 -0.04153414  0.02700063 -0.02544623
  0.00426821 -0.03347288  0.07722508  0.06714038 -0.02797833 -0.12929086
  0.08841854  0.06599542  0.00414094  0.00607325  0.08808925 -0.09503538
  0.00680058  0.05354333  0.0518176  -0.0185807  -0.04208121  0.05231274
 -0.03523296  0.0104836   0.00726244 -0.03119365  0.10705386 -0.06435522
 -0.1179584   0.02921017 -0.07674183 -0.00194952  0.06175801 -0.05104135
 -0.02716392  0.01311852 -0.0145736  -0.02787797  0.05118941  0.01274077
  0.04098029 -0.06513479 -0.08013094 -0.0264293  -0.06313101 -0.00731486
  0.02063569 -0.04651475  0.01425958  0.06421149  0.00779042 -0.03680545
 -0.04078013  0.06015867  0.03470986 -0.04515075 -0.2038544   0.06442795
 -0.03470003  0.02372348 -0.01218103 -0.01285269 -0.07387982  0.00140058
  0.06028703 -0.03484924 -0.0015815   0.14176556 -0.10707549  0.02634453
  0.04851981 -0.02890979 -0.04073836  0.03973546  0.03998717  0.00215534
  0.00602946  0.00245449  0.01567958 -0.03314599 -0.01916897 -0.02310155
  0.081849   -0.0038942  -0.01267771  0.03715187 -0.03748656  0.09258391
  0.00259014  0.03974484 -0.07122294  0.00325995  0.06827959  0.01806629
 -0.04143329  0.00686608 -0.03951235 -0.03666783 -0.06059938  0.04111326
  0.05899392  0.03501384  0.04241008  0.02993345  0.07019705 -0.00317624
  0.02111789  0.01837874 -0.08061649  0.0535335   0.03553839 -0.02642039
 -0.12339088  0.02245815 -0.01133899  0.00089202 -0.10316597 -0.01910006
 -0.016615    0.07274358  0.02389765 -0.02186402 -0.07585276  0.07281949
  0.04456919  0.01514269 -0.13950573 -0.07709944  0.06661619 -0.05034855
 -0.05422355  0.04916209  0.02596528  0.08947576 -0.11300334  0.00868358
  0.02043264  0.00950085  0.01465056  0.10403759 -0.06818898  0.03062723
  0.02507466 -0.01988725 -0.00963814 -0.01821563 -0.02025185 -0.04419336
  0.02766958 -0.02524414 -0.01897434  0.0815402  -0.0779662   0.01272679
  0.00332075  0.04614281  0.05774561 -0.05462036 -0.00991018 -0.01623937
  0.06319389  0.04393458 -0.06545591 -0.00848749  0.0034191   0.04357706
  0.05197243 -0.00486383 -0.00511718 -0.01919983  0.04860762 -0.04943245
 -0.1120007  -0.0519821   0.00381079 -0.00538738  0.07848303 -0.06124106
 -0.06561441 -0.00485774 -0.03257722 -0.03224916  0.06082521 -0.07308156
  0.04921369 -0.04605901  0.03363763  0.04325093 -0.00180123 -0.0242303
  0.02131248  0.0330584  -0.0113159   0.08059845 -0.03058277 -0.00252879]
[ 0.06444831  0.04499407  0.03496676  0.02416896  0.04216898  0.0104324
  0.02513242 -0.01952642  0.01822486  0.05549866 -0.03671844 -0.01191483
  0.00291863 -0.00889428  0.03156467  0.06798694  0.00122226 -0.0282934
 -0.01776746  0.04156242  0.00213117 -0.00064577  0.022377    0.03285002
  0.06220357 -0.02190218 -0.10617688  0.06392599  0.01117251  0.07987194
 -0.05624546 -0.15081844 -0.05037672 -0.05274326  0.07807264  0.02684898
 -0.02720948 -0.01243298  0.0217797   0.02759746  0.05843378  0.0717259
  0.02679824 -0.01603674  0.07684919  0.01725679 -0.00837115  0.00929073
 -0.05920846  0.04060895  0.09790082 -0.00623025  0.02958279 -0.0997381
 -0.06316283  0.05283339  0.0263148  -0.0357977   0.05079326 -0.01507941
 -0.03827997 -0.03468686  0.01331706  0.07136287  0.03994752 -0.0458099
  0.1028076  -0.04002569 -0.03969091 -0.01780317  0.06988284 -0.09087347
 -0.00761891  0.00212276  0.02640785 -0.0294649  -0.03398338  0.03919136
  0.03635811 -0.08598667  0.07861521 -0.00190548 -0.00798492 -0.05141911
 -0.0015376   0.08824045 -0.03820559 -0.00580237  0.03736236  0.05827745
  0.05046256  0.1032925   0.01049699  0.04387092  0.05054992  0.00855107
 -0.0419103  -0.00505311 -0.06223672  0.01927723  0.01637949 -0.00118645
  0.01947978  0.01434714 -0.05227696 -0.04584853 -0.0745072  -0.00661667
  0.02316329 -0.00941771 -0.02515436 -0.03745069  0.01129911 -0.03656041
  0.01898671 -0.02567563 -0.01106487  0.0384243  -0.04408136 -0.05023208
  0.01811984  0.00559507 -0.03217051  0.04776078  0.04004595 -0.01852125
 -0.0829387  -0.00475319 -0.04205588  0.00298943  0.00399211  0.09010336
  0.06837562 -0.04764296  0.12917335  0.05746784  0.04669754  0.07888412
  0.02687205  0.0737733   0.0349258  -0.01463299 -0.07154124 -0.01600008
  0.04900953  0.03177768  0.07538395  0.0624665   0.05058866  0.02163658
 -0.02392933 -0.05659319  0.12476221 -0.01141844 -0.06260561 -0.02020735
  0.01229914 -0.04723679  0.07610535 -0.01538874  0.05177468  0.04715198
  0.09366387  0.0235285  -0.02745701  0.01738781 -0.0113631  -0.03032948
 -0.05089333 -0.04546484 -0.02236355 -0.03913268 -0.04736386 -0.06371623
  0.01055053  0.05534561 -0.03663658  0.05263913  0.0517246  -0.07903064
 -0.03133639 -0.05719299 -0.08331589 -0.03177444  0.06494516 -0.05892893
 -0.03114367 -0.01715921 -0.06003419  0.00264179 -0.02592382 -0.00664051
 -0.02089834  0.02087638 -0.06077167  0.04055669 -0.01776498 -0.0022371
 -0.06360275 -0.02470157  0.02158189 -0.0779194   0.01928728 -0.00219841
 -0.02481358  0.06835822 -0.08244702  0.03733014  0.04150717  0.02709483
  0.02021899  0.03571703  0.14849946 -0.0169598   0.04380846  0.03894341
  0.00464234  0.0317365  -0.03818144  0.01328212  0.04952555 -0.07581839]
[ 0.0298384  -0.0619223   0.00619171 -0.04473956  0.06900103 -0.10039756
  0.05780074  0.05918304 -0.05097032  0.0239608   0.05952001  0.00533641
  0.09700038 -0.01765688  0.0840614   0.07133859  0.07974878 -0.02466853
 -0.01681116  0.04387388 -0.02388693  0.03965783  0.01512847  0.02467948
  0.10767962 -0.05902402 -0.06047177  0.01907337 -0.0704541  -0.00398175
 -0.03854353 -0.02470773 -0.00716677  0.04644449  0.085947    0.07465115
  0.04410717  0.09521621  0.0145863   0.01768605 -0.02652958 -0.0019958
 -0.06244986  0.03019381 -0.00750586  0.058777    0.0519358   0.11146215
  0.09440769  0.03088525 -0.06809474  0.00062607  0.04966092 -0.04429204
 -0.11794983  0.04682466 -0.02410579 -0.05230849  0.06292018  0.00605163
 -0.00599397  0.055649   -0.06987499  0.08769514 -0.05284515 -0.004099
  0.05052427 -0.03925126  0.00607937 -0.06641407 -0.01417521  0.09713741
 -0.06232359  0.02131496 -0.01887791 -0.0080995   0.05572177  0.00941764
 -0.01723412  0.05339832  0.07826929 -0.01111173  0.03307912 -0.01581186
  0.05063889 -0.07827373 -0.09620292  0.02114015  0.09371018  0.01624154
 -0.03238154  0.04670886 -0.00024434 -0.05143938 -0.00351162 -0.06833447
 -0.05502692 -0.0740701   0.07517447  0.07500125  0.02309913  0.02645223
  0.04975346  0.08086707  0.01553122  0.04373246 -0.03707922 -0.00873637
 -0.01869897  0.04433487  0.07212671  0.0394601   0.02656684  0.01526089
  0.03774638 -0.0359953   0.07317784 -0.05268079  0.01662457 -0.06925548
  0.06251191 -0.09385362 -0.11513653  0.01242103 -0.06254423  0.02325585
  0.04608779 -0.00993566 -0.05593178 -0.1101687  -0.03971343 -0.08465525
 -0.01354869 -0.02210566 -0.11646786 -0.143901    0.03638764 -0.07273507
  0.10555653 -0.01612645  0.09035078  0.03111258 -0.05959601  0.04969724
  0.06923367  0.04070632 -0.07994754  0.02712066 -0.07500765  0.02242891
  0.08958172  0.04173331 -0.08695591  0.10392791  0.00700341 -0.02534735
  0.01932991  0.00997055  0.00372126  0.02811583 -0.04645027  0.01795412
 -0.10399877  0.02667927 -0.0355281  -0.01037686  0.06751205 -0.00205762
 -0.03988801 -0.01159538  0.03345917 -0.01651719  0.0678172   0.0104599
  0.02532817 -0.00598087  0.07208706  0.05053548 -0.01441107 -0.02007075
  0.00342362  0.00342611  0.03341494 -0.05250094 -0.01374616  0.03793152
 -0.02188187 -0.00752597 -0.06065689 -0.06893601 -0.01233955  0.03314542
  0.10989572 -0.03454924 -0.0631281   0.03420461 -0.06824806  0.03207355
 -0.03290948  0.06585451  0.0187479   0.14586595  0.00280584 -0.03956765
 -0.00765504  0.03900046  0.16481096  0.08932701  0.05233973 -0.03847984
  0.03029113 -0.05539617  0.01469638  0.00182978  0.08340309  0.00033428
  0.05139284  0.13786817 -0.04164644  0.01079261  0.03122072 -0.07022587]
[-0.06569291  0.01874197  0.00821301 -0.02745667  0.05333859 -0.05153605
 -0.1318307  -0.04042378  0.06864865  0.00727048  0.00602645  0.05915687
  0.04750802 -0.02677838  0.02143459 -0.03536299  0.01292793 -0.08593072
  0.03066713 -0.05158024  0.01668833  0.09053998 -0.05339973 -0.00252754
  0.02609948 -0.07606264  0.00463731  0.00947742 -0.01085473  0.04055965
  0.06411818  0.01598939 -0.07924517 -0.04939376  0.02893575 -0.08896048
 -0.08719405  0.13001741  0.00775117  0.0042945  -0.00920349  0.00555967
 -0.03689287 -0.03243447  0.06880502 -0.00987325 -0.01041752  0.05136858
 -0.01182518 -0.00145909  0.01935289 -0.02011097 -0.01748972 -0.0584211
 -0.02150798 -0.072514    0.06030513 -0.02741253  0.04742575  0.00034591
  0.08097234  0.01932014 -0.01465364 -0.0580745   0.0152233  -0.0070122
  0.00136681 -0.08033925  0.0077068   0.06772333 -0.02943067 -0.00039849
  0.01991353  0.02116571 -0.01774378  0.0103786   0.0164257  -0.00274438
  0.0563339   0.0856221   0.03720167  0.00584808 -0.04560642  0.04924494
 -0.00929889 -0.0463204   0.08157068  0.03951145  0.01686411  0.01502635
  0.15927143 -0.04018696 -0.00342099  0.02113757 -0.00819325 -0.05280046
 -0.04738739  0.06139887  0.11223657 -0.05408204  0.00605164 -0.05288203
 -0.01477525 -0.05580981 -0.00029599 -0.01898762  0.1136039  -0.00843871
  0.04187531  0.03694963  0.01145621  0.02740347  0.08227517  0.02000625
  0.05663256  0.07574376  0.04716899  0.04384676 -0.05134446  0.01761658
  0.13003442 -0.04144121  0.03781338 -0.01296827  0.01141317  0.02470336
 -0.04819376 -0.00658532 -0.01617234  0.00846186 -0.04230434 -0.09026359
  0.0611629   0.04693415  0.06062865 -0.02881199 -0.04376999  0.01804504
 -0.07059681  0.05620995  0.13814121  0.10137906  0.00776945 -0.01562651
  0.03082737  0.072572    0.01842849  0.00038719  0.05692006 -0.02442609
  0.00157942  0.05891167 -0.07561219  0.00203197  0.0320069   0.05233912
 -0.07318     0.02659452  0.01139844 -0.0670167   0.01746066  0.05334589
 -0.00136348 -0.00290366  0.04332326  0.02204696 -0.05005295  0.00705079
  0.03765919 -0.01633428 -0.04461802  0.1111104  -0.05170004  0.07715318
  0.03986928 -0.01893856  0.11854263  0.03800934  0.00622029 -0.03499579
  0.01663135 -0.0149376  -0.01535085  0.01693757  0.05035131 -0.01730838
 -0.02638936 -0.02341193 -0.01843706  0.01045449  0.06574433 -0.01817992
 -0.05843257 -0.02430333  0.01542269 -0.01202997  0.01760429 -0.10212709
  0.00657365  0.08381152 -0.0117091  -0.05415741 -0.03935429 -0.01213345
  0.11191061 -0.04923332  0.0254097   0.03979501 -0.04983746 -0.1096834
  0.02994547  0.05745356 -0.01293172  0.04705076  0.02729983 -0.04397731
  0.01339931 -0.04998706  0.02282682 -0.03857213 -0.00523127 -0.06069725]
[ 1.40072498e-03  3.01736291e-03  5.68666197e-02  3.45746279e-02
  4.07168902e-02 -2.11457498e-02 -4.75474959e-03  1.26500250e-04
 -1.45728394e-01  4.07136455e-02 -1.38348350e-02 -6.74512051e-03
  7.48926252e-02  3.09538152e-02  9.38761011e-02  7.96957910e-02
 -4.78730537e-02  1.55562684e-02 -5.49677163e-02  5.13356924e-02
  6.04716875e-02 -9.64982584e-02  1.17057815e-01  1.26127243e-01
 -1.84069257e-02  3.27672027e-02  1.00769445e-01  5.72883859e-02
  4.27980833e-02  5.23866474e-05  1.91871673e-02 -3.86286266e-02
  3.85867842e-02 -4.82505411e-02  7.86429737e-03 -9.28876996e-02
  4.63682860e-02  2.51963921e-03  8.38425085e-02 -5.97512387e-02
  1.41751505e-02 -2.60269362e-02  2.40434427e-02 -4.04918455e-02
 -9.18887481e-02  3.85683728e-04 -1.39324546e-01  4.53828163e-02
 -1.33662922e-02 -5.19504137e-02  8.38196129e-02 -1.05773009e-01
 -6.21238910e-02 -4.83113341e-02 -3.84854921e-03 -3.62895541e-02
  2.34395522e-03 -8.12307522e-02  3.78066674e-02  3.53332795e-02
 -9.25032436e-05 -1.46873482e-03 -1.45008350e-02  8.67501944e-02
 -2.28943694e-02 -6.87339483e-03 -7.81051023e-03  4.14809026e-02
 -7.50625953e-02 -1.08647816e-01 -5.60852978e-03 -8.33150744e-02
  2.51633693e-02  8.92952308e-02 -6.82028197e-03 -6.26793876e-02
 -6.52754726e-03 -2.40438413e-02  3.72603089e-02 -2.95125879e-03
 -4.74349111e-02  8.68255366e-03  2.42770594e-02 -6.37937039e-02
 -4.15477790e-02 -6.39842749e-02 -7.28797494e-03 -8.08549672e-02
 -7.26373727e-03  1.30903628e-02 -3.70976590e-02 -6.94888877e-04
  4.74679545e-02  2.34569404e-02  1.24048758e-02  3.74858268e-02
  1.32334605e-02 -1.94481586e-03  3.94514874e-02  3.59604210e-02
  1.21358968e-02 -1.06682912e-01  7.49667957e-02  4.51400988e-02
 -8.73440702e-04  5.03432639e-02 -5.48881218e-02 -1.06375165e-01
 -2.77968869e-03 -1.31403416e-01 -8.71280506e-02  7.10524395e-02
 -1.24333967e-02  7.28044957e-02  8.55247751e-02 -4.74859513e-02
  5.66957667e-02 -2.14123279e-02  4.66312096e-02  4.88274544e-03
 -1.22999541e-01 -1.30347356e-01 -1.58510972e-02  2.96485405e-02
 -1.67059135e-02 -7.99580142e-02 -4.09818813e-02  4.71201949e-02
  2.13938076e-02  1.86287723e-02  3.61256450e-02  3.60389473e-03
  3.71346511e-02  2.25501368e-03  5.91158755e-02 -3.03435940e-02
  6.30664453e-02  6.92403466e-02 -7.95446932e-02 -1.20901361e-01
 -9.21817205e-04 -5.92795052e-02  1.79780778e-02  7.53284469e-02
 -7.86183178e-02  6.52387068e-02 -2.06834432e-02  9.49274078e-02
 -3.96386497e-02 -3.46912779e-02 -5.60931955e-03 -4.92996313e-02
  4.28038649e-02 -6.81767687e-02 -6.95940224e-04 -4.02022824e-02
 -2.89469473e-02 -3.63581181e-02 -7.57438317e-02 -2.15759110e-02
 -7.18461201e-02 -3.03961989e-02  1.07833669e-02  1.79881342e-02
  8.97334795e-03  5.84030263e-02  4.94170114e-02 -5.62375113e-02
  2.51932312e-02 -3.85482647e-02 -2.65439637e-02 -6.02386333e-02
 -7.27298856e-02  4.85285893e-02  4.72083353e-02  3.72200366e-03
 -8.50108191e-02 -1.01885498e-02 -3.10765877e-02 -2.19249707e-02
  1.37164086e-01 -3.73930782e-02  9.91933420e-03  2.68301927e-02
 -1.69503074e-02  3.71233486e-02  3.12480684e-02 -3.74612794e-03
  6.67388290e-02 -4.23637368e-02  6.87558725e-02 -3.99281979e-02
  2.74823084e-02  2.64958460e-02 -1.07640838e-02 -1.02845125e-01
 -2.96068806e-02 -8.21145251e-03  7.37032220e-02  2.11715675e-03
 -8.92644227e-02 -1.16195828e-01 -8.55703186e-03 -4.56807427e-02
 -3.49983349e-02  6.29508644e-02  4.69015576e-02  4.91636470e-02
  2.99686044e-02 -2.21639462e-02  1.02766296e-02 -1.90362707e-02
  7.63204917e-02 -3.54562812e-02  5.62471896e-02 -4.57024388e-03
  7.80706480e-02 -2.91034393e-03 -2.35998258e-03  9.67230648e-03
  8.71859118e-03  1.11051416e-02]
[ 1.08485289e-01  2.74476334e-02  5.39393490e-03 -3.74140926e-02
  1.28077110e-02  4.66936380e-02  3.08893863e-02  5.12339659e-02
 -4.62297164e-02 -4.60281894e-02 -7.18763694e-02 -4.58890758e-03
 -8.06236863e-02 -8.47730339e-02  7.69660026e-02 -4.25917543e-02
 -5.61238341e-02 -1.00953178e-02 -4.39673383e-03 -6.52950034e-02
 -4.03190851e-02  2.85173822e-02 -1.02714010e-01 -1.31456489e-02
 -6.29134551e-02  2.95188986e-02 -2.03246865e-02  1.04604277e-03
  4.94584143e-02  4.48575169e-02  1.53265400e-02 -3.44242319e-03
 -7.83575699e-02 -1.27196349e-02  1.80694945e-02  4.82284389e-02
 -1.33201163e-02 -7.03102211e-03  1.49098411e-02 -7.08228769e-03
 -3.40863839e-02 -5.12204412e-03 -2.19441224e-02  4.10531573e-02
  6.16911054e-02  4.53374237e-02  1.03852883e-01 -8.77507403e-03
  2.57809069e-02  4.21805680e-02  4.01245728e-02  6.60391897e-02
  7.97187760e-02  3.57978195e-02  5.41348085e-02  2.30797827e-02
  3.14310715e-02  1.02068158e-02  8.93711075e-02 -1.16475157e-01
 -2.11006459e-02 -7.11709959e-03  2.16970616e-03  7.19857290e-02
 -5.33741415e-02  7.57303671e-04 -2.93822195e-02  2.15680879e-02
  2.29911562e-02  1.63644534e-02  3.20500471e-02  2.43321902e-05
  8.19168538e-02 -4.72792946e-02  1.16358064e-01 -7.27151632e-02
 -1.61611795e-01  4.88074943e-02  1.87682658e-02  1.93630848e-02
 -5.98419942e-02  1.73607972e-02  1.63502116e-02 -3.84045541e-02
  5.91263026e-02 -9.54536572e-02 -4.95729111e-02  4.60007880e-03
  4.76851091e-02 -1.82937889e-03  9.73006431e-03  1.48896361e-02
  8.36599395e-02 -1.86702423e-02 -9.96349454e-02 -4.50989977e-02
 -1.71000492e-02  2.20436193e-02  3.90087962e-02 -6.07298734e-03
 -4.10952382e-02  2.59940755e-02  3.63571122e-02  6.88814372e-03
 -4.22797240e-02 -6.60100058e-02 -5.78718819e-02 -1.36420950e-02
  7.15320334e-02 -3.83309908e-02 -1.02961518e-01 -3.11031807e-02
  2.67501604e-02  2.44383384e-02  4.13844623e-02  6.19752370e-02
 -2.27606744e-02  4.07446269e-03  2.28708563e-03 -3.45434844e-02
 -2.59151831e-02  1.10003669e-02  1.39530944e-02  4.53030430e-02
 -2.78939456e-02  5.57295904e-02 -1.29070207e-02  1.01302348e-01
 -4.36343513e-02 -1.91406615e-03 -2.61923056e-02  7.73742422e-03
  6.63608760e-02 -6.38882518e-02  1.78247169e-02  4.30265926e-02
 -6.51032180e-02  2.93312389e-02 -4.76832539e-02  6.08040430e-02
 -2.84883361e-02  2.07132734e-02 -3.70512269e-02  1.17462538e-01
 -4.22000177e-02  1.14384979e-01 -7.99416825e-02  6.75487742e-02
 -8.48880485e-02  2.15252154e-02 -7.86081180e-02 -3.03390697e-02
 -3.56151424e-02  2.29325835e-02  1.11381091e-01 -9.56828415e-04
  1.11274747e-02  1.73657518e-02 -1.34202745e-03 -3.01676504e-02
  1.48365395e-02  4.63785566e-02 -1.09416857e-01 -7.15494081e-02
 -3.69765013e-02 -4.09228243e-02  1.33449701e-03  3.06900381e-03
  6.06333129e-02  6.25486001e-02  9.83327907e-03  4.16249596e-03
 -1.16370237e-02 -2.70881746e-02 -1.06546143e-02 -3.03558111e-02
  7.65579566e-02 -3.83776799e-02  6.84698671e-02 -5.60005978e-02
  1.13389790e-02  3.42082120e-02 -1.71051845e-01  1.27541631e-01
 -1.10668754e-02 -8.73608440e-02  1.79722253e-02  1.18334237e-02
 -1.14279188e-01  3.82746831e-02  5.25004119e-02  7.65123218e-02
  1.53327323e-02 -3.41671184e-02 -5.90674914e-02 -3.27576399e-02
  1.52127380e-02  4.35856953e-02 -2.11960413e-02 -3.38529460e-02
  3.52424644e-02  5.07666543e-02  3.49367335e-02 -3.21210846e-02
 -2.25163791e-02 -2.28058361e-03  4.25014608e-02 -2.14564446e-02
  8.39646459e-02 -2.61744130e-02 -4.58249114e-02 -2.97565721e-02
  6.80151135e-02 -3.94696705e-02 -3.34075908e-03 -8.93411562e-02
  1.24768689e-02  4.00736220e-02 -1.07004782e-02  4.40361276e-02
  5.97569123e-02  8.02883804e-02]
[ 0.09919146  0.03198169  0.05858522  0.01245212  0.08116265  0.0326976
 -0.02865619  0.05836479  0.10145215  0.04361841 -0.02311883  0.031046
 -0.0714015   0.0128272  -0.04319173 -0.00677289 -0.05177654  0.04824643
 -0.09295973  0.10854349  0.02589696 -0.03679486  0.06295151  0.08421666
  0.01968524 -0.04835751 -0.04171995 -0.06322858  0.01269004 -0.04326126
  0.0009762   0.03372139 -0.06094655 -0.04626167  0.06985946  0.08939855
 -0.04847481 -0.04372495 -0.04274685  0.12704828  0.04897004 -0.00305096
  0.03653919  0.05332976  0.02360518 -0.00546749 -0.02055344 -0.02764423
 -0.05707552 -0.01703049 -0.0823252   0.0483826   0.04526335 -0.07594395
  0.01785651  0.06922571 -0.11027177  0.04856533 -0.08299714 -0.09892748
 -0.09213079 -0.0038347   0.01186955 -0.02928912  0.06725164 -0.03733073
 -0.0496924   0.0236712  -0.06901566  0.01621607  0.00686708  0.14322452
 -0.0196137   0.02915124  0.00223241 -0.02133142 -0.02289513  0.05822735
  0.0491925  -0.01666681 -0.04023281  0.0042575  -0.04586972 -0.12107316
  0.05791275 -0.06782527  0.04664082  0.06886752  0.01679201  0.0769631
 -0.11750268  0.00986757 -0.14999646 -0.00135614 -0.10963745  0.02113666
 -0.03131633  0.07454678  0.06417673 -0.08481582  0.03667476 -0.03364895
 -0.0567374   0.01132688 -0.0145723  -0.01344135  0.05155693  0.07738756
  0.01452294 -0.07343359  0.01268028  0.17068957  0.04151156 -0.00575888
  0.115475    0.07839184  0.00412895 -0.02849831 -0.0898221   0.03822746
  0.07947891 -0.02993346 -0.01781734  0.07905018 -0.10199516  0.02965377
  0.04489847  0.15126406 -0.0340476   0.00071339 -0.05264983  0.06221322
  0.05101362  0.06416238 -0.08990273 -0.04847288  0.01843698 -0.01507046
  0.00153479 -0.02204456  0.04571016  0.04466579  0.02070756 -0.02640591
  0.03946093  0.02783316  0.08348896 -0.04784139  0.01484046 -0.02594627
  0.00759076  0.0201827  -0.07545193  0.01909409 -0.02033346  0.0768766
  0.07558284 -0.02921979 -0.03191752  0.02634897 -0.11679642  0.07599427
 -0.07147003  0.00036215  0.01961984 -0.01523284 -0.00813098  0.01302709
  0.05118653  0.04419684  0.03652906  0.00209889  0.01484796 -0.02827232
  0.01961493  0.05725113 -0.00835546 -0.04821198 -0.04022973 -0.02828539
 -0.00076073 -0.00606846 -0.07017089 -0.0420534  -0.11277553 -0.03339095
  0.04311368 -0.02308717  0.02456784  0.03349081 -0.0262059   0.00480471
  0.02413921  0.02522271  0.06934099  0.0257828  -0.07833675 -0.10425276
 -0.01613672 -0.04471302 -0.00741444 -0.02316824  0.00143797 -0.02125078
  0.03786279  0.05234425 -0.03263117  0.03934833  0.01336375 -0.04678944
  0.06476859 -0.04034934  0.01179731  0.01930651 -0.00889216 -0.06344011
  0.03132638 -0.08360345 -0.01892613 -0.02925092 -0.074744   -0.03045646]
[-8.82068574e-02 -5.02655134e-02 -9.60838199e-02  3.32436338e-03
  1.16179109e-01 -1.60241853e-02  6.51458427e-02  1.73391979e-02
  3.14567573e-02  3.74141745e-02 -2.37200875e-02  8.31977054e-02
  1.15002804e-01 -5.59374765e-02  1.04550838e-01 -9.72341187e-03
 -3.13133970e-02 -9.03129801e-02  2.73615457e-02 -7.65136108e-02
  8.90840020e-04  3.67425866e-02 -2.68271975e-02  3.33507941e-03
  8.57995301e-02 -1.34670483e-02  1.10908900e-03  2.30836365e-02
 -6.97261617e-02  1.67964771e-02  3.36374491e-02  4.30375990e-03
  5.78386337e-03 -7.88741559e-02  7.58977653e-03 -2.13607829e-02
 -1.46265980e-02 -7.37700844e-03 -6.32513613e-02  2.10558195e-02
 -7.05811232e-02  1.07757170e-02  5.64596355e-02  7.32185924e-03
 -1.28620984e-02 -4.17046249e-02 -2.92490311e-02  7.79790804e-02
 -6.00840226e-02 -3.65638249e-02 -2.36626249e-02  2.12586056e-02
  1.60638794e-01  8.32606331e-02 -5.55330131e-04  3.90509851e-02
  1.40639290e-03  8.23029950e-02  1.07034594e-01 -3.17369960e-02
 -5.10486700e-02 -6.11322448e-02  1.82695407e-03  4.88335639e-02
  6.39579594e-02  7.47386292e-02  2.67725885e-02 -9.52244271e-03
 -7.77749494e-02  8.13184977e-02 -2.66807210e-02 -6.74288049e-02
  6.91631902e-03 -2.77795084e-02  5.62731810e-02  2.29394957e-02
  1.46307230e-01 -1.13540545e-01 -7.33316168e-02 -2.27146018e-02
 -3.99395451e-02 -1.33037139e-02  1.10632063e-04 -5.94642572e-02
 -6.36652708e-02 -1.77840109e-03  1.16437944e-02 -1.06366575e-01
  3.69807594e-02  2.96350792e-02 -3.84207815e-02  1.03436746e-02
  6.82901591e-02 -1.69883072e-02  1.85610875e-02 -5.20222373e-02
  7.01773679e-03 -1.37348756e-01 -2.84835882e-02  4.99673039e-02
  7.63289705e-02 -2.16670837e-02 -1.84915848e-02  5.26711829e-02
  3.59986769e-03  2.14601718e-02  6.69220835e-03 -1.79899728e-03
  4.19049636e-02 -1.81199443e-02 -5.25694154e-02 -4.70728427e-03
  8.74233805e-03 -2.30625905e-02  1.19198197e-02  1.36068650e-02
  6.21256232e-02  2.01220643e-02 -9.26354602e-02 -4.48602326e-02
 -3.53874862e-02 -2.07825471e-02 -3.76374125e-02 -5.72616123e-02
 -4.42258082e-03  6.97986856e-02 -3.56942229e-02 -5.32856248e-02
  5.33170672e-03 -6.61801267e-03  5.00178374e-02  1.72936544e-02
 -6.64838254e-02 -1.17224697e-02 -3.39664519e-03 -9.38203484e-02
  8.68969597e-03 -4.52581421e-02 -2.70163938e-02  9.01134918e-05
 -1.82928052e-02 -7.75743872e-02 -5.73877990e-02 -1.20251112e-01
 -3.73946726e-02 -2.46680640e-02  6.70024380e-02 -1.79249905e-02
 -5.80259115e-02  3.98371592e-02 -3.43786404e-02 -2.41940543e-02
  4.03814837e-02 -2.48533357e-02 -4.77566496e-02  6.20582737e-02
 -4.15438935e-02  6.93754852e-02  1.25080064e-01 -2.79752146e-02
 -1.76521372e-02 -5.17872460e-02 -2.27517877e-02  3.18768881e-02
  1.15080569e-02 -6.05574530e-03 -6.31713942e-02  1.32896034e-02
  1.56061767e-04  1.56737547e-02  2.80881412e-02  5.38481548e-02
  8.65071416e-02 -9.51479748e-03  3.57249156e-02 -8.77394304e-02
 -4.44433801e-02 -7.05518872e-02  4.42222767e-02 -1.12076521e-01
 -7.63471201e-02 -1.87075101e-02 -9.27021205e-02 -7.26635754e-02
  8.41781613e-04  4.20428403e-02 -9.02274549e-02  1.61955282e-02
 -2.72210613e-02 -2.42715469e-05 -1.00924317e-02 -1.14758827e-01
 -2.55015884e-02  4.48433496e-03  8.64979066e-03  3.19522317e-03
 -3.74375395e-02  3.42549980e-02  2.56619249e-02 -5.88259883e-02
  1.02487907e-01 -4.82558943e-02 -2.88813915e-02  1.03364354e-02
 -2.21583955e-02  1.04259269e-03  4.59074788e-02  6.13408461e-02
  4.97037135e-02 -2.12406423e-02  3.50147337e-02 -2.29966324e-02
 -4.05335873e-02 -4.73751761e-02 -2.32835524e-02  2.21689679e-02
 -5.02181500e-02 -6.67735040e-02  4.20636386e-02  4.72638980e-02
 -2.57049147e-02  1.94520049e-03]
[ 0.09835204  0.02709042 -0.01234306 -0.03494443 -0.01228361 -0.01103052
  0.06698849 -0.06436524  0.03840694 -0.02429132 -0.01280079 -0.01606193
 -0.09442653  0.03644658  0.07485189  0.05693529  0.07461037  0.05142662
  0.00956349 -0.0506087  -0.02421008  0.06494904  0.06845006 -0.01793433
 -0.00865318 -0.01706506  0.02169786  0.04994609  0.09414527  0.01237545
 -0.05014728 -0.0067607   0.12551293 -0.03765289  0.05199656  0.0123632
 -0.01066222 -0.01848831 -0.01144776  0.05186592 -0.00136094  0.03204226
  0.02076894 -0.0465711  -0.05316833  0.07624099 -0.02135648  0.02618653
  0.00057714  0.02580654 -0.02880777 -0.01701199 -0.00067496 -0.0099352
 -0.06893541 -0.10340974  0.01242951 -0.02724428 -0.00679965 -0.02123352
  0.02175398  0.08109039  0.05754301  0.04710721  0.02662165 -0.07562456
  0.06669986 -0.07731608 -0.12722623  0.02552057  0.02165276 -0.04871618
  0.02841724 -0.01683891 -0.00830211 -0.11160517  0.05218899 -0.01674826
 -0.078482   -0.01008213 -0.03035202  0.0201533   0.03844091 -0.01659891
 -0.0312446   0.02574175 -0.01028708  0.00634609  0.02608163 -0.02228514
 -0.04945851 -0.07954294 -0.01489545 -0.11353404  0.00619704 -0.0561239
 -0.02371684  0.03902305  0.01594875  0.05271469  0.03754462  0.06584546
 -0.06783716  0.08138167  0.06224667 -0.07286102  0.01910959 -0.02385174
 -0.03307534  0.02970661 -0.01448797 -0.06629294  0.07517936 -0.01779402
 -0.10533522 -0.03140706  0.03437893 -0.05752668 -0.06944356 -0.05594115
 -0.0394858   0.12496896 -0.00234855  0.01593646 -0.02082746 -0.08751315
 -0.01011385 -0.08798162  0.05390788 -0.07301698 -0.07505028  0.07135757
  0.03916439 -0.0644758   0.0058722  -0.03785273 -0.03873044 -0.0500238
  0.02398345 -0.07799442 -0.03112801 -0.07993507 -0.06924558  0.05380481
 -0.06604505 -0.01981533  0.04151634 -0.01731469 -0.01373129 -0.08646677
 -0.0260816   0.05410043  0.01743621 -0.02159095 -0.08326001 -0.02382093
  0.04247878  0.07641914  0.00869258 -0.02526451  0.05388887  0.07688262
  0.05566647  0.02135179 -0.12406941  0.0357578  -0.12282083  0.04056708
 -0.0106827   0.03782379  0.04747601  0.02588696 -0.05343946 -0.05191649
 -0.07274456 -0.01822562 -0.08309322  0.03906213 -0.02258983 -0.08116312
 -0.04086573 -0.00201427 -0.03847454  0.03400537 -0.04710998 -0.0325745
  0.06920701 -0.07054973 -0.06260557 -0.00074317  0.02379     0.00393487
 -0.04627116  0.02613624  0.00112623 -0.02612722  0.12878853  0.03464014
 -0.03532885 -0.09072389  0.07210289  0.02899641  0.04163599 -0.08592679
  0.02592716  0.03107356  0.04651664 -0.04775237  0.03576224 -0.011696
  0.07782532  0.1262083  -0.02760921  0.0774956   0.08127529 -0.03518324
  0.02007516  0.00530696 -0.00015432  0.0071122   0.03057361  0.01586579]
[ 0.03784387 -0.06016063  0.04255355 -0.03062621  0.04965171  0.10301512
  0.03188003  0.0116162  -0.008737   -0.01954681  0.02640817  0.1135302
  0.01814505 -0.06483348  0.09672357  0.04243664 -0.00366539 -0.04901204
 -0.00747456  0.04684076  0.06475949  0.05328158  0.02917926  0.01561746
 -0.04548159  0.04085567  0.04355818  0.02275877 -0.00319995  0.03106274
  0.06491446 -0.01371294 -0.05261603 -0.0050492   0.02349478  0.03111364
 -0.04208849  0.08513833  0.05296909  0.07757132  0.04675221 -0.02932699
  0.00399683 -0.05313499 -0.03244689 -0.01335935  0.03344408  0.04272405
 -0.05431161  0.02821857 -0.00158709  0.0664093  -0.00706682  0.1102481
  0.0219733  -0.04288112  0.03079631  0.04983205 -0.02363113  0.06084757
 -0.08803364  0.04104059 -0.01758254 -0.01802365  0.09388158  0.02213303
 -0.02664183  0.11529258  0.10661983  0.05452323  0.07832087  0.06568942
  0.09673797  0.00934431 -0.01609739 -0.05128733 -0.06352821 -0.06027183
 -0.07463919  0.0120306  -0.0190084  -0.0675474   0.02389517  0.00289725
  0.08173118  0.05794618 -0.08728348 -0.05763681 -0.0767923  -0.01344644
 -0.05569182  0.06360694 -0.04143332 -0.02266846  0.10268375  0.06223648
 -0.01319191  0.01090116  0.08968728 -0.03011592  0.04790779 -0.0235744
 -0.17584994  0.01890048  0.05807029  0.03360403 -0.02316763  0.03750003
  0.04442835  0.05799198  0.00876031  0.05143941 -0.02940776  0.0375353
  0.04206155  0.00577672 -0.04199306  0.04720153 -0.01398328  0.03726011
  0.00820605 -0.06297117 -0.08896057  0.05243034  0.01353715  0.00599867
  0.02047394 -0.07720326 -0.04255814  0.00294649  0.06114762 -0.03176858
 -0.02585506  0.04424066  0.04722499  0.0661191   0.07851297 -0.01812941
 -0.00618772 -0.02257256  0.04427291 -0.0352858   0.06948059 -0.04570186
  0.04404153  0.00382751 -0.02747742  0.00429121  0.0235446   0.02020004
 -0.03617463  0.04991908 -0.04447328  0.0073759  -0.07003446 -0.05810922
  0.01441024  0.01249079 -0.01044074 -0.01937041 -0.02904712  0.00079552
  0.00588939 -0.02213791  0.01497501  0.03343752  0.0341041  -0.01899348
  0.00412439  0.03310483  0.08125989  0.00869983  0.00658875  0.04211865
  0.00170626  0.08081973 -0.04490388  0.05653471  0.0092374   0.01286705
  0.0336843   0.01773013 -0.04923254  0.03841741 -0.08333354  0.07346802
 -0.02360884 -0.13090262 -0.03631891  0.01391918  0.01824743  0.06894381
  0.03814841  0.00721968 -0.0079461  -0.0593835   0.06790932  0.06774013
 -0.06728201  0.06925794  0.05008728 -0.01102533 -0.0021702  -0.0608982
 -0.10218421 -0.06423319 -0.02311955  0.04594357  0.009388    0.06175768
  0.01429757  0.04571965  0.08510692  0.08108059  0.04696067  0.02265547
  0.03544633 -0.05733487 -0.0813686  -0.08628736 -0.07626005  0.03725667]
[ 0.01017975 -0.05772328  0.02419163 -0.02327302  0.03011084  0.00776716
 -0.02540312 -0.10133698 -0.01647205  0.01796574 -0.09156229 -0.01309521
  0.00962025 -0.03476363  0.0381914  -0.14899902 -0.07022478 -0.026239
 -0.10230684  0.05921301  0.00689105 -0.03243062 -0.01177518  0.04922737
  0.07500929 -0.07714818 -0.04163506  0.05187451  0.03929187 -0.00498365
 -0.06684406  0.04809956 -0.02247867  0.05214197 -0.03979243  0.07896509
  0.01740821 -0.00896447  0.06907082  0.00032141  0.15571581 -0.00585213
 -0.01467865 -0.02962262  0.0483601   0.08511768 -0.05277323 -0.01909743
 -0.05016438  0.00033592  0.0076655  -0.00242136  0.02322529 -0.07304663
 -0.01387324  0.03431502 -0.06962729 -0.00045547  0.03265023 -0.0483039
 -0.01315895  0.06650653 -0.02159963  0.01170551  0.1229668   0.04904145
  0.06095112  0.00936614  0.01865495 -0.01511242 -0.06734531 -0.00623066
  0.02971005  0.13179788 -0.00960715  0.03196819  0.05875124 -0.05565645
 -0.07187536 -0.00764448 -0.03092241 -0.11735991 -0.03438273 -0.08499443
  0.06775073 -0.03973024 -0.04334095 -0.01581581  0.07447879  0.08088877
 -0.07962271  0.04038257 -0.09815535  0.05535491 -0.01166829 -0.02959935
 -0.00257651 -0.06183564  0.00091304 -0.01025565  0.01463973 -0.06795078
  0.01615204  0.06918143  0.09707755 -0.04078617 -0.06307103  0.0024983
  0.05783519  0.00196812 -0.00935947  0.08240468  0.01503359  0.00905404
 -0.04034356  0.01612409  0.00586453 -0.05259207  0.00499951 -0.03192008
  0.01032648  0.01631097 -0.03436716 -0.01019926 -0.00806368  0.01627089
  0.0498953   0.03171645 -0.04183199  0.0428638   0.02352864 -0.10392389
 -0.0094754  -0.01606809 -0.00111143 -0.02427285  0.00699928 -0.0196645
  0.03074584 -0.10636961  0.02467424 -0.18713395 -0.02743439 -0.1449446
  0.04961641  0.06313445 -0.06349355  0.03599929  0.01253163  0.00999826
 -0.00916846 -0.02947444 -0.00355282 -0.03624115 -0.02178389  0.01985737
  0.05324485  0.05683334 -0.00437065  0.05842132  0.02484895  0.05424886
  0.01153673 -0.07712214  0.01522447  0.01434223  0.00508981 -0.00216649
  0.02407535  0.03115353  0.0684301  -0.00125395  0.05728983 -0.03829954
  0.03188279 -0.08831548  0.03708122 -0.0509306   0.00996215 -0.05731397
 -0.06274563 -0.09375763 -0.00992561  0.00863559  0.11003658  0.01426309
 -0.07415172 -0.0691325  -0.04762372  0.03889132 -0.04169134  0.04725729
  0.09743346 -0.05952723 -0.01235096 -0.07462578  0.10106965  0.01551729
 -0.01375239 -0.02739505  0.04921524 -0.02997345  0.02123124  0.00039089
  0.07749684  0.03989621 -0.00178795 -0.09689714 -0.01427088  0.00859694
  0.01535592 -0.00994491  0.07559149 -0.05449797 -0.00768315  0.05943923
 -0.01100912 -0.07540446 -0.07971527  0.02956715  0.05878918  0.06439409]
[ 0.00548537 -0.00376331 -0.00815556  0.04467567  0.01605399 -0.09845807
 -0.15120395  0.02863505  0.03074289  0.0010266  -0.07499814 -0.02961926
 -0.05136899 -0.03050191  0.01127053  0.06064865  0.05496718 -0.02701696
  0.0934926  -0.07664626  0.0549009   0.00992713 -0.07009104  0.08044216
  0.09639122  0.06230194 -0.12007675 -0.00934786  0.0707169  -0.04764289
 -0.01232472  0.04683913 -0.05021616 -0.03479462 -0.07049733  0.09234104
  0.02049125 -0.01229514 -0.04369076  0.03766446 -0.10637337  0.01491714
 -0.00600906  0.06272911 -0.00276999 -0.09846622 -0.01437575  0.10569253
  0.04272739 -0.02153438  0.00325961  0.01584008  0.03810345  0.09902688
  0.08065532  0.03315601 -0.0032414  -0.10776054  0.01105147  0.03129946
  0.032103   -0.09958617 -0.04690325  0.06881923  0.09517564 -0.06589624
 -0.00451175 -0.09123164 -0.03363781  0.08548196 -0.10544311  0.07558174
  0.04895839  0.03164394  0.11317857 -0.04066221  0.04885916 -0.06250671
  0.03824109  0.01306654  0.07185774 -0.03630009 -0.03674663  0.00267242
 -0.05952201  0.0388386  -0.02454537  0.08630135  0.09231989 -0.0323869
  0.01388749  0.00369247  0.02652255  0.04722646 -0.09453808  0.03242172
  0.06610897  0.02018393 -0.04671584  0.05852353 -0.00939943  0.04815207
  0.00845343 -0.00227878  0.04942078 -0.01039029 -0.01064965 -0.02219799
  0.03688778  0.01819791  0.06198348  0.05354269  0.03072417  0.00446461
 -0.0581048  -0.00164498 -0.01790218  0.05648773  0.02646978  0.03583654
  0.05954844 -0.04664772  0.00096043  0.14413041 -0.0405133   0.06718839
 -0.00780622 -0.10931291 -0.00550432  0.00451812  0.00846087  0.01880398
  0.00165832 -0.00150665  0.04740143  0.12691513  0.01320316  0.02614648
  0.01562282 -0.06296857 -0.0094058   0.02948954  0.04266907  0.06872389
 -0.04881023  0.01762057 -0.00633785 -0.03957979 -0.08892923  0.03152768
 -0.01385053  0.12164409  0.06464041  0.11813247  0.0256003   0.01467177
 -0.09460665  0.08205838  0.0633973   0.03253761  0.09260894  0.03187031
 -0.01461734 -0.02833034 -0.00233596  0.00325952  0.01769602  0.06000374
  0.08174884  0.01166487  0.02129186  0.03950683 -0.03429137 -0.06050071
  0.03015697 -0.02089831  0.04090742 -0.08224234  0.01779693 -0.01581583
  0.05563572 -0.0742097  -0.09079409 -0.03376814  0.08458646 -0.05438267
  0.06879701 -0.06199211 -0.09408905  0.00306872 -0.02207292 -0.02422871
 -0.03460073 -0.01987868 -0.09014195 -0.01388553 -0.08903347  0.08080053
 -0.10732429 -0.03129355  0.0154372  -0.00603707 -0.03675938  0.02532131
  0.08482158 -0.06835816 -0.0808449   0.01947474 -0.10487631  0.00208972
 -0.04531649  0.0168692   0.05764924 -0.06319028 -0.14508615 -0.03940503
 -0.01419959 -0.01057424  0.04094056 -0.02101813  0.1186169  -0.00573924]
[-0.06575643 -0.00259835 -0.0258046  -0.00798788 -0.02537411  0.11076521
  0.08078974  0.03018615  0.041724   -0.02969868 -0.03601868  0.01773112
 -0.04988698  0.06409036  0.08870292  0.11495049 -0.06188072 -0.03966402
 -0.08705517  0.01325116  0.02034612  0.01380154 -0.06369025  0.0279508
 -0.06852713 -0.04676411  0.09970438 -0.03852515  0.06893034 -0.05078741
  0.04402658  0.00754431  0.05561724 -0.03199111 -0.11451774 -0.01272518
 -0.0626684   0.03579775 -0.14218232  0.01586109 -0.01652061 -0.01539872
  0.00068603  0.04590419 -0.00368002 -0.05521453 -0.06838372  0.06738409
 -0.0281142  -0.02334878  0.01680637 -0.00151005 -0.00367021 -0.01026314
  0.0506435   0.0729653  -0.07899747 -0.03299341  0.02075105  0.03395446
  0.02372345  0.1332867  -0.08236063  0.01418838  0.10637289  0.02201465
 -0.05614509 -0.01474295  0.0756703  -0.01429832 -0.08952092 -0.12549956
 -0.06360563  0.03640806  0.06293768 -0.01683036 -0.11738306 -0.07968227
  0.03976853  0.03259613  0.01775663 -0.08030845 -0.06623427 -0.04566305
 -0.08631685 -0.04173773  0.07805404 -0.02895498 -0.02260837  0.04489522
  0.0523678   0.04691225  0.04569247  0.01964919 -0.0534634   0.00200508
 -0.02385074 -0.0398243   0.00352304 -0.02563886  0.0326214   0.09804549
  0.02927709  0.01943467  0.03215417  0.01381449  0.04192975  0.04533131
  0.02161713 -0.07248659  0.04163581  0.04439076  0.04585344 -0.02492519
 -0.00471145 -0.10849402  0.07504193 -0.06640201  0.1024351  -0.07759215
 -0.06046814 -0.07818037  0.00050403 -0.02164008  0.01203061 -0.05558237
  0.05666924 -0.01249968  0.03413136 -0.00848177 -0.02964544  0.07391219
 -0.00153315 -0.0147225   0.0318314   0.02998712  0.03732343  0.02534696
 -0.00991405 -0.04615037  0.004341   -0.01009096 -0.06977639 -0.03567082
 -0.01101444 -0.02937475 -0.04755728 -0.02326831  0.0636548   0.07456989
  0.00699605 -0.01679581  0.01958954 -0.05415821 -0.08652491 -0.0487399
  0.02034829  0.03617198 -0.02886013 -0.02934518 -0.03393961  0.077905
  0.00688207 -0.00847912  0.04852869  0.03231902  0.05782127  0.02463198
 -0.04744149  0.05224238 -0.01912388 -0.0402546   0.10582647  0.11903839
 -0.03512379 -0.04584229 -0.01027191 -0.00411055  0.10282746 -0.00228154
 -0.04745778 -0.06444825 -0.08938795 -0.03981039  0.03616221  0.07473531
  0.02363515 -0.0150172   0.0227014  -0.03708673  0.02040812 -0.03470643
  0.03172335 -0.05194697  0.02702524 -0.03893709 -0.01814999 -0.03796339
  0.02530516 -0.00270397 -0.03246688  0.05369648 -0.0168012  -0.04235023
  0.03623383  0.04329673  0.04513196 -0.04830418 -0.05096363 -0.01023451
 -0.01923582  0.11714619 -0.06536725  0.02987302 -0.02292911  0.0399956
  0.04973045  0.12134682 -0.09445443 -0.06292071  0.01233277  0.0235441 ]
[ 0.04197886 -0.07289319  0.03271191 -0.02500593 -0.11326897 -0.03755374
 -0.03663688  0.03654967 -0.03425112 -0.02854101 -0.01256878  0.0945376
  0.01193084 -0.01214823  0.00630342 -0.07903035 -0.04361243 -0.06480367
 -0.0573986  -0.07519176  0.04472761  0.03976801  0.00515652  0.00676755
  0.01583473  0.04402651  0.06417242  0.03543039  0.01704989 -0.02432857
  0.03536109  0.03177768  0.08436868  0.00378236  0.05007594  0.02634776
  0.07921641  0.00999052  0.03223505  0.01727327  0.03407628  0.04199789
 -0.02769607  0.09226909 -0.02875316 -0.06561538 -0.03263302  0.02599827
  0.03742607  0.02091108 -0.01491757 -0.06568518  0.10447603 -0.00767539
 -0.01416653 -0.00743167  0.04929528  0.01660253  0.00977802 -0.07817308
  0.00140637 -0.02962101 -0.00696009  0.06054778  0.05010626  0.00082681
 -0.01315283  0.03020176  0.03065755  0.00958522 -0.02557777 -0.02612341
  0.0588378   0.00420927  0.0557488   0.00484237  0.01395689 -0.00897247
  0.0022968   0.08046117 -0.05166044 -0.08922322 -0.05099694  0.04857143
 -0.03529194 -0.02467941  0.05051335  0.00492487  0.04447182 -0.00725691
  0.04999333 -0.00851875 -0.03672281  0.03691938 -0.00039742  0.05220696
 -0.00114284  0.03352664  0.04172382  0.01185939  0.01320696  0.01950476
 -0.04895661 -0.07180322  0.02217199  0.09048566 -0.00298288  0.08402581
  0.02112022  0.01578522 -0.00708848 -0.01412088 -0.03415024  0.01803011
  0.02601006  0.1118505   0.00673327  0.10207873  0.0228037   0.00039764
  0.00078841  0.03338099  0.07163762 -0.08170709  0.02571569 -0.05380585
  0.03931583 -0.02169467 -0.025717    0.04770444  0.01642176  0.11745354
  0.07193893 -0.0009386   0.00676526  0.00672878  0.06560167  0.10145223
 -0.0199719  -0.0340143  -0.00906681  0.00648393  0.02081926  0.00943655
  0.00848438 -0.00810071  0.0100413   0.01142145 -0.02403058 -0.09918345
 -0.00645379  0.00599808  0.08765963  0.03348021 -0.01994879  0.03885226
 -0.00195742  0.02569614 -0.04437255  0.02528608 -0.00076783  0.01667829
 -0.04396104 -0.01924369  0.02077557  0.00849094  0.05251301  0.0405472
  0.01359788  0.01822938 -0.0643691   0.03477516 -0.02227437  0.02065428
  0.03374279 -0.00024452 -0.07639247 -0.00066114  0.00436014  0.04760411
  0.06636769  0.04321353  0.05361797 -0.03295803 -0.00220353 -0.00338703
  0.07257696 -0.03071943  0.04834224  0.0582521   0.01807123 -0.02909868
  0.01780791  0.04997106 -0.01186803  0.01691066 -0.02294974 -0.01437011
  0.02204093  0.02184203 -0.01404113  0.06164038  0.03460626 -0.04943752
 -0.03102032 -0.09987588 -0.06535236 -0.06031871 -0.00269437 -0.07098196
  0.08380195  0.06262225  0.02312659  0.00493243  0.05337875 -0.01113672
 -0.004013   -0.04776489 -0.00643539 -0.01915434 -0.02149899  0.00243907]
[ 3.17846574e-02  1.23573229e-01 -2.49691010e-02 -5.11622429e-02
  3.49771380e-02  7.09664971e-02  2.07468476e-02  4.72945981e-02
 -2.28857789e-02 -3.55024822e-02  4.90783602e-02  8.49598199e-02
 -7.20099136e-02 -4.90340590e-03 -4.01080437e-02 -5.37240990e-02
  2.93138456e-02  7.13290945e-02 -3.63903120e-02 -8.20602626e-02
  9.00199562e-02 -6.59645572e-02 -5.16208187e-02 -1.04627125e-02
  3.72215291e-03 -9.32380036e-02 -5.59385493e-02  5.56551702e-02
  3.08398530e-03 -2.12721024e-02  1.18577229e-02  1.38280063e-03
  3.64471562e-02 -8.65084399e-03 -8.36308822e-02  2.98928451e-02
  2.43188553e-02 -6.88328743e-02 -4.42682691e-02  1.68819877e-03
  6.02206327e-02 -6.02836255e-03  2.63397470e-02 -5.42361289e-02
 -6.01104237e-02  3.06130573e-02 -7.98739046e-02 -3.33704948e-02
  5.06694280e-02 -2.13560518e-02 -4.09035720e-02  7.55860703e-03
 -7.85311218e-03  7.50180706e-02 -2.16120221e-02 -4.44437983e-03
 -2.27626786e-02 -1.46825623e-03  2.03674845e-02 -2.75426824e-02
 -6.55153692e-02 -3.51601616e-02 -2.10231561e-02 -2.96718092e-03
  3.57510373e-02 -5.87842893e-03 -8.98546167e-03 -4.33433801e-02
  1.86108686e-02 -3.17750126e-02 -5.23962779e-03  5.60720712e-02
  7.48413149e-03  5.46840392e-03 -1.11405477e-02 -1.06159154e-04
 -9.73831862e-03 -3.57067562e-04 -1.08956598e-01 -3.90383266e-02
 -1.79620665e-02 -4.58724797e-02 -1.26070390e-02 -4.28216420e-02
  1.59881413e-02  2.66508777e-02 -3.60536063e-03 -7.62182195e-03
 -8.07046741e-02 -3.64308581e-02  3.63917015e-02 -3.87074822e-03
  6.15153797e-02  3.65554094e-02 -1.51805179e-02 -9.93246771e-03
  8.55516940e-02  2.07909718e-02 -8.48623663e-02  4.14938703e-02
 -4.37669232e-02  9.25872766e-04 -1.55737903e-02 -8.96799192e-03
  1.25555675e-02  3.68018216e-03  8.07025805e-02 -1.18679911e-01
  3.39275561e-02 -2.03136411e-02  1.36993732e-02 -1.92872919e-02
  9.86038819e-02 -4.77295630e-02  1.95100475e-02 -1.55978312e-03
 -6.90544248e-02 -8.35704356e-02  1.70175601e-02 -8.58623683e-02
  1.76661033e-02  6.80143386e-02 -9.00166184e-02  6.67831823e-02
  3.84633616e-02  6.31576106e-02 -3.66365872e-02 -8.19416568e-02
  5.41601479e-02  9.38247144e-03 -8.64474177e-02 -3.25645804e-02
  7.98902661e-02 -2.77286153e-02 -5.74226081e-02 -1.01419568e-01
 -5.92038929e-02 -1.75993901e-03  5.16620949e-02  6.73831776e-02
  1.59937833e-02 -1.20976223e-02  3.73465866e-02 -2.23403331e-02
 -7.88894817e-02  1.00806765e-02  5.28621860e-02 -1.37532027e-02
  4.28353138e-02 -1.12759238e-02  1.86980097e-03  7.19574168e-02
 -1.09378286e-01 -5.22103645e-02 -3.22363600e-02  2.04665437e-02
  7.87451416e-02  3.56272087e-02 -6.52860627e-02  4.50702235e-02
  7.91131184e-02 -1.47005329e-02 -2.06617583e-02  2.46588066e-02
 -3.01218536e-02  9.29089636e-02  2.56530382e-02 -2.90536117e-02
  1.33200929e-01  3.22616361e-02 -9.05731842e-02  1.10351741e-02
 -5.67111792e-03 -7.52147892e-03  9.60831791e-02 -2.57410463e-02
  4.29608487e-03  4.04507108e-02 -2.68661827e-02  1.85614079e-02
  5.50037436e-02 -6.89715287e-03  7.75247142e-02  4.96314513e-03
  7.23032374e-03 -1.48523925e-02  2.91561689e-02  1.83630530e-02
 -5.61847724e-02  1.36871964e-01 -5.32566421e-02  2.55551822e-02
  5.70848770e-02  2.17984038e-04  5.48964702e-02 -3.03448830e-02
 -5.88979498e-02  7.64329955e-02  5.86194955e-02 -2.94284453e-03
  4.76396903e-02  7.38240331e-02 -1.04991347e-01 -2.39265431e-02
  4.25037481e-02 -1.03456348e-01 -5.80569729e-03  4.37975824e-02
  3.76040414e-02 -5.20545170e-02  1.04718432e-01  1.18926451e-01
  3.02888248e-02 -7.98958726e-03 -4.15693112e-02 -2.71019172e-02
  1.66802760e-02  2.02621575e-02 -8.69690478e-02  1.97451729e-02
  3.13654379e-03  1.92247182e-02]
[ 4.47740629e-02  6.16279058e-03 -9.29052755e-03 -3.46175432e-02
 -1.50687201e-02  1.01723056e-02 -3.78085896e-02  6.32229298e-02
 -1.08537183e-03  4.76265280e-03 -5.97840175e-02 -7.28833079e-02
 -1.99493151e-02  1.36069572e-02  3.16342385e-03  5.02384827e-02
 -3.23957391e-02 -3.98556963e-02 -5.19956313e-02 -1.06916606e-01
 -1.13652386e-02  3.24019380e-02 -1.81083120e-02 -2.67612636e-02
 -7.75565580e-02 -3.92677337e-02 -3.88105810e-02 -1.07091414e-02
  7.71756992e-02  2.02756259e-03  1.67516768e-02  1.16383359e-01
  4.49284427e-02 -1.03700021e-02 -9.35187843e-03 -1.88357662e-02
 -3.61045636e-02  9.59489271e-02 -2.91475784e-02  6.36845082e-02
 -4.50110398e-02  1.25019830e-02 -4.82860245e-02  1.03433117e-01
  4.22757007e-02 -9.09413397e-02  4.71202880e-02 -1.44531811e-02
 -2.68300157e-02  1.96680948e-02  6.81495667e-02  1.54467225e-02
 -4.28020433e-02  2.39176676e-03 -1.62013397e-02 -3.17802019e-02
  5.38587645e-02  2.86247097e-02  4.98957187e-02  4.65168245e-02
 -9.33890417e-02 -3.15128304e-02  8.49251263e-03 -2.37681009e-02
 -3.06065753e-02  8.06414708e-03  5.59836477e-02  7.89248943e-02
 -3.49051692e-02 -1.64751559e-01  3.17043718e-03  1.79576445e-02
 -9.07008722e-03  7.29612187e-02  8.73689055e-02 -3.05818692e-02
 -2.81507173e-03  4.64191986e-03  1.02002183e-02 -7.81804845e-02
  4.05146293e-02 -3.11113037e-02 -9.10493638e-03  3.40327658e-02
 -5.25264861e-03 -1.46524701e-02 -1.12599649e-01  2.28108503e-02
  1.12009859e-02 -6.58148527e-02 -2.83772051e-02  7.22807422e-02
 -6.35325983e-02 -5.86899966e-02  3.22606824e-02 -7.79837072e-02
 -9.25976709e-02  1.10930189e-01  4.69284393e-02 -8.41549784e-03
 -6.82414174e-02 -3.61086614e-02 -9.54639986e-02  2.02809684e-02
  3.82132865e-02  2.24332861e-03  1.54700186e-02  9.84366685e-02
 -7.63748884e-02  2.87005249e-02  7.56771266e-02 -5.34603298e-02
 -9.47713666e-03 -8.16476196e-02 -4.48594987e-03  4.45504971e-02
 -8.14544857e-02 -1.30174413e-01 -4.04103771e-02 -7.64610386e-03
 -6.32340312e-02  2.04526484e-02  3.29294726e-02 -3.52749787e-02
  7.28515955e-03  8.74244049e-02 -5.21796159e-02  4.26518172e-02
 -9.22798216e-02  3.91588639e-03 -1.87878106e-02 -2.01227143e-02
 -9.88612622e-02  2.30395291e-02 -6.60818517e-02  7.43628666e-02
  7.36803859e-02 -5.29449955e-02  1.22311385e-02  2.39011981e-02
  4.79980148e-02 -7.32223503e-04  7.60045052e-02 -1.66934971e-02
  3.43272164e-02  1.03915185e-02 -3.29898670e-02  3.60144302e-02
  2.49681603e-02 -5.13374470e-02  1.32781267e-02 -1.34881502e-02
 -6.11093529e-02  2.58116163e-02  4.24804501e-02  4.63695861e-02
  6.21252954e-02 -2.93594897e-02 -2.24915165e-02  2.84389649e-02
  4.12033033e-03  4.54105530e-03 -3.19502130e-02 -1.02760708e-02
  3.34728621e-02 -2.52516624e-02 -3.42594385e-02  3.24056894e-02
  8.73457938e-02 -2.75059789e-02  7.12591456e-03 -2.89054904e-02
 -5.57381324e-02  9.85069275e-02  1.62753612e-02 -5.84952943e-02
 -1.97642557e-02  1.51531193e-02  4.71104458e-02  6.06685551e-03
  1.84315406e-02  3.48988324e-02 -1.14221191e-02 -4.70583327e-02
  4.30953652e-02 -7.05778822e-02 -3.78985554e-02 -6.82886317e-02
 -3.49583738e-02 -2.90422179e-02 -5.53039610e-02  1.41400044e-04
 -8.67383629e-02 -2.61089560e-02 -2.32086913e-03  3.71477902e-02
 -1.11614838e-01  6.46895766e-02  3.55466604e-02  8.98830965e-02
 -6.06412068e-02 -7.96500221e-03 -4.00921330e-02  1.94432156e-03
 -4.63166609e-02  1.60264466e-02  3.31485271e-02 -4.21643890e-02
  6.59013987e-02 -6.27005324e-02 -1.57386239e-03  5.66052608e-02
 -2.05282588e-02 -5.61635420e-02  1.90876226e-03 -8.53967108e-03
  2.05321573e-02  6.36268556e-02 -2.75599230e-02  1.73166096e-02
  8.60965624e-02  1.46008760e-03]
[ 0.01384562  0.02566779  0.06051164  0.02905758 -0.08085055  0.0764952
  0.00309908 -0.05085458 -0.01985402  0.0124468   0.04240316 -0.01258747
  0.01679832  0.01298456 -0.06089602  0.01814784  0.13931762  0.05329436
 -0.01419424 -0.04232696  0.04546404  0.00338846 -0.04070601  0.00487756
 -0.02716823 -0.02301637  0.01113643  0.01928472  0.05680499  0.03293018
  0.06139211  0.00775757 -0.0706169  -0.01827571 -0.02489033  0.02731734
  0.1167705  -0.0272268  -0.11115335  0.02439771 -0.02981055 -0.01874178
  0.09036661  0.10812178 -0.03671545  0.01088008  0.02381709 -0.08954141
 -0.00043647  0.00268903  0.05406103  0.01448932 -0.04671251 -0.0252585
 -0.03903284  0.07177453  0.10662536  0.00723925  0.02388187  0.10435424
 -0.01238661 -0.00367822 -0.00209697 -0.0366288  -0.02356871  0.03803645
  0.01770751  0.02606703  0.00330826 -0.03443816 -0.03554696 -0.12285603
  0.05916725 -0.04701691 -0.00424206 -0.00988133  0.06779614 -0.01966234
 -0.04935633  0.06093234 -0.10630324  0.01889475  0.04221508  0.00233532
 -0.03151631  0.03467805 -0.0504938  -0.04640908  0.06850637  0.03912908
 -0.00029453  0.07494465  0.03911052  0.01021724  0.01871191  0.05570209
  0.02881987  0.04966158 -0.0559194  -0.07211664  0.06371752 -0.06188496
  0.07155823  0.07521731  0.01936694  0.04789382  0.06147891  0.08949005
 -0.02109466  0.05741617 -0.01409838 -0.03190322 -0.02592177  0.0272272
 -0.02972275 -0.05702678  0.03143383 -0.00999111 -0.02336932 -0.01310746
 -0.03887427 -0.06774811 -0.02817158  0.0354399   0.01722343  0.01999884
 -0.03859197 -0.03359897 -0.01147904  0.02387378  0.05524126 -0.00888445
  0.0204939   0.01723926 -0.05316973 -0.07444245  0.03548914  0.01366824
 -0.05609861 -0.00729807 -0.08809718 -0.03448004  0.01517107 -0.03370414
  0.00047124 -0.0629138   0.0366422   0.01084452 -0.02902294 -0.00539975
 -0.02775064 -0.05605118  0.01344557 -0.06979081  0.05857474 -0.09374873
 -0.11712623 -0.01258655 -0.07582609  0.04380007 -0.06613144  0.05113529
 -0.0213533  -0.00058804  0.00804562  0.04253147  0.01085289  0.03214545
 -0.02985776 -0.01031604 -0.02661122 -0.01226871 -0.04825769  0.03609771
  0.0184621   0.04412503  0.08727353 -0.05047894  0.08878559  0.01074507
 -0.00439797  0.01924696  0.01916309  0.06421616 -0.02447962  0.03897093
 -0.01289514 -0.03139835  0.01937857  0.00128809 -0.0214601  -0.02392765
 -0.01391143 -0.03737973  0.01673214 -0.10965247 -0.10232306  0.00535384
 -0.05834583  0.01076912  0.06586647 -0.00524532  0.07026757  0.06619012
  0.13651785 -0.01186077 -0.06006091 -0.04519723  0.06245824 -0.06289364
  0.06154909 -0.02256586 -0.11068793  0.01490014 -0.02563134  0.07745214
 -0.02995232 -0.00896906  0.01062723 -0.00047975 -0.0085756  -0.05980521]
[ 0.06976966 -0.00166079  0.03663548 -0.02327032  0.01147029 -0.02220592
 -0.01290086  0.11027078 -0.04864345  0.0356692   0.01844709 -0.04844069
  0.02171265 -0.03785878  0.00104674  0.01560773 -0.04474527  0.03978773
  0.02200381  0.01083131 -0.04044308 -0.01577945 -0.08750262 -0.05922426
  0.06678662 -0.02051644  0.04498323 -0.02675352  0.08709015  0.01286698
  0.02629598 -0.00044272 -0.01540349 -0.07213305 -0.01307622 -0.0100216
 -0.08901251  0.05580151 -0.04465222  0.04188853 -0.05247301 -0.01506901
  0.02679783  0.01787995  0.05258273 -0.07133902  0.00410795 -0.01579897
 -0.08377738 -0.0117352   0.0242302  -0.01127425  0.07907258 -0.03354155
 -0.01006232  0.01407596  0.06380604  0.04737013  0.08435122  0.06442158
  0.0278435  -0.07962713  0.04701273 -0.04240868 -0.09013396 -0.03502474
 -0.02644499  0.03724953  0.00959212  0.10125192 -0.08166028  0.00346766
  0.01906679  0.06782219  0.00076214  0.06346646 -0.10246858 -0.03331868
 -0.05898103 -0.01235124 -0.05132796 -0.02961549 -0.04982853  0.06220238
  0.0277411  -0.09652375  0.10335565  0.02583185 -0.09409817  0.01438851
  0.00212855 -0.00588265 -0.06039408 -0.05187042  0.02887052 -0.05756341
 -0.00428227 -0.01082067  0.05486909  0.07120579  0.05768383 -0.04729435
  0.06685513 -0.00968588 -0.00852591  0.00367025  0.03212903 -0.01785498
  0.09714122  0.01457734 -0.0030301  -0.03749957  0.09026802 -0.06674674
 -0.03764411  0.03120507  0.0806312  -0.06308588  0.04463924  0.01548549
  0.01345146 -0.07390484 -0.10784689  0.0169522   0.01913853  0.03879024
 -0.04596713 -0.07070319  0.005762   -0.01887651 -0.10223528  0.09746074
  0.0891433  -0.09259727 -0.02430163 -0.02476123  0.03970094  0.08170591
 -0.01039627  0.06522612  0.08708045  0.03290299 -0.0363522   0.00141841
  0.05133153  0.01477476  0.02837321  0.00522348 -0.05442061  0.04691701
 -0.01894044  0.00179728 -0.06876274 -0.03280631 -0.00573854  0.09743128
  0.04097297  0.03293331 -0.00208154 -0.01108385 -0.01236527  0.02506454
 -0.00652063 -0.01670681 -0.07801146 -0.03720726 -0.02004692 -0.03053601
 -0.00812507  0.01499682  0.0081344   0.0195873   0.08170605  0.07831405
 -0.06954007 -0.04526442 -0.13027272  0.00986128  0.03073809 -0.02780267
 -0.0714647  -0.00070041 -0.08585563  0.03067709  0.030516    0.01399871
  0.02465684  0.05955394  0.01023589  0.04819783  0.03652962  0.01300817
 -0.02793599  0.13445261 -0.00867783 -0.04625555  0.02399643 -0.0625021
  0.0720065  -0.03654284 -0.01504741  0.04473617  0.01276308 -0.00642322
 -0.00038376 -0.0200319   0.09272914 -0.06175527  0.04440164 -0.02064181
  0.07465433 -0.04024298  0.02629541  0.00545966  0.06242559  0.02647227
 -0.02598708 -0.04921841  0.02824792  0.02166072 -0.03332573 -0.00513052]
[-2.15888340e-02  6.28260300e-02  4.80680987e-02  2.54384428e-02
  5.91581967e-03 -7.54612731e-03 -2.75826603e-02 -5.88843115e-02
 -7.10960180e-02  1.49939873e-03 -4.06900570e-02  1.04493976e-01
 -4.22156900e-02 -3.45666483e-02 -3.95827321e-03 -1.00474149e-01
 -1.29683651e-02 -7.82337505e-04 -5.18522114e-02 -1.43450284e-02
  3.88519606e-04  2.48378366e-02 -8.74036998e-02  3.35333087e-02
 -8.69477764e-02  8.22478011e-02  6.91583082e-02  6.21057954e-03
 -2.53272038e-02  2.80055944e-02 -1.82606429e-02 -4.79093753e-02
  4.01994549e-02  1.30026281e-04 -5.47169447e-02  1.32312626e-01
 -4.15510871e-02 -1.38930362e-02 -3.59378685e-03 -1.28268702e-02
  2.36731418e-03 -3.02308355e-03 -4.84009944e-02  8.72115791e-03
  1.09362891e-02 -1.43864397e-02  1.08091962e-02 -1.44715505e-02
  5.70530593e-02 -2.17498057e-02 -6.46481141e-02  9.44016278e-02
  7.12619796e-02 -1.87201127e-02 -5.43833477e-04  8.39240104e-02
  3.47854234e-02  7.49961138e-02  7.69701675e-02  8.40960350e-03
  3.83457989e-02 -2.04458628e-02 -4.32336936e-03  4.94125932e-02
  2.47593783e-02 -2.79177353e-02  2.08996143e-02 -5.63510582e-02
  8.03300831e-03 -8.08300357e-03  1.14226036e-01  5.00858761e-02
  3.54290940e-02 -5.02699465e-02  7.78211579e-02  1.63415447e-02
 -1.69771886e-03 -1.28784981e-02 -6.13848912e-03  4.43139550e-04
  3.99311520e-02 -1.27114225e-02  1.67826843e-02  3.26794945e-02
 -8.39744806e-02  2.40133852e-02  1.92787927e-02  9.62153897e-02
 -1.70972813e-02  3.75469178e-02  8.70367140e-02 -3.00219283e-02
  3.76851037e-02 -3.86188403e-02 -6.64725155e-02 -8.53896961e-02
 -5.28731309e-02  3.11949924e-02  9.78648942e-03 -8.50134194e-02
  7.12663084e-02 -1.21908203e-01  1.93538575e-03  1.58473919e-03
  6.68234527e-02  2.28544939e-02 -2.06623711e-02 -6.23292141e-02
  1.91726983e-02  2.02982575e-02  5.83128482e-02 -1.04491618e-02
  3.16333547e-02  3.36872116e-02  4.53011878e-02  2.69229058e-02
 -7.20956102e-02 -8.45817775e-02 -2.50291396e-02  8.13459679e-02
  1.94244254e-02  8.86670053e-02 -1.39059918e-02 -8.91465396e-02
 -1.72758624e-02  4.93234284e-02  5.15572801e-02  4.70887460e-02
 -2.06649937e-02 -4.05993871e-03  9.31986049e-03  4.68095057e-02
 -1.29212663e-02  1.01598069e-01 -6.52535483e-02  6.09518178e-02
 -6.03442676e-02 -1.10286213e-02  1.04765696e-02  1.29335485e-02
  5.49409613e-02 -3.67821269e-02  4.01979638e-03  3.65945138e-02
 -6.67962655e-02  3.07276826e-02 -1.94253400e-02  2.69594006e-02
  6.43605366e-02 -4.91829291e-02 -5.34068681e-02  5.13596041e-03
 -4.28152643e-02  4.94390950e-02 -3.70300724e-03 -4.23010159e-03
  2.44174451e-02  2.89046019e-03  5.83818704e-02  4.13260125e-02
 -5.16027734e-02 -3.49448547e-02  3.10559310e-02 -1.00492602e-02
  3.95409297e-03  4.49709632e-02  4.78527471e-02  3.60350423e-02
 -9.26210638e-03 -3.48307146e-03  1.70172621e-02 -3.69538479e-02
  6.78009866e-03  5.37850857e-02 -1.87393595e-02 -8.40786025e-02
  1.97445508e-03  4.10930924e-02  2.44915374e-02 -3.96967605e-02
  2.30903737e-04  9.48494077e-02 -1.08556040e-01  1.67644639e-02
  7.12815113e-03 -3.97048593e-02 -3.82560119e-02  1.72560681e-02
 -4.17371951e-02  4.50919271e-02 -6.12502806e-02 -5.39595112e-02
 -3.65379383e-03  7.24610090e-02  9.30043031e-03  9.57531482e-03
 -1.81443058e-02  4.26149294e-02 -2.28283796e-02  3.33679002e-03
  7.18427673e-02 -4.35139388e-02  4.42099795e-02  1.89897139e-02
 -1.71998497e-02 -7.52612427e-02  6.11213483e-02  3.32364477e-02
  4.90451902e-02  5.78949079e-02  2.06468701e-02  2.28033736e-02
 -5.68573400e-02  6.26250878e-02  8.72404967e-03 -5.17658032e-02
 -2.36377195e-02  2.08167043e-02 -7.05327988e-02 -1.14970818e-01
  5.59186563e-03  3.14400643e-02]
[ 0.0483016  -0.04754251 -0.03392696  0.07855169 -0.01228594  0.0307019
  0.00274178  0.04015844  0.03515016  0.01605869  0.02862623  0.01176288
 -0.06016188  0.00236892 -0.0298941  -0.09756779  0.03418925  0.03107873
  0.07165058 -0.04068965  0.01540322 -0.04189586  0.04705474 -0.01579774
  0.00425541  0.00377378  0.02863181 -0.00662006 -0.02972693  0.00334161
 -0.06865257  0.09269848  0.01247636 -0.06481079  0.04600645 -0.00564245
 -0.02292567 -0.00384061 -0.00515646 -0.11073909 -0.08056763  0.00514179
 -0.00687213 -0.02033176  0.01569158  0.06267537  0.01365373  0.04859485
 -0.01126753 -0.01390037  0.01872099  0.02455391 -0.0247388   0.00413573
 -0.02089579  0.01974746  0.03005713 -0.022741   -0.10096075 -0.02529801
  0.10623451 -0.03004944 -0.07146809 -0.03751155  0.04879629  0.10316999
  0.03422765 -0.05527968 -0.03784451  0.02043383 -0.08496219 -0.02778376
  0.00967432  0.02827792  0.01783559 -0.03276754 -0.07314955  0.00152163
 -0.04763665 -0.03334913 -0.02651549  0.03178325  0.01286737 -0.00990771
 -0.0319105   0.01851686 -0.0223743   0.03208771  0.02206328  0.02853974
 -0.01996094 -0.02393506  0.0424701  -0.00559747 -0.0810821   0.03973906
  0.00289849  0.05014485  0.02279042  0.0152437  -0.00084858  0.03156757
 -0.03249842  0.0363194  -0.06624649 -0.10136188  0.07804087  0.01963061
 -0.00763012  0.01342685 -0.15073313  0.09488973 -0.00525876 -0.00728405
 -0.05825434  0.02397547  0.04750726 -0.08528705 -0.02201362 -0.14834242
 -0.02106828  0.04540537 -0.03535943  0.02135066  0.04672731  0.04859468
  0.06739542  0.01721634  0.00244343 -0.02623353 -0.10452662  0.01076083
 -0.06704911 -0.00072216 -0.00150192  0.04846196  0.06236262  0.06398576
 -0.0557507  -0.02909302 -0.10378259  0.12712194 -0.00776388  0.00430545
 -0.0450676  -0.10399891 -0.0334508   0.05627158  0.02463676  0.03488043
  0.06341674  0.06085372  0.06947916 -0.10705375 -0.05869555 -0.04466461
  0.02418763  0.04649975  0.08949494  0.04284471 -0.01766492 -0.06228328
  0.11798292 -0.06833117 -0.00981788 -0.04098234 -0.03096459  0.00237008
  0.02826426 -0.01770771  0.0468168   0.0767598   0.00555397 -0.00605494
 -0.06346701 -0.02707522 -0.02177857 -0.00544554  0.0579743  -0.01109301
  0.05861966 -0.04926265  0.07380147  0.05412248  0.00501731 -0.05818546
 -0.09671707 -0.02585857 -0.05286942 -0.01773512 -0.07524269 -0.074843
 -0.08026614 -0.0262535   0.03007639 -0.00960905  0.01998728 -0.03284957
 -0.07821477 -0.00788908  0.01830401 -0.08758204 -0.02268765  0.08531491
  0.05383033  0.03939999  0.05760015  0.00887616 -0.096705    0.06313553
  0.01393861 -0.0301942   0.00606726 -0.02689824  0.07172447  0.00115396
  0.08082531 -0.07955703  0.04941435  0.01408096 -0.01999253  0.03351489]
[ 0.01880373  0.03661844  0.01820879 -0.03596242  0.08850081  0.03931158
  0.06657211  0.04029759  0.07117972 -0.00417007  0.01402218 -0.01588238
 -0.10803249 -0.09251481  0.00696714 -0.03048579 -0.02279984  0.06590325
 -0.03513784  0.04664161 -0.04716124  0.10303307 -0.04797583 -0.04164517
  0.00319634  0.06894553  0.03419127  0.01588276  0.04926553 -0.09146331
  0.04076001  0.05572102 -0.00532389 -0.00435264  0.00920811  0.05371253
 -0.00269117  0.01026777  0.05715315 -0.00945586  0.04420015  0.08483364
  0.02364416  0.01782987  0.03285284  0.00773603  0.00570094 -0.00101163
 -0.03684973  0.04754128  0.01394853  0.06508812 -0.07266277  0.01947318
  0.02661085  0.01506777  0.02830881  0.00419687  0.04692081 -0.05554271
 -0.02309556  0.01658142  0.04913864 -0.03210395 -0.04183382  0.08677096
 -0.01693276  0.03218535 -0.04143477  0.0094661  -0.00154049 -0.02000227
  0.04432282  0.05474909  0.08095098  0.00259481 -0.01675704  0.0263192
  0.06112041 -0.0983933  -0.04341849  0.03249958 -0.03201949  0.03541939
  0.00140774  0.06984405 -0.02137234 -0.02385378  0.03257616  0.11562223
  0.01564297  0.01783255 -0.08558099 -0.00504601 -0.11853698 -0.06298581
  0.04661597  0.03786821  0.00918237 -0.02514488  0.00953793  0.06207735
 -0.093965   -0.07411399  0.02852745  0.0159136  -0.01784906  0.03393099
  0.04530132 -0.04984982  0.01049581 -0.06000545  0.00571117  0.01775458
  0.05682859  0.06768056 -0.05421015 -0.00720099 -0.02712866  0.14984965
 -0.0116758   0.06008258 -0.04429717  0.05672468  0.00662794  0.04505574
  0.0650912   0.04029513 -0.0595034   0.04490634  0.07726703  0.02322396
  0.05257875 -0.04042329 -0.01738891 -0.06471936  0.03812977  0.02451359
 -0.00567683 -0.04043389 -0.05132527 -0.07780712 -0.02472995  0.03075083
  0.01670562 -0.05627277 -0.02419838  0.08962137 -0.08885472  0.00341033
 -0.01169771 -0.02667573  0.06647304 -0.07962135  0.00177482  0.03956934
  0.03527214  0.02126683  0.08279766  0.01407441 -0.03930971  0.04448014
 -0.01179187 -0.01796035  0.0263193  -0.00804874  0.00129903 -0.01032296
  0.06552716  0.12749662 -0.06404433  0.05720986 -0.02112556  0.00247547
  0.05879207 -0.03711284  0.00270512  0.0429337   0.07769495 -0.04701399
 -0.06563351  0.01632635  0.02592221  0.0096279   0.0682561  -0.093665
  0.01897553  0.07363204 -0.07355731 -0.02377199 -0.00819377 -0.00029023
  0.00073861 -0.02627783  0.01071343 -0.03213086  0.01531495 -0.03020358
  0.0428376  -0.0542674  -0.00168758 -0.01105485  0.03864004  0.02587444
 -0.01950954 -0.00251831 -0.0362182  -0.03026733 -0.02271635 -0.011348
  0.00042608  0.02109493  0.01282188  0.00661415  0.08596247 -0.03791878
  0.04120597 -0.08774085 -0.07756562  0.04964436  0.04133154 -0.06523338]
[-0.01514412 -0.01830224 -0.02152346  0.0254715   0.08302568 -0.00198421
 -0.08409948  0.03902863  0.03795319  0.00827054 -0.0634171  -0.02848628
  0.06452365  0.0830913   0.12337738 -0.03882704  0.02233801 -0.0053448
  0.04826533 -0.02250671 -0.04026012  0.00206812 -0.02336259 -0.01068872
 -0.06288093 -0.01064993  0.04924093 -0.08512234 -0.06424386 -0.01913301
 -0.09058271  0.03408772  0.00987099  0.00880391 -0.00133999 -0.0051983
 -0.08951779 -0.07891127  0.0630661  -0.01809661  0.05646408  0.06795277
  0.05689365  0.1076809   0.06874631 -0.03043686  0.00097754  0.05129312
  0.01800079 -0.06783565 -0.02282225 -0.07682134  0.02050505  0.00787043
 -0.02876413 -0.04218461 -0.0014801   0.02701308 -0.00058148  0.09798611
 -0.02449886 -0.08364864 -0.00102498 -0.14338426  0.08041499 -0.09259211
  0.03002224 -0.02442434 -0.04615714 -0.00980453 -0.01697913  0.03335897
 -0.0824779  -0.03555274 -0.08271971 -0.02320352  0.05279328 -0.03125884
 -0.02442435  0.09544722  0.0435016   0.01921958 -0.06015273  0.03762632
  0.12049654  0.02689342  0.01765405 -0.02737963 -0.07980432 -0.07146366
 -0.04785548  0.02667291 -0.03166831  0.01392009  0.0188302   0.02868803
  0.07312775 -0.05259763  0.02917447 -0.05837132 -0.00722519 -0.03644697
  0.05723886  0.05828699  0.0248908   0.10154981  0.02300376  0.07120704
  0.01721998 -0.03974689  0.08501039  0.06527123  0.06537926 -0.0020914
 -0.03899924 -0.04479049 -0.03154781  0.02843938 -0.05280276  0.01051739
  0.05520129 -0.02840811  0.05899342  0.04687658  0.05159002  0.04287592
 -0.01279908 -0.04264348 -0.00127407 -0.04118304  0.07440607 -0.03422899
  0.03072912 -0.02669595 -0.03010939  0.06358261 -0.01498204  0.050915
 -0.00801794  0.04012534 -0.04983422  0.04734689  0.00948759 -0.07107851
 -0.01541606 -0.05374729 -0.0084705   0.03508096  0.04216341  0.02432072
 -0.05890873 -0.02562138  0.04357648 -0.07372604  0.00983769 -0.04522946
 -0.04347909  0.06181027  0.00532611 -0.10191796  0.02021026  0.00825204
  0.06304297 -0.12222807  0.07878754  0.0154359  -0.0150509  -0.03077678
  0.04992463 -0.13937367 -0.06876085  0.06414639  0.03039276 -0.01806428
 -0.03285091  0.09014953  0.00356266  0.03338276  0.02814706 -0.01550006
 -0.03265153  0.03433734 -0.02861128  0.09469289  0.0796489   0.0751526
  0.06081687 -0.01275943  0.02076201 -0.00695837  0.02608564  0.02312082
  0.01967291 -0.01477525 -0.08995323 -0.08840743 -0.05848083 -0.02799197
 -0.02653995 -0.02461099 -0.02178236  0.10486122  0.10033827  0.07170723
 -0.00198041  0.04115691 -0.00376891 -0.03077411  0.07313906  0.07848172
  0.07683414 -0.02526928 -0.03005862 -0.01124509 -0.04113815  0.05751154
  0.03599703 -0.06117462  0.02805494 -0.02124934  0.12980206 -0.00285853]
[ 0.01372608 -0.00893142  0.08584182 -0.0060236   0.00165409 -0.01820472
  0.02342485 -0.08099181 -0.05066341 -0.00877106 -0.04667972  0.02507259
  0.09713653 -0.01984602  0.0607575   0.07655626  0.07465499  0.02382473
  0.02652082 -0.01287791  0.04600246 -0.07358506  0.0621321  -0.01752015
 -0.00224909 -0.02968129  0.02398273  0.0022098  -0.01289339  0.01438155
  0.05064915 -0.01743069 -0.01396716  0.04488313 -0.14225692 -0.05192547
  0.03481961  0.03372849  0.06426177  0.02106199  0.01793725 -0.05568032
 -0.02814174  0.02609752  0.02123606  0.03190409  0.07624264  0.03000469
 -0.0308763  -0.05911266 -0.06205392  0.02149017  0.04051458 -0.04449198
  0.01888852  0.02344637 -0.00541382 -0.00592064  0.02269164  0.05753913
 -0.0411874   0.07294586  0.03150308  0.00166891 -0.03320951 -0.00295936
  0.00602245  0.07823236 -0.02694339 -0.01104092 -0.02844494  0.05686221
 -0.05809724 -0.00423978  0.041192    0.0546826   0.04740022  0.01822584
  0.05930393  0.03335273 -0.02485197  0.10249484  0.06722011 -0.01745083
 -0.0589875  -0.01265364 -0.05527052 -0.06325905  0.08864931 -0.00335013
 -0.02922461 -0.0027183  -0.06658632  0.00359453  0.00968453  0.06048438
 -0.01311308  0.05819043 -0.04119429  0.07930139  0.06308077  0.05834062
  0.01218309  0.06075571  0.00017186  0.08072599 -0.05014328 -0.08460227
 -0.03763455 -0.05095017 -0.00358991  0.03366332 -0.07618497  0.02086853
 -0.06780897  0.0221744  -0.09521132 -0.01885848 -0.09908434  0.0398721
 -0.02616201 -0.01581957 -0.1129549  -0.01662463 -0.08257011 -0.02789114
 -0.01173804  0.05908607 -0.00952059  0.04012315  0.10472681 -0.00685444
 -0.03777599  0.06933199 -0.03052227 -0.08692288  0.01162701  0.04593368
  0.06398103 -0.01358505 -0.08472218  0.10219727  0.01132398 -0.01790705
  0.00438029 -0.04165565  0.02249318 -0.00046905 -0.00175725 -0.01475776
 -0.03082817  0.02967807  0.02484237  0.02314064  0.00844368  0.04565682
  0.00596851  0.0106394   0.05288218 -0.03146348  0.0212328   0.08598986
  0.04359022  0.02183902  0.01990103  0.04408238  0.01560763  0.0489713
 -0.00694525 -0.01540923  0.07847346  0.05042056 -0.06492531 -0.03267271
  0.05799347 -0.03007067  0.03875233  0.02961164 -0.01533277 -0.03068815
 -0.02034347 -0.02093806 -0.07922775 -0.00260138 -0.00145959  0.09599375
  0.01560031  0.03215446 -0.00295233 -0.11262061  0.01045899  0.03915209
  0.01843214 -0.04406075 -0.07574479 -0.02806653 -0.09307966  0.05923011
  0.06182061  0.018089   -0.00810252  0.01451866 -0.00522115  0.03114597
  0.00375989  0.03250111  0.08965214  0.07496931  0.05294402  0.02961748
 -0.01454211  0.01219549 -0.00510545  0.01453126  0.08964884 -0.07445642
  0.13821124 -0.02366442  0.04341152  0.00984547  0.03807585 -0.05415979]
[-0.04699058  0.00025214  0.03405381 -0.0476548  -0.04749557 -0.0333476
 -0.06144376 -0.0222977  -0.0056359  -0.06878187 -0.00857672 -0.04153261
  0.08839637  0.04845422 -0.11776558  0.00243503 -0.04857701 -0.0704415
  0.03044892 -0.05594184 -0.01274033 -0.00809965 -0.02418326 -0.061744
  0.037495   -0.01935292 -0.11055    -0.08445732 -0.03657001 -0.08414984
 -0.06535705  0.06528044  0.02224116 -0.08582915 -0.09249341 -0.07439614
  0.06983155  0.0424119   0.01187799 -0.04013923  0.07482633  0.03734501
  0.02638172  0.01276354 -0.01475464 -0.04477924  0.00869173 -0.01337213
 -0.03083043 -0.06754407 -0.06124677  0.03780619 -0.02631913  0.0243794
 -0.02051334  0.07115127 -0.00762161 -0.03225418  0.0475597   0.06229754
 -0.06714503 -0.02818723 -0.03927321 -0.03633014 -0.08085267 -0.06333573
